  -0.63387,  -0.50626,   0.43955,  -0.40152,  -0.34436,  -0.81576,  -0.77510,  -0.43339,  -0.77072,  -0.79383,  -0.81213,   0.70550,  -0.78175,  -0.74002,  -0.77232,  -0.12085,  -0.31963,  -0.56803,  -0.60444,  -0.07632,  -0.56204,   0.16457,  -0.65422,  -0.64559,  -0.33984,   0.86351,  -0.40130,  -0.38966,  -0.56733,  -0.78902,  -0.44687,  -0.32656,   0.77274,   0.68042,  -0.64888,   0.53302,   0.82187,  -0.81064,   0.34370,  -0.75413,  -0.48048,  -0.46358,   0.36800,  -0.69947,   0.87521,   0.28611,  -0.77737,  -0.53710,  -0.83352,   0.27175,  -0.35477,  -0.39655,  -0.65637,  -0.49555,   0.93750,  -0.32622,   0.68940,  -0.88524,  -0.03149,   0.86374,  -0.41579,  -0.85982,  -0.53619,  -0.72550,  -0.56413,  -0.56478,  -0.60846,   0.46651,  -0.42991,  -0.44513,   0.47245,  -0.81894,   0.62351,   0.44531,  -0.75798,  -0.82733,  -0.18603,  -0.28135,  -0.33378,  -0.64925,   0.59211,  -0.55581,   0.61009,   0.69294
  -0.65071,   0.15647,  -0.48102,  -0.58303,  -0.30470,  -0.59051,   0.93750,   0.61475,   0.62479,   0.87066,  -0.78275,  -0.26335,   0.58497,  -0.62953,  -0.75287,  -0.21966,  -0.25499,   0.89990,  -0.58822,   0.91152,   0.65184,   0.29149,  -0.45470,  -0.70658,  -0.43606,   0.14802,  -0.36906,  -0.21676,  -0.51866,  -0.79820,  -0.26353,  -0.16644,  -0.02567,  -0.09927,  -0.45767,   0.71176,   0.41185,  -0.32822,  -0.54152,  -0.60063,  -0.37944,   0.76151,  -0.54129,  -0.79147,  -0.53761,  -0.93750,   0.28118,  -0.04723,  -0.87852,  -0.53687,  -0.47905,  -0.35529,   0.93750,   0.89467,   0.21708,   0.24372,  -0.31309,  -0.43785,  -0.19143,   0.08819,  -0.62750,  -0.54366,   0.51206,  -0.12546,  -0.00089,  -0.62509,  -0.61446,  -0.14435,  -0.39453,   0.74937,   0.16290,  -0.60236,   0.80819,  -0.85138,  -0.19536,  -0.81326,  -0.32348,  -0.32506,  -0.29591,  -0.20982,  -0.29051,   0.89327,  -0.25441,   0.19540
  -0.76032,  -0.57640,  -0.42181,   0.72126,  -0.64441,  -0.83525,  -0.90797,  -0.80402,   0.22363,  -0.77611,   0.76678,  -0.27178,  -0.72430,  -0.56669,   0.86132,   0.52365,   0.72280,  -0.76197,  -0.21913,  -0.92435,  -0.93750,  -0.93750,   0.33393,   0.91086,  -0.74527,  -0.86862,   0.44460,   0.60869,   0.78593,  -0.34911,  -0.78416,   0.71812,  -0.58863,  -0.69132,  -0.71328,  -0.93750,  -0.86873,  -0.70595,  -0.63101,   0.74085,  -0.75649,  -0.80319,  -0.18008,   0.93750,  -0.68411,  -0.60054,  -0.69348,  -0.74455,   0.81611,  -0.87840,  -0.42966,   0.88465,  -0.80477,  -0.73223,  -0.78286,  -0.69294,  -0.67518,  -0.48060,   0.47327,  -0.50821,  -0.53224,  -0.58479,  -0.60434,   0.07042,  -0.81420,   0.91007,  -0.65842,  -0.68067,  -0.10965,  -0.93750,  -0.51028,  -0.56285,  -0.89263,   0.20987,  -0.87044,   0.89696,  -0.88315,  -0.52610,  -0.02803,  -0.84568,  -0.93750,  -0.85338,  -0.35579,  -0.92861
  -0.66705,   0.84576,   0.93750,  -0.80232,   0.76890,  -0.90022,  -0.85449,   0.76947,  -0.51079,  -0.88960,  -0.75333,  -0.64013,   0.02037,  -0.74407,  -0.51009,  -0.63316,  -0.82278,  -0.72394,  -0.90236,  -0.74768,  -0.79173,   0.87777,  -0.84848,  -0.78045,   0.87305,  -0.78849,  -0.83146,  -0.38707,  -0.75209,  -0.89278,   0.80532,  -0.50692,  -0.82356,  -0.61473,  -0.82921,  -0.81372,  -0.93750,  -0.67324,   0.86348,  -0.61948,  -0.81628,  -0.93750,   0.82694,  -0.49418,  -0.90543,  -0.83938,  -0.87390,  -0.81435,  -0.65040,  -0.78322,   0.78983,   0.05150,  -0.74528,  -0.86840,   0.91761,   0.86817,  -0.78355,  -0.83905,  -0.17699,   0.93750,  -0.80205,  -0.81374,   0.82678,   0.73568,  -0.80629,  -0.04018,  -0.85945,  -0.78040,   0.83130,   0.12431,   0.86577,  -0.83962,  -0.81415,  -0.90754,  -0.87976,  -0.65344,  -0.71049,   0.91318,  -0.93750,   0.68598,  -0.64528,  -0.77427,   0.87117,  -0.92963
  -0.79530,   0.08855,   0.92516,  -0.82537,   0.02213,  -0.93750,  -0.77395,   0.93013,  -0.53939,  -0.90626,  -0.71142,  -0.40191,  -0.45226,  -0.93750,  -0.56305,  -0.47264,  -0.52647,  -0.72226,  -0.93750,  -0.81873,  -0.93156,   0.66717,  -0.87151,  -0.78958,   0.93750,  -0.86187,  -0.93750,  -0.44681,  -0.51973,  -0.88300,   0.88006,  -0.73563,  -0.70129,  -0.68735,  -0.85773,  -0.65106,  -0.81427,  -0.69753,   0.93486,  -0.80563,  -0.81413,  -0.71535,   0.84060,  -0.72474,  -0.67586,  -0.68584,  -0.77239,  -0.62276,  -0.68024,  -0.92683,   0.88822,   0.47024,  -0.79909,  -0.87346,   0.79693,   0.93750,  -0.90944,  -0.93750,   0.38237,   0.93750,  -0.80549,  -0.74239,   0.88846,   0.88590,  -0.55389,  -0.93750,  -0.91126,  -0.79536,   0.93217,  -0.81414,   0.91917,  -0.77687,  -0.93750,  -0.72527,  -0.92580,  -0.81753,  -0.84774,   0.85728,  -0.92510,   0.86437,  -0.81968,  -0.90201,   0.78662,  -0.92818
  -0.40577,  -0.56134,   0.19887,  -0.82353,  -0.75543,  -0.90360,  -0.57447,  -0.41254,  -0.12441,  -0.41104,  -0.86293,   0.76725,  -0.70203,   0.24401,  -0.73216,  -0.70103,  -0.36173,  -0.23759,   0.59160,   0.36751,   0.40444,  -0.62642,  -0.63474,  -0.69395,  -0.24768,   0.06052,  -0.54326,  -0.16242,  -0.72881,   0.74964,   0.03143,  -0.66376,   0.57538,   0.20399,  -0.80261,   0.34834,  -0.26235,  -0.26275,   0.05528,  -0.29273,  -0.41900,   0.34145,  -0.63805,  -0.85182,   0.12380,  -0.27187,  -0.36970,  -0.20540,  -0.91168,   0.86856,  -0.51174,  -0.44383,  -0.32310,  -0.61152,  -0.25773,  -0.73371,   0.06250,  -0.84336,  -0.18000,  -0.07852,   0.46074,  -0.82707,  -0.48638,  -0.47252,   0.06205,  -0.57476,  -0.23345,   0.05234,  -0.40392,  -0.18031,   0.60809,  -0.64523,  -0.29053,  -0.13221,  -0.76403,  -0.55145,   0.48067,  -0.53832,  -0.72681,  -0.32575,   0.25037,  -0.54065,   0.36582,  -0.07467
  -0.25301,   0.79939,  -0.62028,  -0.16466,   0.28530,   0.71246,  -0.60202,  -0.75382,  -0.85770,  -0.36758,  -0.73420,  -0.53560,  -0.69627,  -0.89518,  -0.92171,  -0.69908,   0.13537,  -0.69354,  -0.89022,  -0.65978,  -0.63261,  -0.35265,   0.49844,  -0.80272,  -0.68266,  -0.68443,  -0.61363,   0.15659,  -0.71985,  -0.85502,  -0.61769,   0.02698,   0.39918,   0.76182,   0.87635,  -0.75027,   0.52902,  -0.30198,  -0.18535,  -0.77206,  -0.53163,  -0.85249,  -0.30004,  -0.88979,   0.41137,  -0.63182,  -0.57461,  -0.28018,  -0.60964,  -0.77880,   0.86826,  -0.36968,  -0.83710,   0.66488,  -0.84359,  -0.55800,   0.74545,   0.91834,   0.40167,  -0.76195,  -0.76437,  -0.26990,  -0.82219,  -0.64578,  -0.61885,  -0.36341,  -0.86479,   0.65973,  -0.61648,  -0.52577,  -0.11876,   0.91520,  -0.67640,  -0.90815,  -0.48024,  -0.65555,  -0.72689,   0.58080,   0.52974,  -0.79654,  -0.52952,  -0.78729,  -0.86852,  -0.01036
  -0.86654,  -0.49260,   0.87196,  -0.68620,  -0.15591,  -0.87561,  -0.74021,   0.84993,  -0.75753,  -0.68581,  -0.90022,   0.49639,  -0.75565,  -0.79912,  -0.90296,  -0.71648,  -0.24884,  -0.83852,  -0.68152,  -0.82839,  -0.92374,   0.19264,  -0.93387,  -0.48883,   0.87500,  -0.80385,  -0.55121,  -0.41528,  -0.80723,  -0.90553,   0.82069,  -0.83630,  -0.80474,  -0.58666,  -0.76808,  -0.89248,  -0.93750,  -0.87485,   0.76871,  -0.45658,  -0.90061,  -0.83410,   0.93750,  -0.58705,  -0.75813,  -0.71554,  -0.92457,  -0.80758,  -0.82168,  -0.91982,   0.69872,   0.79913,  -0.84162,  -0.82461,   0.74829,   0.66665,  -0.52015,  -0.87987,   0.74982,   0.73715,  -0.87656,  -0.75592,   0.88486,   0.60432,  -0.64241,  -0.26659,  -0.84619,  -0.91538,   0.93750,  -0.87009,   0.91176,  -0.89241,  -0.82050,  -0.86088,  -0.79944,  -0.59713,  -0.65700,   0.75594,  -0.79365,   0.93670,  -0.93750,  -0.59777,   0.93750,  -0.90645
   0.63046,  -0.85710,  -0.77276,  -0.85620,  -0.93750,   0.85337,   0.91605,   0.93750,   0.89858,  -0.87137,  -0.81345,  -0.64450,   0.66924,   0.83935,  -0.89911,  -0.73598,  -0.46124,   0.85992,   0.59691,   0.77281,   0.90566,  -0.93750,  -0.70064,  -0.86946,   0.93750,  -0.86382,  -0.92126,   0.91162,  -0.76647,   0.86010,   0.86946,  -0.70703,  -0.67148,  -0.39566,   0.67068,  -0.93750,  -0.93750,   0.93075,  -0.44741,   0.80851,   0.92697,   0.93750,  -0.83143,  -0.86253,  -0.63281,  -0.93750,   0.85925,   0.79949,  -0.88098,   0.87874,  -0.77496,  -0.86708,   0.83954,  -0.76307,  -0.85938,   0.80890,  -0.67378,  -0.84421,  -0.37237,  -0.82228,   0.85847,   0.85708,   0.92191,  -0.83263,   0.90717,  -0.93750,   0.80387,  -0.76710,  -0.85824,   0.74214,   0.93750,   0.92881,  -0.91788,  -0.87081,   0.86951,  -0.80490,   0.74960,  -0.81976,  -0.79277,   0.63742,  -0.80987,   0.93750,  -0.90442,  -0.86987
   0.87454,  -0.75729,  -0.68756,  -0.49276,  -0.93750,  -0.58893,  -0.81532,  -0.92540,  -0.69361,  -0.76023,  -0.79288,  -0.28250,  -0.80624,   0.87089,  -0.76539,  -0.53799,   0.01774,  -0.91075,   0.64274,  -0.56273,  -0.80744,  -0.92635,  -0.76288,  -0.67578,  -0.46384,  -0.90104,  -0.62312,  -0.35078,  -0.37898,   0.85288,  -0.50332,  -0.73358,  -0.61877,  -0.06292,  -0.66756,  -0.83495,  -0.84513,   0.75695,  -0.52655,   0.86472,   0.81693,  -0.62413,  -0.21627,  -0.45805,  -0.61709,  -0.38558,  -0.46333,   0.73300,  -0.68858,  -0.22933,  -0.53670,  -0.46649,  -0.77862,  -0.88280,  -0.53941,  -0.66300,  -0.54917,  -0.87885,  -0.00197,  -0.19210,   0.80116,   0.57451,  -0.82140,  -0.58605,   0.85284,  -0.40550,   0.44318,  -0.51760,  -0.64208,  -0.85608,  -0.47424,  -0.78881,  -0.93750,   0.79206,   0.56500,  -0.61073,   0.21542,  -0.75562,  -0.92646,  -0.70127,  -0.40976,  -0.72201,   0.20006,  -0.90576
  -0.58637,  -0.41218,  -0.25754,  -0.44684,  -0.45867,  -0.53807,   0.62540,   0.62934,   0.41019,   0.39234,  -0.42366,  -0.16124,   0.72215,  -0.38163,  -0.84286,  -0.35401,  -0.18856,   0.69106,  -0.65178,   0.79024,   0.78796,   0.55220,  -0.78940,  -0.12743,  -0.55043,   0.40900,  -0.41754,  -0.27926,  -0.15214,  -0.61501,  -0.53280,  -0.21401,  -0.18551,   0.12712,  -0.31899,   0.81197,   0.71173,  -0.55547,  -0.35724,  -0.51847,  -0.11094,   0.68027,  -0.58623,  -0.72478,  -0.36026,  -0.85856,   0.43557,  -0.42386,  -0.88504,  -0.43858,  -0.43211,  -0.41105,   0.82336,   0.06230,   0.51539,  -0.01695,  -0.02950,  -0.64981,  -0.40402,  -0.13834,  -0.67659,  -0.50705,  -0.36244,  -0.37282,  -0.41380,  -0.59235,  -0.53589,  -0.09334,  -0.47011,   0.82922,  -0.31337,  -0.61015,   0.38940,  -0.65601,  -0.65558,  -0.84848,  -0.40212,  -0.49373,   0.66992,   0.87500,   0.41447,   0.60125,  -0.01929,   0.43563
  -0.63751,  -0.66252,  -0.60363,   0.20792,  -0.72140,  -0.86944,  -0.77690,  -0.83146,  -0.62920,  -0.80568,   0.88765,  -0.46581,  -0.84159,   0.06669,   0.62054,   0.04933,  -0.03762,  -0.84798,  -0.06223,  -0.90823,  -0.86063,  -0.67258,  -0.25308,   0.85411,  -0.72826,  -0.86966,   0.22311,  -0.43539,   0.93411,  -0.67322,  -0.76058,   0.79009,  -0.75882,  -0.54932,  -0.79366,  -0.93750,  -0.92738,  -0.60086,  -0.70416,  -0.06699,  -0.72605,  -0.87583,  -0.52911,   0.77004,  -0.81806,   0.31689,  -0.92147,  -0.61824,   0.62986,  -0.72692,  -0.70543,   0.53013,  -0.93750,  -0.93750,  -0.48964,  -0.89107,  -0.34269,  -0.82876,   0.26346,  -0.24694,   0.01556,  -0.89460,  -0.92531,  -0.51241,  -0.61761,   0.87104,  -0.20526,  -0.57974,  -0.31662,  -0.85211,  -0.70767,  -0.82049,  -0.85021,   0.55406,  -0.65269,   0.93092,  -0.21647,  -0.49800,  -0.80245,  -0.86624,  -0.52958,  -0.72281,   0.09075,  -0.67511
  -0.69037,  -0.51350,   0.00565,  -0.47842,  -0.22808,  -0.31259,   0.18702,  -0.02925,   0.19329,   0.70792,  -0.72157,  -0.05926,   0.49533,  -0.88671,  -0.73224,  -0.68358,   0.06389,   0.64643,  -0.79345,   0.52408,   0.75867,  -0.40050,  -0.45500,  -0.60535,  -0.25745,  -0.16622,  -0.02747,   0.22602,  -0.33061,  -0.75453,  -0.16465,  -0.51042,   0.50926,   0.73347,  -0.53444,   0.80829,   0.80512,  -0.50841,  -0.01765,  -0.77071,  -0.71764,   0.22191,  -0.43394,  -0.92946,   0.33424,  -0.91748,   0.40483,  -0.71475,  -0.83527,  -0.13903,   0.28358,  -0.56479,   0.22415,   0.45115,  -0.33047,  -0.25624,   0.37164,  -0.76087,  -0.01703,  -0.49201,  -0.86989,  -0.42446,   0.37082,  -0.55545,  -0.57013,  -0.76392,  -0.77198,   0.68433,  -0.05649,   0.60290,   0.13067,  -0.00977,   0.46091,  -0.78338,  -0.85986,  -0.82556,  -0.80150,  -0.53798,   0.42907,  -0.59247,  -0.47676,   0.90165,  -0.53414,  -0.03360
   0.75718,  -0.83428,  -0.38504,   0.88393,   0.38623,  -0.77887,  -0.61915,  -0.48484,  -0.72486,  -0.85268,  -0.86618,  -0.05942,  -0.93152,  -0.15706,  -0.76407,   0.74538,   0.77041,  -0.93535,  -0.37146,  -0.87765,  -0.87214,  -0.75893,  -0.93750,  -0.74315,  -0.72979,  -0.87500,   0.92990,   0.18717,  -0.49591,  -0.69094,  -0.73051,   0.92096,  -0.60462,  -0.30316,  -0.87503,  -0.54239,  -0.81998,   0.88027,  -0.56510,  -0.54684,   0.92585,  -0.85460,   0.38411,  -0.92490,  -0.68126,  -0.77220,  -0.75855,   0.71780,  -0.93698,  -0.91352,  -0.92941,  -0.19150,  -0.87909,  -0.75748,  -0.68640,  -0.67605,  -0.64166,  -0.69808,  -0.14310,  -0.49549,  -0.65949,  -0.39543,  -0.78608,   0.67621,   0.76394,  -0.84132,  -0.53472,  -0.59558,  -0.16972,  -0.85972,  -0.66290,  -0.92189,  -0.83475,  -0.42064,   0.93750,  -0.77320,  -0.79404,  -0.88174,  -0.93750,  -0.05219,   0.18305,  -0.76979,   0.93750,  -0.85609
  -0.82369,  -0.49560,   0.06314,  -0.56682,  -0.46078,  -0.89397,  -0.73004,  -0.48058,  -0.76566,  -0.51146,  -0.74423,   0.69691,  -0.61385,  -0.20848,  -0.86437,  -0.32059,  -0.23581,  -0.85750,  -0.56734,  -0.77006,  -0.62396,   0.08744,  -0.88487,  -0.54117,  -0.45965,   0.55377,  -0.41403,  -0.48142,  -0.35781,  -0.80210,  -0.57508,  -0.48046,   0.51277,   0.48328,  -0.93165,   0.07107,   0.71474,   0.02961,  -0.38484,  -0.59956,  -0.39044,  -0.57213,  -0.33288,  -0.65050,   0.58005,   0.63374,  -0.77703,  -0.58650,  -0.71379,   0.19035,  -0.21883,  -0.69059,  -0.42241,  -0.61854,   0.35101,  -0.46854,   0.53145,  -0.92414,  -0.01959,   0.57650,  -0.62714,  -0.83049,  -0.46095,  -0.45687,  -0.43462,  -0.77176,  -0.28244,   0.18327,  -0.14388,  -0.24423,  -0.11399,  -0.74397,   0.48245,   0.81334,  -0.73969,  -0.75755,  -0.35425,   0.59211,  -0.40558,  -0.53097,   0.55713,  -0.70979,   0.87133,   0.23569
  -0.86266,   0.79466,   0.80791,  -0.79161,   0.86981,   0.47370,  -0.63670,   0.55795,  -0.61242,  -0.11492,  -0.68453,  -0.49883,  -0.51782,  -0.84618,  -0.63954,  -0.73322,  -0.45537,  -0.20324,  -0.86567,  -0.10902,  -0.08482,   0.93526,   0.80257,  -0.83510,   0.80202,   0.49189,  -0.79282,  -0.46643,  -0.73638,  -0.86484,   0.64117,  -0.36537,  -0.36120,   0.24175,   0.30990,   0.18700,   0.63380,  -0.72497,   0.92536,  -0.83360,  -0.88476,  -0.93686,  -0.29510,  -0.85844,  -0.48603,   0.51170,  -0.75691,  -0.78507,  -0.92478,  -0.93750,   0.76267,   0.00309,  -0.70127,  -0.58240,   0.87447,   0.55814,  -0.37064,   0.74521,  -0.59594,  -0.15675,  -0.91408,  -0.88094,   0.61600,  -0.21702,  -0.82041,  -0.76746,  -0.84032,  -0.13776,   0.16166,  -0.46954,   0.35200,   0.41213,   0.29523,  -0.84617,  -0.88732,  -0.82558,  -0.87500,   0.81327,  -0.87776,  -0.07219,  -0.53293,  -0.93750,  -0.46613,   0.44630
  -0.51176,  -0.77273,  -0.39655,   0.74219,  -0.19626,  -0.92371,  -0.88415,  -0.73963,  -0.34048,  -0.65369,   0.62190,  -0.12675,  -0.93353,   0.16229,   0.79358,   0.20748,  -0.37000,  -0.93360,   0.21368,  -0.79297,  -0.83605,  -0.50699,  -0.57495,   0.92547,  -0.63444,  -0.65066,   0.64653,  -0.60347,   0.90459,   0.10457,  -0.42773,  -0.44880,  -0.79447,  -0.47093,  -0.90589,  -0.87209,  -0.87862,  -0.57731,  -0.28579,   0.81621,  -0.56410,  -0.74405,  -0.35263,   0.86207,  -0.77145,   0.29384,  -0.78028,  -0.64908,   0.81950,  -0.52387,  -0.43566,   0.66096,  -0.80405,  -0.83055,  -0.78709,  -0.78537,  -0.62654,  -0.59509,   0.60831,   0.81224,  -0.43489,  -0.76048,  -0.61478,  -0.13457,  -0.72665,   0.93537,  -0.44203,  -0.72917,  -0.24479,  -0.87236,  -0.44978,  -0.76381,  -0.87475,   0.85052,  -0.93750,   0.89411,  -0.60921,  -0.80995,  -0.68814,  -0.69762,  -0.51814,  -0.61199,   0.47318,  -0.86947
  -0.80908,  -0.82359,  -0.54452,  -0.72893,  -0.69830,  -0.84096,   0.24648,  -0.74579,   0.85099,   0.74638,   0.80460,   0.83571,  -0.74500,  -0.67849,   0.87604,  -0.55790,   0.86004,  -0.77341,  -0.43142,  -0.52680,  -0.67048,  -0.76323,  -0.42017,   0.86320,  -0.57711,   0.65234,   0.20427,  -0.24928,   0.93750,  -0.93750,  -0.60860,  -0.59040,   0.51210,   0.62352,  -0.84343,  -0.76636,   0.93365,  -0.90589,  -0.22583,  -0.23088,  -0.86771,   0.66328,  -0.70589,   0.45466,   0.78326,  -0.93750,  -0.28407,  -0.76768,   0.75644,  -0.59554,  -0.49457,   0.11015,   0.63939,   0.31866,  -0.62876,  -0.82967,   0.72366,  -0.65129,   0.61309,  -0.69145,  -0.49990,  -0.86645,  -0.75344,  -0.61086,  -0.41811,   0.30140,  -0.58745,   0.73080,   0.01832,  -0.87015,  -0.38280,  -0.82813,   0.50930,   0.02833,  -0.85103,   0.87570,  -0.42280,  -0.65270,   0.86004,  -0.81900,  -0.05178,   0.83908,  -0.58608,   0.90307
  -0.80437,  -0.80264,  -0.14668,  -0.22136,  -0.77459,  -0.78541,   0.06470,  -0.73613,   0.92081,  -0.87065,   0.67866,   0.85173,  -0.86922,  -0.61065,   0.71581,  -0.17555,   0.88620,  -0.87895,   0.61545,  -0.81181,  -0.88870,  -0.86303,  -0.88588,   0.93750,  -0.50872,  -0.72961,   0.64761,   0.69554,   0.82716,  -0.79089,  -0.46098,  -0.42423,   0.21185,  -0.18210,  -0.68915,  -0.75604,  -0.93750,  -0.92896,  -0.24902,  -0.11373,  -0.58530,   0.89836,  -0.20108,   0.22721,  -0.51180,  -0.81478,   0.04356,  -0.73406,  -0.15335,  -0.79570,  -0.93656,  -0.10970,   0.80332,  -0.77833,  -0.83117,  -0.93750,  -0.23689,  -0.92022,   0.86688,  -0.42134,  -0.05464,  -0.85806,  -0.79688,  -0.69874,  -0.64780,   0.72132,  -0.17393,  -0.35910,   0.13421,  -0.78540,   0.15669,  -0.87699,  -0.93750,  -0.01604,  -0.87534,   0.88371,   0.18022,  -0.83282,  -0.93396,  -0.77508,  -0.75318,   0.69151,  -0.60543,  -0.81559
   0.45642,  -0.51869,  -0.17493,   0.78332,   0.76466,  -0.93750,  -0.66243,   0.87748,  -0.84747,  -0.51284,  -0.93750,  -0.44008,  -0.83995,  -0.85623,  -0.85479,   0.93750,  -0.19540,  -0.87713,  -0.67831,  -0.62632,  -0.93750,   0.92820,  -0.93750,  -0.87133,  -0.50133,  -0.62106,   0.57724,  -0.28632,  -0.76428,  -0.71821,  -0.60413,   0.82196,  -0.18613,  -0.25228,  -0.93750,  -0.83241,  -0.92307,   0.54643,  -0.52187,  -0.69274,   0.42256,  -0.83176,   0.93750,  -0.91393,  -0.72184,  -0.64228,  -0.64293,   0.93750,  -0.85781,  -0.89830,  -0.63852,  -0.51128,  -0.82071,  -0.93750,   0.58090,   0.87299,  -0.57930,  -0.53238,   0.19999,   0.93750,  -0.70342,  -0.55164,   0.74607,   0.92712,  -0.11169,  -0.85478,  -0.18019,  -0.85021,   0.01721,  -0.88605,  -0.20223,  -0.77883,  -0.88967,  -0.50271,   0.57129,  -0.85033,  -0.81912,  -0.55980,  -0.87974,   0.93227,  -0.69848,  -0.87355,   0.92091,  -0.92376
  -0.33627,  -0.81107,   0.09903,  -0.70511,  -0.72806,  -0.88223,  -0.38389,  -0.28688,  -0.57542,  -0.49891,  -0.58337,   0.52590,  -0.90932,   0.79016,  -0.80483,  -0.85723,  -0.21927,  -0.38415,  -0.08766,  -0.35886,  -0.68477,  -0.64183,  -0.27840,  -0.63744,  -0.33237,  -0.12051,  -0.49492,  -0.49846,  -0.63314,   0.01276,  -0.20871,  -0.70033,  -0.00130,   0.20548,  -0.87166,  -0.01846,   0.08663,   0.30837,   0.02051,  -0.25288,  -0.47179,  -0.25721,  -0.52224,  -0.70445,   0.10166,  -0.48299,  -0.76904,   0.04993,  -0.93105,   0.50386,   0.07584,  -0.40772,  -0.56070,  -0.87745,  -0.19296,  -0.26395,   0.45348,  -0.82436,  -0.06469,   0.12573,   0.28052,  -0.77898,  -0.11419,  -0.75844,   0.55736,  -0.60008,   0.54335,   0.17823,  -0.32057,   0.71117,   0.58041,  -0.74978,  -0.26845,  -0.19160,  -0.37408,  -0.63700,   0.93593,  -0.37651,  -0.66345,  -0.35847,   0.67268,  -0.51630,  -0.49627,   0.11707
  -0.29805,  -0.93750,   0.93092,  -0.54853,  -0.92759,  -0.60653,  -0.58851,  -0.80075,  -0.79858,  -0.93750,  -0.83392,   0.86539,  -0.93750,   0.07722,  -0.51754,  -0.74468,   0.88931,  -0.91964,   0.35105,  -0.89501,  -0.93750,  -0.87705,  -0.79527,  -0.86593,   0.88722,  -0.93228,  -0.58922,   0.84395,  -0.35301,  -0.73350,   0.79943,  -0.64803,   0.81607,   0.65724,  -0.92975,  -0.93750,  -0.92857,  -0.83401,   0.89932,  -0.60878,   0.22959,  -0.61266,   0.23672,  -0.75538,   0.65579,  -0.93750,  -0.59086,  -0.49215,  -0.86131,  -0.90428,   0.66881,   0.84336,  -0.87890,  -0.88541,  -0.82671,  -0.86138,   0.79042,  -0.88376,   0.91617,  -0.60806,   0.03534,  -0.69750,  -0.87889,  -0.79535,  -0.29047,  -0.60858,   0.57443,   0.49271,   0.76095,  -0.86371,   0.93555,  -0.90523,  -0.93750,  -0.59554,  -0.82754,  -0.76865,  -0.88352,   0.71014,  -0.83630,  -0.62282,  -0.84205,  -0.93796,  -0.78703,  -0.93213
   0.44034,  -0.81202,  -0.42669,  -0.75516,  -0.92162,   0.63580,   0.93129,   0.81066,   0.61817,  -0.91068,  -0.92778,  -0.48261,   0.75385,   0.77310,  -0.81485,  -0.62038,  -0.51372,   0.86354,   0.78175,   0.87151,   0.93750,  -0.92327,  -0.93115,  -0.86516,   0.85802,  -0.83358,  -0.86496,   0.82704,  -0.84114,   0.65668,   0.86930,  -0.80042,  -0.44398,  -0.49512,   0.85920,  -0.77111,  -0.90671,   0.78801,  -0.14504,   0.85803,   0.86400,   0.92902,  -0.45109,  -0.93750,  -0.83532,  -0.86176,   0.93391,   0.88374,  -0.93750,   0.93742,  -0.81137,  -0.65399,   0.93750,  -0.77643,  -0.93750,   0.42828,  -0.65178,  -0.84971,  -0.25039,  -0.85436,   0.80901,   0.81743,   0.92302,  -0.92875,   0.87079,  -0.87555,   0.59832,  -0.67564,  -0.52956,   0.92270,   0.86969,   0.62796,  -0.91184,  -0.93750,   0.87315,  -0.86076,  -0.32297,  -0.78661,  -0.81032,   0.93750,  -0.93350,   0.81137,  -0.76591,  -0.87761
  -0.72053,   0.50127,  -0.70252,  -0.49727,   0.84301,   0.86763,  -0.74228,  -0.80230,  -0.81265,   0.86965,  -0.85200,  -0.63617,   0.43270,  -0.76113,  -0.93750,  -0.51472,  -0.37283,  -0.22460,  -0.88583,  -0.00083,   0.77403,   0.76413,   0.91791,  -0.56822,  -0.70357,  -0.07169,  -0.55116,  -0.16169,  -0.28195,  -0.85047,  -0.55005,   0.13626,   0.65516,   0.71777,   0.68939,  -0.16240,   0.86934,  -0.49798,  -0.52695,  -0.56148,  -0.36498,  -0.84372,  -0.74352,  -0.82848,   0.67971,   0.77532,  -0.70444,  -0.53452,  -0.81813,  -0.62227,   0.44196,  -0.67972,  -0.81659,   0.78943,  -0.73316,  -0.84496,   0.60308,   0.82807,  -0.36635,  -0.81484,  -0.93750,  -0.51786,  -0.80146,  -0.63723,  -0.46776,  -0.26337,  -0.90711,   0.66095,  -0.61565,  -0.06546,  -0.72121,   0.73499,   0.73704,  -0.57157,  -0.61776,  -0.70827,  -0.74869,   0.76059,   0.78587,  -0.81274,  -0.06235,  -0.67891,  -0.75711,   0.69889
  -0.62371,   0.14031,   0.42099,  -0.92017,  -0.61999,   0.84600,  -0.79666,  -0.87078,  -0.82362,  -0.68905,  -0.73134,  -0.40658,  -0.62076,   0.24777,  -0.72626,  -0.83321,  -0.01561,  -0.59741,  -0.77715,  -0.00001,  -0.87181,  -0.34497,   0.80377,  -0.79899,   0.18865,  -0.66427,  -0.58518,  -0.00604,  -0.86807,  -0.19381,   0.46366,  -0.78363,   0.89735,   0.81410,   0.65799,  -0.66296,   0.50145,  -0.52254,   0.74567,  -0.82336,  -0.42378,  -0.79605,  -0.53532,  -0.64203,   0.93750,   0.41802,  -0.62442,  -0.18201,  -0.86575,  -0.29646,   0.86143,  -0.62804,  -0.89922,  -0.36998,  -0.70444,  -0.74038,   0.79938,   0.86700,   0.54423,  -0.79084,  -0.58913,  -0.59391,  -0.67614,  -0.93750,  -0.61915,  -0.61165,  -0.16116,   0.67564,  -0.38269,  -0.66764,  -0.66427,   0.87683,  -0.69522,  -0.57431,  -0.75451,  -0.87030,  -0.64643,   0.92566,  -0.80075,  -0.76258,  -0.12675,  -0.85313,  -0.86036,   0.09294
   0.87557,  -0.81450,  -0.41487,  -0.87570,  -0.81814,   0.80616,   0.91688,   0.75611,   0.93144,  -0.73269,  -0.93750,  -0.42970,   0.73997,   0.87386,  -0.86839,  -0.58521,  -0.36059,   0.76038,   0.86984,   0.86116,   0.93306,  -0.93750,  -0.69894,  -0.82777,   0.93524,  -0.93324,  -0.74484,   0.93750,  -0.61252,   0.87707,   0.86129,  -0.76033,  -0.60798,  -0.53884,   0.75842,  -0.68439,  -0.80121,   0.75934,  -0.64536,   0.92179,   0.83621,   0.93750,  -0.72189,  -0.68892,  -0.87500,  -0.87481,   0.93705,   0.93463,  -0.92317,   0.36170,  -0.78051,  -0.59181,   0.85547,  -0.93750,  -0.87344,   0.54557,  -0.61424,  -0.81692,  -0.43572,  -0.87347,   0.93750,   0.93750,   0.91940,  -0.84455,   0.93712,  -0.92491,   0.88545,  -0.57307,  -0.82448,   0.72416,   0.93750,   0.80140,  -0.86746,  -0.77410,   0.83800,  -0.86878,  -0.01938,  -0.75567,  -0.92430,   0.93635,  -0.79802,   0.86614,  -0.93096,  -0.81926
  -0.81726,   0.06886,  -0.06412,  -0.36248,  -0.30955,   0.25099,  -0.86677,  -0.65246,  -0.67745,  -0.73353,  -0.74450,  -0.61934,  -0.85949,  -0.92774,  -0.07794,  -0.13249,   0.04556,  -0.87407,  -0.80325,  -0.88044,  -0.83718,  -0.11154,   0.91682,  -0.78526,  -0.53840,  -0.77011,  -0.08922,   0.17181,  -0.51984,  -0.93750,  -0.05339,   0.11097,   0.03167,   0.79085,   0.28518,  -0.93292,  -0.78812,  -0.72003,   0.17549,  -0.46945,  -0.80001,  -0.87269,  -0.25370,  -0.76587,  -0.02596,  -0.67672,  -0.51292,  -0.73623,  -0.60269,  -0.87874,   0.67150,   0.53279,  -0.90741,  -0.12108,  -0.49131,  -0.57426,   0.10727,   0.51639,   0.20746,  -0.40014,  -0.80931,  -0.67701,  -0.80917,  -0.25426,  -0.71231,  -0.69155,  -0.91985,  -0.21473,   0.29026,  -0.78236,  -0.10373,   0.24566,  -0.35959,  -0.44180,  -0.72988,  -0.69730,  -0.74990,   0.66785,  -0.47680,  -0.70020,  -0.66194,  -0.86659,  -0.54700,  -0.88978
  -0.65623,  -0.60216,  -0.53570,   0.37526,  -0.54602,  -0.83551,  -0.70645,  -0.81242,  -0.62763,  -0.72188,   0.46985,  -0.11484,  -0.86729,   0.56927,   0.71016,  -0.62394,  -0.16258,  -0.87251,   0.78222,  -0.87092,  -0.79276,  -0.80189,  -0.10883,   0.93134,  -0.47567,  -0.81498,  -0.57746,  -0.25775,   0.86666,   0.78101,  -0.61721,  -0.69172,  -0.60254,  -0.58480,  -0.85188,  -0.91103,  -0.83985,  -0.78626,  -0.29519,  -0.27249,  -0.78095,  -0.80503,  -0.37169,   0.78713,  -0.76435,   0.55996,  -0.81337,  -0.64872,   0.93156,  -0.85237,  -0.76202,   0.83805,  -0.93750,  -0.85810,  -0.62255,  -0.79105,  -0.72625,  -0.51154,   0.70098,  -0.46472,   0.37322,  -0.79458,  -0.74842,  -0.50425,  -0.40297,   0.86900,   0.18764,  -0.61728,  -0.27847,  -0.92970,  -0.18175,  -0.83229,  -0.86699,   0.93750,  -0.77594,   0.75277,  -0.56782,  -0.43138,  -0.93750,  -0.82792,  -0.68511,  -0.52762,  -0.53466,  -0.87815
  -0.73841,  -0.93750,   0.92245,  -0.70745,  -0.87350,  -0.92638,  -0.52215,  -0.80991,  -0.28285,  -0.80735,  -0.72139,   0.87721,  -0.83739,  -0.63856,  -0.84598,  -0.76863,   0.77195,  -0.83304,  -0.32932,  -0.92579,  -0.87962,  -0.90177,  -0.72952,  -0.31581,   0.42688,  -0.85267,   0.42740,   0.92774,  -0.54278,  -0.67146,   0.80708,  -0.93750,   0.76217,   0.73689,  -0.92117,  -0.93750,  -0.86928,  -0.65206,   0.86654,  -0.80683,   0.17849,   0.70152,   0.14115,  -0.81913,   0.71540,  -0.86860,  -0.74462,  -0.56162,  -0.83945,  -0.80994,  -0.14585,   0.85644,   0.13928,  -0.81526,  -0.91016,  -0.70130,   0.93064,  -0.90751,   0.92992,  -0.75186,  -0.40539,  -0.46645,  -0.87049,  -0.88166,  -0.46947,  -0.54103,  -0.16927,   0.86995,   0.48745,  -0.92618,   0.93750,  -0.92688,  -0.83000,  -0.78235,  -0.60904,  -0.71945,  -0.84192,  -0.33276,  -0.93750,  -0.87825,  -0.93750,   0.08198,  -0.81397,  -0.93750
  -0.70116,   0.48886,  -0.81744,   0.67138,  -0.85991,   0.41349,   0.46111,  -0.81857,   0.56478,  -0.93976,   0.52121,  -0.72811,  -0.52378,  -0.70472,   0.86657,   0.88355,   0.56186,  -0.87085,  -0.58746,  -0.78686,  -0.93704,  -0.63219,   0.60810,   0.16188,  -0.80416,  -0.92464,   0.59017,   0.93750,   0.51903,  -0.85530,  -0.47807,   0.93553,  -0.88565,  -0.60218,   0.74653,  -0.87300,  -0.93750,  -0.90112,  -0.56952,   0.04754,  -0.76631,  -0.70836,   0.34870,   0.76241,  -0.75111,  -0.93750,   0.55033,  -0.82838,   0.77171,  -0.90173,  -0.68747,  -0.05965,  -0.65158,   0.69123,  -0.76501,  -0.86816,  -0.68047,   0.73965,   0.28659,  -0.85866,  -0.52456,  -0.67155,  -0.93750,   0.58704,  -0.67194,   0.74208,  -0.82072,  -0.19172,  -0.25699,  -0.93750,  -0.63270,   0.24099,  -0.90007,  -0.49528,  -0.80596,   0.93750,  -0.90889,  -0.86284,   0.57101,  -0.88028,  -0.81756,  -0.74962,  -0.66536,  -0.91989
  -0.48426,   0.86557,   0.73002,   0.20994,   0.86629,  -0.87740,  -0.63265,   0.85506,  -0.67842,  -0.79395,  -0.82268,  -0.62482,  -0.86871,  -0.82827,  -0.78735,   0.60259,  -0.77695,  -0.62645,  -0.77932,  -0.55106,  -0.87720,   0.82608,  -0.56349,  -0.85337,   0.04093,  -0.60372,   0.64367,  -0.43979,  -0.75062,  -0.92625,  -0.64291,   0.93750,  -0.63725,  -0.84070,  -0.83198,  -0.70151,  -0.88287,   0.11008,   0.84995,  -0.72426,   0.12133,  -0.78671,   0.86021,  -0.70559,  -0.75721,  -0.37212,  -0.69721,  -0.18972,  -0.71761,  -0.78501,  -0.08412,  -0.34557,  -0.79511,  -0.87701,   0.93482,   0.88772,  -0.70246,  -0.91900,  -0.11381,   0.90151,  -0.90688,  -0.77821,   0.93750,   0.81792,  -0.62404,  -0.69712,  -0.85743,  -0.82333,   0.84539,  -0.70247,   0.20212,  -0.93750,  -0.83000,  -0.78417,  -0.27993,  -0.91787,  -0.73963,   0.51247,  -0.74074,   0.79497,  -0.89186,  -0.84743,   0.88420,  -0.76232
  -0.33509,  -0.93750,   0.87920,  -0.82044,  -0.89984,  -0.81861,  -0.64110,  -0.79019,  -0.71781,  -0.93590,  -0.81493,   0.86207,  -0.80658,   0.10481,  -0.75323,  -0.66397,   0.92676,  -0.88378,   0.19397,  -0.69485,  -0.92524,  -0.87971,  -0.70033,  -0.75796,   0.82776,  -0.92210,  -0.63847,   0.86106,  -0.75632,  -0.24977,   0.83118,  -0.84390,   0.86599,   0.93750,  -0.85095,  -0.93750,  -0.93750,  -0.81847,   0.93750,  -0.63658,  -0.75268,  -0.81287,   0.42553,  -0.93750,   0.93097,  -0.93750,  -0.69043,  -0.51346,  -0.77709,  -0.93589,   0.61277,   0.86239,  -0.62623,  -0.93750,  -0.87088,  -0.82262,   0.60101,  -0.79565,   0.87642,  -0.80350,   0.43080,   0.54451,  -0.75282,  -0.87429,   0.42935,  -0.78973,   0.56038,   0.87138,   0.93299,  -0.81628,   0.87074,  -0.87362,  -0.85677,  -0.56838,  -0.72642,  -0.90452,  -0.88101,   0.82080,  -0.93750,  -0.80280,  -0.93750,  -0.86127,  -0.81164,  -0.93750
  -0.88083,   0.39771,   0.63324,  -0.92439,   0.03012,  -0.87621,  -0.71268,   0.03541,  -0.66090,   0.93750,  -0.63095,   0.21073,   0.44467,  -0.87130,  -0.88807,  -0.13049,   0.13649,   0.26253,  -0.93466,   0.55161,   0.40222,   0.86710,  -0.81924,  -0.57115,  -0.30559,   0.61619,  -0.37706,  -0.37175,  -0.61308,  -0.91917,  -0.51984,  -0.65077,   0.38442,   0.73192,  -0.82280,   0.10384,   0.68274,  -0.88607,   0.78136,  -0.92304,  -0.71642,  -0.83160,  -0.03173,  -0.80219,   0.70935,  -0.35683,  -0.74490,  -0.90988,  -0.78493,  -0.65204,   0.39222,  -0.57733,  -0.42037,   0.76833,   0.47487,  -0.22920,   0.83439,   0.31816,  -0.15098,   0.33411,  -0.93750,  -0.87902,  -0.16997,   0.19834,  -0.86318,  -0.81320,  -0.89094,   0.93750,   0.74761,   0.43210,   0.52134,  -0.72515,   0.88541,  -0.93750,  -0.83287,  -0.93041,  -0.85078,   0.59204,   0.93336,  -0.64554,   0.55379,  -0.72574,  -0.31092,   0.72922
   0.84144,  -0.86766,  -0.68086,  -0.79665,  -0.82127,   0.91732,   0.93057,   0.93750,   0.86595,  -0.74845,  -0.93432,  -0.69831,   0.51134,   0.78286,  -0.93563,  -0.78663,  -0.46448,   0.63336,   0.83277,   0.93021,   0.93750,  -0.93750,  -0.82585,  -0.89037,   0.82538,  -0.86279,  -0.84406,   0.78749,  -0.78843,   0.84862,   0.87642,  -0.89200,  -0.46440,  -0.28356,   0.87981,  -0.59180,  -0.93750,   0.93571,  -0.61786,   0.75099,   0.82861,   0.81314,  -0.86881,  -0.88675,  -0.77852,  -0.81051,   0.73063,   0.93750,  -0.90415,   0.76825,  -0.88906,  -0.72483,   0.77486,  -0.85233,  -0.88034,   0.18401,  -0.72904,  -0.79634,  -0.31637,  -0.80273,   0.93622,   0.93537,   0.73197,  -0.79528,   0.86931,  -0.92908,   0.77029,  -0.67897,  -0.47727,   0.73103,   0.90103,   0.87051,  -0.82948,  -0.79156,   0.79169,  -0.74223,   0.29091,  -0.70609,  -0.89797,   0.93750,  -0.82243,   0.93750,  -0.86028,  -0.87665
  -0.64540,   0.86588,   0.93750,  -0.89534,   0.31391,  -0.87498,  -0.79985,   0.89778,  -0.71019,  -0.89549,  -0.85164,  -0.22481,  -0.68220,  -0.80462,  -0.90190,  -0.54440,  -0.45223,  -0.81243,  -0.77731,  -0.93750,  -0.74081,   0.84336,   0.50601,  -0.75395,   0.77582,  -0.80052,  -0.58822,  -0.11499,  -0.68781,  -0.91794,   0.78298,  -0.59960,  -0.50685,  -0.66715,   0.42189,  -0.87987,  -0.93750,  -0.62812,   0.93750,  -0.90293,  -0.63430,  -0.81379,   0.45997,  -0.93750,  -0.80947,  -0.78600,  -0.84922,  -0.60583,  -0.91874,  -0.91996,   0.74831,   0.34526,  -0.77543,  -0.85981,  -0.52931,   0.63378,  -0.83439,   0.20866,   0.40580,  -0.28921,  -0.88757,  -0.67367,   0.93750,  -0.63620,  -0.46261,  -0.67498,  -0.85393,  -0.71191,   0.93283,  -0.81223,   0.91985,   0.67315,  -0.81880,  -0.93750,  -0.88199,  -0.71760,  -0.85314,   0.61047,  -0.57859,   0.42301,  -0.93750,  -0.74299,  -0.34595,  -0.70494
  -0.87067,  -0.44487,   0.85782,  -0.84238,  -0.44942,  -0.80720,  -0.85176,   0.16340,  -0.59726,  -0.83230,  -0.62907,   0.64385,  -0.81195,  -0.91842,  -0.53601,  -0.66357,   0.90516,  -0.85862,  -0.53088,  -0.90398,  -0.86250,  -0.04216,  -0.85642,  -0.88068,   0.81622,  -0.87499,  -0.48822,   0.28714,  -0.50902,  -0.88539,   0.80000,  -0.85216,  -0.66966,  -0.50338,  -0.75898,  -0.89129,  -0.93224,  -0.62946,   0.93750,  -0.68920,  -0.50239,  -0.66321,   0.75463,  -0.92024,  -0.55365,  -0.93556,  -0.74426,  -0.77595,  -0.87416,  -0.90939,   0.67561,   0.85692,  -0.78977,  -0.81275,  -0.28361,   0.37357,  -0.54937,  -0.93750,   0.73040,   0.54621,  -0.92973,  -0.66715,   0.92252,   0.86727,  -0.51032,  -0.61326,  -0.54111,  -0.50349,   0.93750,  -0.82512,   0.63971,  -0.87883,  -0.87831,  -0.80793,  -0.92100,  -0.64669,  -0.93470,   0.75989,  -0.87160,   0.84073,  -0.86646,  -0.73130,   0.24166,  -0.92708
   0.93750,  -0.81248,  -0.57997,  -0.72359,  -0.90782,  -0.32631,  -0.64600,  -0.61426,  -0.25043,  -0.64610,  -0.52229,   0.19816,  -0.50875,   0.73388,  -0.47772,  -0.79353,  -0.34963,  -0.76616,   0.87730,  -0.68512,  -0.83608,  -0.91211,  -0.53759,  -0.38177,   0.10563,  -0.78000,  -0.66609,  -0.12476,  -0.49388,   0.79840,  -0.09563,  -0.78738,  -0.47921,  -0.15350,  -0.65497,  -0.74992,  -0.89354,   0.88149,  -0.30698,  -0.09501,   0.57797,  -0.70957,  -0.45468,  -0.55108,  -0.68789,  -0.81992,  -0.85568,   0.86342,   0.06052,   0.33451,  -0.78828,  -0.75176,  -0.66534,  -0.93750,  -0.73268,  -0.65371,  -0.47215,  -0.75231,  -0.11351,  -0.70082,   0.89150,   0.53863,  -0.71650,  -0.72714,   0.86964,  -0.70292,   0.85622,  -0.37993,  -0.70302,  -0.71702,  -0.28329,  -0.68941,  -0.92933,   0.86262,   0.76674,  -0.68099,   0.14934,  -0.75916,  -0.93750,  -0.82751,  -0.74833,  -0.68551,  -0.81061,  -0.91751
  -0.86093,   0.78304,  -0.51765,   0.05435,   0.04409,   0.77658,  -0.85108,  -0.60799,  -0.46865,   0.84367,  -0.44210,  -0.83006,   0.41821,  -0.86654,  -0.66183,  -0.77297,  -0.20734,  -0.79978,  -0.77755,  -0.72116,   0.36758,   0.64233,   0.86411,  -0.49667,  -0.65638,  -0.41290,  -0.39217,   0.10668,  -0.38238,  -0.61274,  -0.59399,  -0.56476,   0.34560,   0.65840,   0.83907,   0.41881,   0.86130,  -0.65521,  -0.74385,  -0.86791,  -0.82864,  -0.76239,  -0.64916,   0.42606,   0.36246,   0.48720,  -0.56722,  -0.62687,   0.02213,  -0.67431,   0.86480,  -0.56791,  -0.84638,   0.89949,  -0.40676,  -0.81302,  -0.38921,   0.81183,   0.14585,  -0.93750,  -0.70088,   0.17869,  -0.81028,  -0.69801,  -0.66040,  -0.14479,  -0.85764,   0.41979,  -0.21577,  -0.92341,  -0.50027,   0.80244,   0.68574,  -0.54519,  -0.75308,   0.03087,  -0.77105,   0.87605,   0.92405,  -0.77527,  -0.48867,  -0.74259,  -0.69150,   0.93750
  -0.81629,  -0.81308,   0.72050,  -0.57331,  -0.32895,  -0.66726,  -0.61203,  -0.66900,  -0.76159,   0.37622,  -0.87749,   0.78860,  -0.66024,  -0.93750,  -0.93750,  -0.61024,   0.04459,   0.05502,  -0.87650,   0.84690,   0.59503,  -0.59356,   0.08320,  -0.63332,  -0.63975,   0.30202,  -0.58627,   0.03185,  -0.66036,  -0.84943,  -0.34281,  -0.77699,   0.86832,   0.94100,  -0.77627,   0.49798,   0.80586,  -0.83413,  -0.21708,  -0.77717,  -0.81888,  -0.74655,  -0.36547,  -0.86687,   0.79649,   0.17304,  -0.38574,  -0.76688,  -0.88995,  -0.64458,   0.71255,  -0.42245,  -0.77284,   0.93308,  -0.22140,  -0.76268,   0.87061,   0.46348,  -0.02451,  -0.54509,  -0.89917,  -0.78414,  -0.87574,  -0.66193,  -0.80696,  -0.93750,  -0.89545,   0.86193,  -0.44181,  -0.56767,  -0.19287,  -0.93041,   0.88099,  -0.78303,  -0.86791,  -0.82163,  -0.71474,   0.72868,   0.83291,  -0.74637,   0.65170,  -0.58020,  -0.80942,   0.87943
  -0.85564,   0.42148,   0.16734,   0.75920,   0.45340,   0.57466,   0.58383,  -0.80470,   0.42902,   0.51361,  -0.53744,  -0.30315,  -0.72505,  -0.88118,   0.59576,   0.93750,   0.80792,  -0.76025,  -0.93750,  -0.85960,  -0.67263,  -0.88643,   0.08265,   0.57869,  -0.66133,  -0.89926,   0.75011,   0.87691,  -0.29198,  -0.74134,  -0.52229,   0.92363,  -0.73318,  -0.56760,   0.68161,  -0.85650,  -0.80277,  -0.71217,  -0.58465,  -0.80335,  -0.63748,  -0.70879,   0.85743,   0.84451,  -0.80370,  -0.93750,   0.76781,  -0.62371,   0.48710,  -0.86631,  -0.28863,  -0.08004,  -0.83757,   0.64589,  -0.92202,  -0.87591,  -0.79420,   0.93750,   0.12590,  -0.62166,  -0.87942,   0.01834,  -0.67470,   0.50946,  -0.69189,   0.81804,  -0.87113,  -0.52514,   0.84336,  -0.87984,  -0.23969,   0.76526,  -0.88201,  -0.93750,  -0.68473,   0.11546,  -0.93277,  -0.34517,   0.33375,  -0.68654,  -0.93526,  -0.86848,  -0.70006,  -0.79118
  -0.71636,  -0.61168,   0.93750,  -0.81139,  -0.75043,  -0.91153,  -0.67840,   0.34984,  -0.69921,  -0.84351,  -0.68146,   0.77286,  -0.88216,  -0.86665,  -0.88482,  -0.74517,   0.49482,  -0.73479,  -0.91679,  -0.83783,  -0.93538,   0.61721,  -0.88538,  -0.85913,   0.80941,  -0.85007,  -0.51099,  -0.04446,  -0.59988,  -0.93729,   0.92563,  -0.93221,  -0.66938,  -0.57135,  -0.89909,  -0.91990,  -0.93750,  -0.70876,   0.84707,  -0.85251,  -0.70880,  -0.86297,   0.78706,  -0.66884,  -0.58705,  -0.93003,  -0.90718,  -0.75017,  -0.61866,  -0.93750,   0.71965,   0.59796,  -0.68955,  -0.92146,   0.00264,   0.18704,  -0.61053,  -0.77965,   0.86169,  -0.23422,  -0.86528,  -0.68454,   0.66732,   0.63048,  -0.84821,  -0.67507,  -0.82743,  -0.63002,   0.73390,  -0.52160,   0.93396,  -0.83869,  -0.89066,  -0.72979,  -0.92821,  -0.49894,  -0.82692,   0.77482,  -0.93750,   0.42269,  -0.87561,  -0.86475,   0.80636,  -0.93750
  -0.58359,  -0.79127,   0.18645,  -0.61244,  -0.69645,  -0.87340,  -0.56989,  -0.45677,   0.27789,  -0.62248,  -0.24082,   0.85447,  -0.63323,   0.15459,  -0.73266,  -0.42634,  -0.09512,   0.30757,   0.41225,  -0.11131,  -0.37623,  -0.87200,  -0.69765,  -0.70199,  -0.20337,  -0.54709,  -0.44615,  -0.35320,  -0.27037,   0.43364,  -0.06547,  -0.83809,   0.70471,   0.64748,  -0.84327,   0.28614,   0.14408,  -0.35341,  -0.20106,  -0.17264,  -0.38316,   0.75823,  -0.79903,  -0.23483,   0.05479,  -0.43654,  -0.50861,  -0.72946,  -0.62944,   0.74586,  -0.65052,  -0.42274,   0.25075,  -0.57309,  -0.41127,  -0.31667,   0.51747,  -0.91183,   0.23890,   0.09032,   0.46066,  -0.65935,  -0.08866,  -0.72103,  -0.36910,  -0.58543,  -0.07156,  -0.12007,  -0.21535,  -0.39720,   0.62228,  -0.88683,   0.07927,   0.05461,  -0.72024,  -0.46643,   0.79339,  -0.35350,  -0.73013,  -0.23254,   0.75849,   0.61121,  -0.32038,  -0.28478
  -0.84760,  -0.11131,   0.91680,  -0.24292,   0.33663,  -0.93750,  -0.50016,  -0.42492,  -0.60718,  -0.67519,  -0.93217,   0.40979,  -0.93546,  -0.52912,  -0.93750,  -0.15916,   0.14941,  -0.94425,  -0.76617,  -0.75745,  -0.93291,   0.35808,  -0.02874,  -0.85563,   0.46229,  -0.63327,  -0.42371,   0.34558,  -0.81033,  -0.76247,   0.43977,  -0.27163,   0.47800,   0.68937,  -0.87065,  -0.87452,  -0.93439,  -0.67180,   0.57155,  -0.66849,  -0.13033,  -0.87973,   0.85620,  -0.93664,   0.65970,  -0.75842,  -0.64993,   0.00643,  -0.73618,  -0.93750,   0.67139,   0.15782,  -0.53977,  -0.46512,   0.51762,  -0.24143,   0.33513,  -0.23181,   0.46638,  -0.30448,  -0.81305,  -0.51542,  -0.22129,   0.47853,  -0.02070,  -0.72379,  -0.38068,   0.07950,   0.82010,  -0.69110,   0.47720,  -0.86576,  -0.93750,  -0.92750,  -0.55971,  -0.92667,  -0.86238,   0.50666,  -0.88812,  -0.21267,  -0.41690,  -0.81208,  -0.33396,  -0.72092
  -0.58894,   0.46470,  -0.79806,   0.53260,  -0.47908,   0.82165,   0.74537,  -0.88521,   0.62173,   0.80172,  -0.21775,  -0.57309,  -0.81008,  -0.74512,   0.77970,   0.63818,   0.87149,  -0.79594,  -0.55564,  -0.76339,  -0.86525,  -0.93750,   0.82786,  -0.47530,  -0.68654,  -0.75496,   0.88989,   0.81288,   0.51802,  -0.91788,  -0.90097,   0.71109,  -0.67760,  -0.32359,   0.59871,  -0.79998,  -0.93750,  -0.67138,  -0.57537,  -0.79134,  -0.81996,  -0.54950,  -0.08293,  -0.23252,  -0.61739,  -0.82271,   0.68837,  -0.80173,   0.21697,  -0.82963,  -0.77144,  -0.12693,  -0.87605,   0.30231,  -0.87102,  -0.93750,  -0.46212,   0.63324,  -0.07812,  -0.84943,  -0.63252,   0.72753,  -0.80815,   0.65401,  -0.68805,   0.19485,  -0.86957,  -0.56955,  -0.27625,  -0.86521,  -0.42073,   0.67130,  -0.93750,  -0.50979,  -0.62569,   0.39593,  -0.84718,  -0.67882,   0.67725,  -0.68327,  -0.87149,  -0.61950,  -0.85963,  -0.87068
  -0.77252,  -0.73588,  -0.66866,  -0.71289,  -0.67095,  -0.81791,  -0.57076,  -0.75497,  -0.53118,   0.83635,  -0.32650,   0.14306,   0.83924,  -0.53084,  -0.54423,  -0.55761,   0.01934,  -0.64207,  -0.56350,   0.72608,   0.56807,  -0.81710,   0.74153,  -0.14740,  -0.76785,   0.76653,  -0.33274,  -0.33846,  -0.13644,  -0.80285,  -0.41332,  -0.51622,   0.69865,   0.75831,  -0.66060,   0.93750,   0.68323,  -0.51590,  -0.50131,  -0.60474,  -0.79786,  -0.21925,  -0.39066,  -0.37130,   0.72236,  -0.14496,  -0.61273,  -0.70283,  -0.83729,  -0.43925,  -0.58643,  -0.41029,  -0.71328,   0.86215,  -0.74697,  -0.84802,   0.60982,   0.52227,   0.06309,  -0.02177,  -0.69152,  -0.82436,  -0.75130,  -0.57966,  -0.64206,  -0.59925,  -0.81369,   0.78942,  -0.44410,  -0.54988,  -0.41308,  -0.57541,   0.78552,  -0.73052,  -0.64430,  -0.55215,  -0.76494,  -0.48222,   0.61677,  -0.72014,   0.70908,  -0.87611,  -0.73826,   0.92287
   0.60629,  -0.67126,   0.92769,  -0.55739,  -0.53547,  -0.75996,  -0.17399,   0.71088,  -0.45069,  -0.84894,  -0.87095,   0.52912,  -0.72462,  -0.83173,  -0.84601,  -0.25705,   0.21789,  -0.85678,   0.05250,  -0.59238,  -0.77690,  -0.61797,  -0.93750,  -0.92810,   0.74404,  -0.74556,  -0.07121,   0.16263,  -0.80467,  -0.29097,   0.24904,   0.78617,  -0.67889,  -0.60977,  -0.89328,  -0.91006,  -0.93750,  -0.42040,   0.93750,  -0.38266,   0.66123,   0.54540,   0.81895,  -0.93119,  -0.70697,  -0.93750,   0.26928,   0.12707,  -0.93750,  -0.83423,  -0.45169,  -0.52945,  -0.03846,  -0.73144,  -0.38755,   0.07319,  -0.57889,  -0.79894,   0.20697,   0.33405,  -0.56077,   0.63792,   0.68672,   0.43290,   0.87940,  -0.93750,  -0.19669,  -0.50265,   0.79852,  -0.71736,   0.86184,  -0.81323,  -0.92794,  -0.71449,  -0.10546,  -0.92549,  -0.50876,  -0.49158,  -0.77980,   0.75190,  -0.93750,   0.87723,   0.20034,  -0.93750
  -0.76684,   0.57433,  -0.12549,  -0.85654,  -0.00018,   0.39178,  -0.69887,  -0.73487,  -0.82037,   0.20701,  -0.77699,  -0.59148,  -0.75240,  -0.93750,  -0.68213,  -0.49627,   0.16497,  -0.42478,  -0.82463,  -0.79092,   0.77675,  -0.25711,   0.81752,  -0.65668,  -0.64174,   0.53395,  -0.57073,  -0.18621,  -0.71671,  -0.72647,  -0.59817,  -0.66875,   0.79649,   0.62867,   0.33415,  -0.12211,   0.93750,  -0.51939,  -0.68491,  -0.67061,  -0.57342,  -0.57513,  -0.45954,  -0.48354,   0.93750,  -0.02180,  -0.60467,  -0.35003,  -0.76340,  -0.37324,   0.78845,  -0.62074,  -0.86570,   0.77708,  -0.29731,  -0.65331,   0.84547,   0.92984,  -0.50454,  -0.74269,  -0.88377,  -0.75592,  -0.81416,  -0.80509,  -0.64312,  -0.78203,  -0.87193,   0.89208,  -0.59821,  -0.18313,  -0.62745,   0.79005,   0.78654,  -0.32613,  -0.92731,  -0.84692,  -0.56962,   0.60904,   0.87664,  -0.82908,   0.81438,  -0.79329,  -0.68343,   0.93081
   0.51177,  -0.93750,   0.52247,  -0.59963,  -0.82410,  -0.66305,   0.85123,  -0.75690,   0.71203,  -0.86074,  -0.94985,   0.78296,  -0.66803,  -0.53642,  -0.75678,  -0.04815,   0.81381,  -0.73763,  -0.14929,  -0.36791,  -0.29670,  -0.92527,  -0.93750,  -0.76114,   0.09990,  -0.86790,   0.77920,   0.66521,  -0.32122,  -0.62745,   0.79712,  -0.78122,   0.87623,   0.78863,  -0.84845,  -0.55266,  -0.83201,   0.55332,   0.24044,  -0.47187,  -0.11231,   0.88945,   0.02919,  -0.93750,   0.76960,  -0.93454,   0.74166,   0.60063,  -0.93750,  -0.62777,  -0.49525,  -0.46123,   0.68458,  -0.83455,  -0.84080,  -0.79732,   0.85333,  -0.92599,   0.50314,  -0.58290,  -0.47181,   0.41997,  -0.69562,  -0.84836,   0.68353,  -0.89545,  -0.15228,   0.59187,  -0.19367,  -0.36511,   0.93750,  -0.83644,  -0.81518,  -0.76681,   0.04962,  -0.87262,  -0.54462,  -0.87848,  -0.93750,  -0.80880,  -0.83128,   0.86688,  -0.62172,  -0.85106
  -0.93750,  -0.80721,   0.92121,  -0.91853,  -0.81328,  -0.85199,  -0.68864,   0.79263,  -0.68230,  -0.92370,  -0.93750,   0.60327,  -0.91731,  -0.77714,  -0.74014,  -0.79919,   0.74365,  -0.93349,   0.51209,  -0.93750,  -0.92606,  -0.92866,  -0.88621,  -0.87990,   0.87736,  -0.93750,  -0.46168,   0.58426,  -0.75807,  -0.72426,   0.93226,  -0.80030,   0.05046,  -0.42256,  -0.88135,  -0.76434,  -0.93750,  -0.82202,   0.93075,  -0.87853,  -0.85344,  -0.77734,   0.54274,  -0.85592,  -0.35582,  -0.90928,  -0.87623,  -0.77717,  -0.70539,  -0.93750,   0.52241,   0.53631,  -0.80505,  -0.88631,  -0.75650,  -0.52792,  -0.17648,  -0.79357,   0.83080,  -0.10473,  -0.60696,  -0.67160,  -0.11932,  -0.80916,  -0.55469,  -0.42144,  -0.80211,  -0.32072,   0.87624,  -0.88929,   0.93358,  -0.82510,  -0.93704,  -0.66288,  -0.84974,  -0.78856,  -0.81367,   0.88868,  -0.91315,  -0.25972,  -0.85891,  -0.84557,  -0.50346,  -0.75715
  -0.87571,   0.83862,  -0.80400,   0.47326,  -0.02142,   0.69825,   0.70875,  -0.65967,  -0.41625,  -0.30732,  -0.75036,  -0.42533,  -0.33624,  -0.86944,   0.68941,   0.79049,   0.89875,  -0.88388,  -0.82019,  -0.94039,  -0.77778,  -0.60826,  -0.64195,   0.47325,  -0.61221,  -0.71122,   0.50868,   0.63235,  -0.05032,  -0.93750,  -0.75578,   0.64437,  -0.74587,  -0.64418,   0.76323,  -0.81119,  -0.87500,  -0.89937,  -0.64232,  -0.73513,  -0.81004,  -0.49646,   0.63848,   0.81626,  -0.64403,  -0.93750,   0.73770,  -0.80860,   0.50067,  -0.88507,  -0.21917,  -0.07639,  -0.79317,   0.67327,  -0.82887,  -0.88142,  -0.83712,   0.55452,   0.12582,  -0.75798,  -0.91262,   0.54462,  -0.83331,   0.67717,  -0.77998,   0.60998,  -0.91555,  -0.67679,   0.87518,  -0.87885,  -0.23946,   0.80428,  -0.93750,  -0.90563,  -0.75913,   0.76921,  -0.86246,  -0.41006,   0.36667,  -0.73361,  -0.93750,  -0.65762,  -0.81910,  -0.93285
   0.87500,  -0.91623,  -0.59638,  -0.52578,  -0.93750,  -0.59434,  -0.50479,  -0.69093,  -0.36994,  -0.90648,  -0.76959,  -0.44691,  -0.93750,   0.67803,  -0.10826,  -0.71402,  -0.19628,  -0.76044,   0.87825,  -0.79675,  -0.81179,  -0.83189,  -0.51504,  -0.70543,  -0.46385,  -0.82900,  -0.62877,   0.13446,  -0.48100,   0.60224,  -0.50051,  -0.43317,  -0.37294,  -0.35258,  -0.78162,  -0.81838,  -0.87507,   0.65904,  -0.62173,   0.78131,   0.43070,  -0.55310,  -0.75662,  -0.49271,  -0.64141,  -0.55213,  -0.53241,   0.77054,  -0.46139,   0.87778,  -0.73084,  -0.53210,  -0.77532,  -0.93750,  -0.62954,  -0.62300,  -0.35099,  -0.87355,  -0.27748,  -0.54095,   0.78885,   0.13545,  -0.93750,  -0.86308,   0.92821,  -0.50662,   0.78527,  -0.35325,  -0.68946,  -0.65070,  -0.25520,  -0.73554,  -0.93750,   0.87308,   0.40511,  -0.54572,   0.23824,  -0.59094,  -0.93596,  -0.74115,  -0.74044,  -0.58195,  -0.70455,  -0.86409
  -0.78863,  -0.14589,  -0.02292,  -0.49941,  -0.15317,  -0.79003,  -0.70983,  -0.15270,  -0.54617,   0.83260,   0.35285,   0.26004,  -0.53562,  -0.73358,  -0.83515,   0.63133,   0.45873,  -0.86982,  -0.82186,  -0.75405,  -0.54985,  -0.30753,  -0.81092,  -0.35734,  -0.62943,   0.59216,   0.63809,  -0.02118,   0.44892,  -0.93750,  -0.50689,   0.21297,   0.70129,   0.77604,  -0.74995,   0.13743,   0.74978,  -0.68994,  -0.28859,  -0.93072,  -0.74279,  -0.78126,  -0.36711,  -0.91454,   0.69141,  -0.30845,  -0.76162,  -0.76219,  -0.93230,  -0.84709,  -0.43905,  -0.54545,  -0.80575,   0.69919,  -0.49601,  -0.59958,   0.58277,  -0.51408,   0.35341,   0.08775,  -0.83810,  -0.74611,  -0.68223,  -0.08173,  -0.80913,  -0.67700,  -0.92099,   0.79858,  -0.09835,  -0.84790,  -0.66169,  -0.91677,   0.81734,  -0.77524,  -0.86540,  -0.82906,  -0.84627,  -0.32248,   0.09501,  -0.61828,   0.81734,  -0.65732,  -0.04316,   0.42273
  -0.92067,  -0.76805,   0.86772,   0.32953,  -0.62044,  -0.92693,  -0.84855,  -0.29155,  -0.49828,  -0.74657,  -0.70569,   0.93672,  -0.86922,   0.04823,   0.46213,  -0.50910,   0.70014,  -0.93750,  -0.55136,  -0.86872,  -0.81756,  -0.80419,  -0.70871,  -0.34546,   0.84854,  -0.88608,  -0.61141,   0.39886,   0.24289,  -0.65331,   0.77774,  -0.75188,  -0.63946,  -0.54201,  -0.88653,  -0.93750,  -0.93750,  -0.85062,   0.93750,  -0.58599,  -0.86415,  -0.80082,   0.73538,   0.31214,  -0.65558,  -0.82934,  -0.86452,  -0.66437,   0.00415,  -0.91955,  -0.39916,   0.57732,  -0.86818,  -0.74340,  -0.69341,  -0.71534,  -0.71948,  -0.92832,   0.93750,  -0.20655,  -0.18200,  -0.74048,  -0.35226,  -0.47994,  -0.62896,   0.80469,  -0.00486,  -0.69534,   0.83703,  -0.87028,   0.84668,  -0.90240,  -0.87828,   0.93750,  -0.65668,   0.80170,  -0.75023,   0.19094,  -0.90842,  -0.30118,  -0.92227,  -0.73415,  -0.26528,  -0.93493
  -0.75631,   0.85710,   0.85928,  -0.86511,   0.74335,  -0.83565,  -0.93750,   0.93750,  -0.80732,  -0.88343,  -0.92169,  -0.61991,  -0.33277,  -0.78852,  -0.80628,  -0.60216,  -0.70700,  -0.51633,  -0.90831,  -0.74774,  -0.90878,   0.93750,  -0.68591,  -0.92010,   0.93750,  -0.78350,  -0.71937,  -0.63119,  -0.88568,  -0.92253,   0.73145,  -0.60279,  -0.76995,  -0.88277,  -0.84425,  -0.85756,  -0.74928,  -0.73624,   0.93750,  -0.93750,  -0.60583,  -0.51433,   0.92451,  -0.59772,  -0.80915,  -0.91938,  -0.81215,  -0.73273,  -0.82242,  -0.84985,   0.92066,   0.50444,  -0.78876,  -0.87455,   0.81527,   0.93750,  -0.79952,  -0.87841,   0.29201,   0.81153,  -0.86120,  -0.91889,   0.86779,   0.73152,  -0.79120,  -0.65219,  -0.80609,  -0.68046,   0.89575,  -0.89050,   0.67550,  -0.84501,  -0.66737,  -0.93750,  -0.90962,  -0.77077,  -0.93750,   0.88325,  -0.82700,   0.89654,  -0.71983,  -0.66138,   0.93454,  -0.80417
   0.57056,  -0.21942,   0.55051,   0.41834,   0.45533,  -0.87449,  -0.79712,   0.83526,  -0.86610,  -0.65166,  -0.87972,  -0.29025,  -0.56628,  -0.68500,  -0.90277,   0.55320,  -0.42756,  -0.93750,  -0.61730,  -0.68206,  -0.86951,   0.93750,  -0.80558,  -0.91799,   0.04316,  -0.83029,   0.50038,  -0.35143,  -0.75916,  -0.71863,  -0.19216,   0.92384,  -0.60854,  -0.67755,  -0.76408,  -0.72669,  -0.79024,   0.88296,   0.58478,   0.35660,   0.93694,  -0.80377,   0.81973,  -0.92107,  -0.86349,  -0.81560,  -0.67279,   0.89122,  -0.75804,  -0.93291,  -0.53734,  -0.09825,  -0.90425,  -0.86623,   0.81816,   0.93750,  -0.75695,  -0.70892,  -0.08324,   0.93710,  -0.64677,  -0.57062,   0.78978,   0.84242,   0.73191,  -0.75205,  -0.81820,  -0.62440,   0.15982,  -0.71027,   0.16899,  -0.80046,  -0.73995,  -0.85443,   0.87321,  -0.85311,  -0.66016,  -0.63425,  -0.93750,   0.87598,  -0.73772,  -0.79285,   0.93750,  -0.80689
  -0.24936,   0.81120,  -0.58247,  -0.51141,   0.71609,   0.60643,  -0.61311,  -0.76622,  -0.86340,   0.22980,  -0.71382,  -0.82055,  -0.46909,  -0.74075,  -0.91068,  -0.13230,  -0.17303,  -0.00760,  -0.89756,   0.09605,   0.42747,   0.85537,   0.68014,  -0.83159,  -0.73819,   0.75614,  -0.61548,  -0.20683,  -0.71213,  -0.80012,  -0.85650,   0.59680,  -0.15198,   0.04636,   0.92757,  -0.40441,   0.57947,   0.61237,  -0.60478,  -0.73737,   0.91306,  -0.88295,  -0.79032,  -0.89140,  -0.03695,   0.85080,  -0.93750,   0.76206,  -0.73079,  -0.63723,   0.76811,  -0.72773,  -0.65186,   0.74062,   0.52721,   0.63775,  -0.14857,   0.66085,  -0.42675,  -0.60575,  -0.71428,   0.70214,  -0.77955,  -0.20891,  -0.61221,  -0.65136,  -0.79197,  -0.41184,  -0.70186,  -0.65430,  -0.42897,   0.70570,   0.40142,  -0.70438,   0.75693,  -0.62879,  -0.90440,   0.80057,   0.57877,  -0.61003,   0.20989,  -0.71245,  -0.55763,   0.20361
  -0.92192,  -0.86943,  -0.03622,   0.26991,  -0.88197,  -0.92085,   0.88300,  -0.70161,   0.80193,  -0.76890,  -0.79221,   0.93750,  -0.58363,  -0.72902,   0.04842,   0.54036,   0.92024,  -0.86949,  -0.79531,  -0.87248,  -0.74988,  -0.86259,  -0.81200,   0.79122,  -0.57775,  -0.86625,   0.74861,   0.90769,   0.76388,  -0.92040,  -0.52438,   0.64301,   0.93848,   0.81533,  -0.58790,  -0.93750,  -0.78257,  -0.93590,  -0.24878,  -0.54870,  -0.93750,   0.86320,  -0.10672,  -0.28719,   0.54631,  -0.93449,   0.36605,  -0.86248,   0.45768,  -0.79821,  -0.76995,   0.53460,   0.30312,  -0.38734,  -0.82642,  -0.86084,   0.62423,  -0.87010,   0.80777,  -0.63109,  -0.60895,  -0.52586,  -0.84570,  -0.55746,  -0.56381,   0.05700,  -0.63508,   0.71945,   0.66016,  -0.72123,  -0.22874,  -0.80173,  -0.70960,  -0.74507,  -0.81830,   0.82539,  -0.72477,  -0.70083,  -0.84258,  -0.82950,  -0.83877,   0.62023,  -0.74308,  -0.84303
  -0.87139,  -0.66275,   0.92776,  -0.86945,  -0.77439,  -0.84101,  -0.74772,   0.93507,  -0.77076,  -0.79410,  -0.69599,   0.78869,  -0.84941,  -0.92086,  -0.70502,  -0.81394,   0.86066,  -0.80216,  -0.92811,  -0.86349,  -0.87317,  -0.10049,  -0.84929,  -0.74652,   0.86210,  -0.90932,  -0.55809,   0.43116,  -0.89114,  -0.93750,   0.88349,  -0.80989,  -0.67343,  -0.60884,  -0.91549,  -0.73227,  -0.85455,  -0.85317,   0.88025,  -0.34309,  -0.60056,  -0.86443,   0.85189,  -0.91525,  -0.72696,  -0.84817,  -0.81436,  -0.73502,  -0.87446,  -0.92084,   0.81609,   0.69589,  -0.76485,  -0.69431,  -0.29918,   0.21745,  -0.65306,  -0.79448,   0.79848,   0.56174,  -0.79922,  -0.59911,   0.65776,   0.23113,  -0.71441,  -0.24342,  -0.91265,  -0.75978,   0.90623,  -0.80268,   0.93750,  -0.82954,  -0.93750,  -0.84724,  -0.91884,  -0.59597,  -0.76688,   0.93050,  -0.93726,   0.71975,  -0.83903,  -0.59102,   0.41242,  -0.93386
  -0.56811,  -0.10044,  -0.22243,  -0.66855,  -0.42047,  -0.72704,  -0.72646,  -0.82799,  -0.66849,  -0.65018,   0.23376,  -0.59779,  -0.72585,   0.71848,   0.65081,  -0.72428,  -0.22651,  -0.80838,   0.19052,  -0.86091,  -0.81871,  -0.39386,   0.81301,  -0.44226,  -0.49100,  -0.10037,  -0.67295,  -0.53060,  -0.49960,   0.63420,  -0.48750,  -0.73000,   0.16063,   0.11927,   0.42007,  -0.78557,  -0.69516,  -0.68936,  -0.05254,  -0.66865,  -0.66424,  -0.87325,  -0.61586,   0.83340,  -0.52032,   0.47983,  -0.92151,  -0.66039,   0.93750,  -0.24575,   0.78686,  -0.03649,  -0.92126,  -0.43540,  -0.80444,  -0.80393,  -0.67192,   0.71175,  -0.46389,  -0.65890,   0.60661,  -0.90262,  -0.84832,  -0.84467,  -0.57249,   0.89253,  -0.37205,  -0.40532,  -0.18122,  -0.92781,  -0.47964,   0.33221,  -0.76608,   0.86573,  -0.84964,   0.29023,  -0.28211,   0.62775,  -0.85607,  -0.86500,  -0.35998,  -0.93639,  -0.61737,  -0.12664
  -0.92855,   0.35248,  -0.56618,  -0.58166,   0.05401,   0.66299,  -0.69393,  -0.79310,  -0.73924,   0.87424,  -0.08320,  -0.80813,   0.87076,  -0.80298,  -0.20533,  -0.32546,  -0.15217,   0.32166,  -0.67123,  -0.16690,   0.83050,   0.05243,   0.93750,  -0.28209,  -0.82232,   0.92955,  -0.44396,  -0.39166,  -0.77575,  -0.68816,  -0.69977,  -0.43567,   0.73458,   0.67473,   0.76587,   0.28073,   0.93750,  -0.88018,  -0.79588,  -0.63969,  -0.54990,  -0.74932,  -0.49641,  -0.59327,   0.69466,   0.76526,  -0.75866,  -0.70310,  -0.80084,  -0.24478,   0.59261,  -0.57664,  -0.71311,   0.93750,   0.00146,  -0.71317,   0.73678,   0.87500,  -0.50649,  -0.67621,  -0.77652,  -0.46430,  -0.86543,  -0.77514,  -0.83351,  -0.49931,  -0.85222,   0.82217,  -0.47954,  -0.35712,  -0.68499,   0.75379,   0.79413,  -0.42373,  -0.83717,  -0.53773,  -0.90361,   0.74473,   0.93750,  -0.58717,   0.73124,  -0.75924,  -0.49347,   0.84811
  -0.22486,  -0.78939,  -0.61970,   0.55868,  -0.52665,  -0.80903,  -0.75303,  -0.86751,  -0.71942,  -0.75799,   0.32380,  -0.31840,  -0.85858,   0.57118,   0.53872,  -0.70245,  -0.29529,  -0.83397,   0.65869,  -0.93750,  -0.92460,  -0.81640,  -0.19777,   0.82088,  -0.70240,  -0.70445,  -0.67919,  -0.68801,   0.90009,   0.35172,  -0.56318,  -0.66374,  -0.47924,  -0.84617,  -0.70906,  -0.87201,  -0.86267,  -0.58237,  -0.56555,  -0.07468,  -0.81572,  -0.67186,  -0.37997,   0.51282,  -0.67091,   0.33079,  -0.76574,  -0.67222,   0.87667,  -0.46451,  -0.60829,   0.64260,  -0.86499,  -0.89413,  -0.55109,  -0.82459,  -0.75764,  -0.70967,   0.64664,   0.06990,   0.58535,  -0.88316,  -0.77406,  -0.40881,  -0.44298,   0.86766,  -0.44718,  -0.36453,  -0.72985,  -0.93664,  -0.56850,  -0.84453,  -0.93750,   0.87864,  -0.86590,   0.86488,  -0.20178,  -0.77958,  -0.84441,  -0.79133,  -0.61804,  -0.66069,   0.24393,  -0.73983
  -0.93298,   0.51921,   0.93659,  -0.86474,   0.04418,  -0.93750,  -0.83130,   0.83985,  -0.82254,  -0.74640,  -0.86828,  -0.47240,  -0.45184,  -0.92335,  -0.66749,  -0.54560,  -0.66203,  -0.52877,  -0.89491,  -0.90888,  -0.81977,   0.86612,  -0.80411,  -0.80606,   0.86128,  -0.48735,  -0.74929,  -0.26356,  -0.43498,  -0.84958,   0.70840,  -0.72611,  -0.58310,  -0.81338,  -0.83699,  -0.73513,  -0.84857,  -0.73552,   0.80315,  -0.91903,  -0.78280,  -0.81755,   0.91045,  -0.81806,  -0.69830,  -0.87096,  -0.87059,  -0.76112,  -0.73512,  -0.79047,   0.70174,   0.47562,  -0.79783,  -0.82985,   0.79702,   0.93057,  -0.82652,  -0.81819,   0.80337,   0.79499,  -0.87500,  -0.85322,   0.93750,   0.86038,  -0.44835,  -0.62513,  -0.77738,  -0.80313,   0.92799,  -0.50140,   0.85395,  -0.76064,  -0.93750,  -0.92611,  -0.88551,  -0.56050,  -0.83803,   0.93750,  -0.73510,   0.81803,  -0.86258,  -0.77638,   0.82024,  -0.82319
   0.47677,  -0.91488,  -0.46673,  -0.85006,  -0.82715,   0.56015,   0.08752,  -0.75232,   0.75421,  -0.81120,  -0.87696,  -0.46786,  -0.73246,   0.86610,   0.16736,  -0.70781,   0.40408,  -0.91515,   0.60880,  -0.75486,  -0.72037,  -0.86100,  -0.79011,  -0.83245,  -0.52651,  -0.88052,  -0.69982,   0.46120,  -0.27868,   0.60828,  -0.15009,  -0.80407,  -0.72787,  -0.33440,  -0.34477,  -0.67009,  -0.81797,   0.04835,  -0.40431,   0.83266,   0.38893,   0.55176,  -0.54688,  -0.03274,  -0.52707,  -0.93750,  -0.06879,   0.39430,  -0.24294,   0.30900,  -0.93750,   0.06704,  -0.10746,  -0.88452,  -0.93750,  -0.78528,  -0.28534,  -0.84236,   0.05885,  -0.72026,   0.87792,   0.65159,  -0.84978,  -0.69638,   0.86513,   0.83683,   0.80314,  -0.65703,  -0.60611,  -0.63338,  -0.12925,  -0.49585,  -0.87395,   0.60388,   0.11614,   0.03098,   0.40785,  -0.69822,  -0.90111,  -0.72144,  -0.73993,   0.87958,  -0.65113,  -0.85180
  -0.93344,  -0.19531,  -0.77780,   0.69135,  -0.70758,   0.12075,   0.37949,  -0.60568,   0.87564,  -0.27628,   0.20332,  -0.20778,   0.05144,  -0.50298,   0.62874,   0.76829,   0.93585,  -0.87706,  -0.46544,  -0.83771,  -0.84703,  -0.80332,   0.87509,   0.93750,  -0.61690,  -0.93750,   0.72454,   0.93750,   0.88206,  -0.87415,  -0.77502,   0.78642,  -0.72573,  -0.74514,   0.80878,  -0.93632,  -0.93750,  -0.81739,  -0.44764,  -0.59817,  -0.81101,  -0.74402,  -0.69613,   0.81182,  -0.84767,  -0.86809,  -0.51133,  -0.88897,   0.74217,  -0.87536,  -0.66776,   0.38875,  -0.88874,   0.07782,  -0.92133,  -0.76168,  -0.92669,   0.18992,   0.92206,  -0.76044,  -0.65961,  -0.42952,  -0.79366,   0.87205,  -0.81239,   0.86208,  -0.84215,  -0.45897,  -0.23378,  -0.93750,  -0.33434,  -0.14465,  -0.86992,  -0.45521,  -0.80395,   0.91377,  -0.81892,  -0.88463,   0.14814,  -0.77491,  -0.87172,  -0.83398,  -0.83014,  -0.89288
  -0.93750,  -0.93750,   0.71890,  -0.85449,  -0.90238,  -0.83407,  -0.64582,  -0.69471,  -0.41851,  -0.91120,  -0.83208,   0.93494,  -0.83670,  -0.55828,  -0.73731,  -0.72683,   0.93750,  -0.88191,  -0.02187,  -0.92718,  -0.87264,  -0.93725,  -0.93750,  -0.88726,   0.82817,  -0.92917,  -0.77909,   0.86947,  -0.45235,  -0.65914,   0.91252,  -0.69131,   0.73622,   0.93750,  -0.74176,  -0.92837,  -0.91757,  -0.79228,   0.86339,  -0.64329,  -0.07772,  -0.64956,   0.81100,  -0.83928,   0.52138,  -0.93750,  -0.88110,  -0.25927,  -0.93750,  -0.87429,   0.32949,   0.80316,  -0.80993,  -0.93750,  -0.86455,  -0.93750,   0.57583,  -0.75729,   0.93202,  -0.63487,   0.14024,  -0.43259,  -0.91015,  -0.88455,   0.09050,  -0.24800,  -0.08973,   0.83522,   0.75748,  -0.74388,   0.91244,  -0.93400,  -0.93750,  -0.54061,  -0.65667,  -0.77886,  -0.92942,   0.20548,  -0.93750,  -0.76228,  -0.92289,  -0.72516,  -0.92051,  -0.93750
  -0.82162,  -0.72355,   0.77805,  -0.79302,  -0.68566,  -0.80272,  -0.75733,  -0.80490,  -0.51164,  -0.51839,  -0.69985,   0.87845,  -0.58921,  -0.86630,  -0.93880,  -0.66620,   0.93090,  -0.09677,  -0.91697,  -0.67417,  -0.75148,  -0.61961,   0.83846,  -0.66503,  -0.50172,   0.65281,  -0.48804,   0.10586,  -0.54749,  -0.89976,  -0.22480,  -0.34153,   0.73053,   0.88872,  -0.74197,  -0.27991,   0.37625,  -0.84936,   0.10233,  -0.78830,  -0.84994,  -0.69479,  -0.54427,  -0.79460,   0.86906,   0.27246,  -0.78507,  -0.72338,  -0.86783,   0.24166,   0.78043,  -0.61120,  -0.80274,   0.75086,  -0.59921,  -0.78410,   0.81124,   0.55539,   0.34542,  -0.30028,  -0.93750,  -0.67085,  -0.79584,  -0.71279,  -0.62240,  -0.79987,  -0.86382,   0.79488,   0.00943,  -0.61846,   0.06979,  -0.61874,   0.80920,  -0.92289,  -0.80375,  -0.56970,  -0.76749,   0.74948,   0.63179,  -0.80217,   0.20665,  -0.64781,  -0.61068,   0.79383
  -0.78634,  -0.89347,   0.81923,  -0.87518,  -0.84308,  -0.81437,  -0.70104,  -0.74564,  -0.36516,  -0.87293,  -0.92786,   0.87245,  -0.93258,  -0.23219,  -0.78438,  -0.81028,   0.87817,  -0.94724,  -0.47985,  -0.81632,  -0.92168,  -0.89890,  -0.72277,  -0.81857,   0.70958,  -0.82068,  -0.69072,   0.86853,  -0.68905,  -0.18684,   0.90050,  -0.66163,   0.88693,   0.84460,  -0.88013,  -0.82582,  -0.88082,  -0.47636,   0.93750,  -0.58607,   0.41469,  -0.92610,   0.37238,  -0.93201,   0.87149,  -0.93212,  -0.81922,  -0.64164,  -0.85018,  -0.93750,   0.63292,   0.66397,  -0.74760,  -0.90218,  -0.80026,  -0.79149,   0.58911,  -0.93750,   0.92365,  -0.88620,   0.85459,   0.21134,  -0.86530,  -0.93750,   0.13177,  -0.42527,   0.21957,   0.74904,   0.77913,  -0.92022,   0.87174,  -0.93510,  -0.93048,  -0.39157,  -0.28851,  -0.83876,  -0.84688,   0.48218,  -0.93750,  -0.93011,  -0.93300,  -0.89983,  -0.56818,  -0.82723
  -0.44968,  -0.42838,  -0.29041,   0.93750,  -0.89632,   0.30132,   0.75152,  -0.63282,  -0.73472,  -0.55021,  -0.73906,  -0.76131,  -0.93196,  -0.93750,  -0.47134,   0.93750,   0.68425,  -0.81251,  -0.82813,  -0.79340,  -0.79863,  -0.73825,  -0.73684,  -0.81350,  -0.74072,  -0.64622,   0.64316,   0.74483,  -0.59235,  -0.93750,  -0.74846,   0.82815,  -0.52296,  -0.60723,  -0.28045,  -0.93725,  -0.87142,  -0.59732,  -0.45595,  -0.93750,  -0.08111,  -0.72375,   0.92502,  -0.69844,  -0.58944,  -0.87821,   0.70212,  -0.37898,  -0.74826,  -0.89882,  -0.74507,  -0.49915,  -0.79724,  -0.32390,  -0.62942,  -0.65079,  -0.81190,   0.56669,  -0.20809,  -0.72750,  -0.72002,   0.59285,  -0.90542,   0.63712,  -0.36866,  -0.75251,  -0.87070,  -0.60123,   0.75109,  -0.91261,  -0.36130,  -0.66793,  -0.88784,  -0.93750,   0.69334,  -0.83320,  -0.86477,  -0.46843,  -0.75082,  -0.80834,  -0.93750,  -0.70003,  -0.83655,  -0.93729
   0.79702,  -0.79466,  -0.23857,  -0.17599,  -0.63099,  -0.71055,  -0.56048,   0.52100,  -0.71372,  -0.93750,  -0.85034,  -0.55230,  -0.60141,   0.46814,  -0.63293,   0.13981,  -0.48696,  -0.85730,   0.35280,  -0.69683,  -0.81887,  -0.24516,  -0.90098,  -0.86236,  -0.26977,  -0.80494,  -0.42817,  -0.19594,  -0.50128,   0.52691,  -0.53061,  -0.21394,  -0.57899,  -0.28861,  -0.91464,  -0.81905,  -0.85237,   0.89836,  -0.56180,   0.81077,   0.60001,  -0.83481,   0.04666,  -0.82369,  -0.62531,  -0.01529,  -0.63062,   0.91837,  -0.68322,  -0.08127,  -0.60312,  -0.47239,  -0.74064,  -0.92980,  -0.54030,   0.48956,  -0.68146,  -0.81182,  -0.04378,   0.90593,   0.40535,   0.19147,   0.47947,   0.19831,   0.70487,  -0.93750,   0.74416,  -0.80538,  -0.31530,  -0.59373,  -0.18436,  -0.91655,  -0.91210,   0.73303,   0.51964,  -0.73340,   0.80864,  -0.39342,  -0.93750,   0.71508,  -0.77257,  -0.73871,   0.51681,  -0.75694
  -0.73450,   0.76358,  -0.60837,   0.55598,   0.11792,   0.53162,   0.67667,  -0.85282,  -0.54859,   0.48032,  -0.20507,  -0.30920,  -0.48103,  -0.92515,   0.50835,   0.49977,   0.92180,  -0.87516,  -0.93750,  -0.93750,  -0.50397,  -0.93750,  -0.66705,   0.40657,  -0.40135,  -0.93750,   0.69295,   0.90034,  -0.58886,  -0.93750,  -0.57008,   0.87358,  -0.67717,  -0.65883,   0.21792,  -0.81718,  -0.74540,  -0.60728,  -0.47756,  -0.73237,  -0.83110,  -0.82299,   0.74942,   0.81668,  -0.67037,  -0.80845,   0.44312,  -0.81108,   0.55621,  -0.89373,  -0.70886,  -0.11370,  -0.80951,   0.06584,  -0.89714,  -0.87775,  -0.62788,   0.59318,   0.61161,  -0.59473,  -0.78301,   0.40820,  -0.93750,   0.88391,  -0.64977,   0.71295,  -0.93750,  -0.57933,   0.93750,  -0.89197,  -0.10240,  -0.12105,  -0.93127,  -0.86423,  -0.52810,   0.36389,  -0.92702,  -0.55394,   0.40278,  -0.76081,  -0.80538,  -0.76577,  -0.92683,  -0.93750
  -0.17010,  -0.90259,   0.29797,  -0.59730,  -0.65434,  -0.76040,  -0.81039,  -0.29558,  -0.11344,  -0.55674,  -0.90367,   0.37857,  -0.21296,   0.44048,  -0.83485,  -0.77324,  -0.17052,  -0.43058,   0.75003,  -0.72592,  -0.21937,  -0.73941,  -0.69754,  -0.80309,   0.02373,   0.57198,  -0.71073,  -0.18632,  -0.57276,   0.10801,  -0.09732,  -0.49411,   0.59203,   0.60596,  -0.86656,  -0.28285,  -0.12134,  -0.19129,  -0.02168,  -0.02271,  -0.21193,   0.55716,  -0.46983,  -0.60449,   0.06662,  -0.36049,  -0.42642,  -0.38509,  -0.83573,   0.57112,  -0.54789,  -0.52152,   0.34602,  -0.74374,  -0.26627,  -0.37031,   0.20473,  -0.80764,  -0.05105,  -0.23095,   0.84053,  -0.78573,  -0.43715,  -0.64249,  -0.02055,  -0.84654,   0.30455,  -0.03475,  -0.50207,  -0.43305,   0.54910,  -0.81191,  -0.25403,   0.33140,  -0.70832,  -0.70479,   0.72312,  -0.54489,  -0.65463,  -0.61554,   0.35451,  -0.67694,  -0.16819,   0.02570
  -0.84381,   0.89793,  -0.24146,   0.93093,   0.66325,   0.39644,   0.55675,  -0.85691,   0.35943,   0.58990,  -0.44814,  -0.44391,  -0.74030,  -0.93750,   0.84609,   0.81099,   0.86547,  -0.70672,  -0.84135,  -0.88217,  -0.78517,  -0.71242,  -0.26631,   0.04490,  -0.85934,  -0.71725,   0.67628,   0.87673,   0.24094,  -0.93750,  -0.64155,   0.87120,  -0.70686,  -0.64295,   0.23863,  -0.93639,  -0.93695,  -0.81555,  -0.55115,  -0.92600,  -0.85757,  -0.77281,   0.79526,   0.64648,  -0.75038,  -0.93750,   0.31735,  -0.67001,   0.70393,  -0.93750,  -0.64776,   0.17222,  -0.71877,  -0.14997,  -0.77321,  -0.86267,  -0.75373,   0.81626,   0.18289,  -0.57329,  -0.91338,  -0.11856,  -0.87943,   0.72097,  -0.72217,   0.79522,  -0.76873,  -0.54852,   0.93750,  -0.80833,  -0.42636,   0.41231,  -0.92820,  -0.86240,  -0.81267,   0.88757,  -0.85533,  -0.51179,   0.11072,  -0.84236,  -0.93750,  -0.69430,  -0.87091,  -0.80643
   0.93563,  -0.87035,  -0.65242,  -0.72152,  -0.85982,  -0.04458,  -0.58435,  -0.63067,  -0.25652,  -0.87850,  -0.79587,  -0.42022,  -0.72729,   0.87116,  -0.62681,  -0.77267,  -0.14789,  -0.86167,   0.68719,  -0.74014,  -0.93107,  -0.91926,  -0.71094,  -0.27743,  -0.06959,  -0.82094,  -0.66982,  -0.16068,  -0.49249,   0.86460,  -0.35631,  -0.75073,  -0.35772,  -0.35062,  -0.77454,  -0.88036,  -0.87502,   0.92926,  -0.37596,   0.76950,   0.63195,  -0.28845,  -0.48425,   0.23465,  -0.61129,  -0.93750,  -0.52122,   0.91276,  -0.21851,  -0.07352,  -0.79322,  -0.65196,  -0.80534,  -0.74651,  -0.83370,  -0.83238,  -0.47786,  -0.83895,  -0.04072,  -0.66583,   0.80523,   0.57333,  -0.80078,  -0.76391,   0.86340,  -0.40277,   0.71178,  -0.43583,  -0.50658,  -0.81934,   0.12618,  -0.19078,  -0.93750,   0.66344,   0.79665,  -0.10116,  -0.07732,  -0.63423,  -0.80997,  -0.84371,  -0.81483,  -0.49485,  -0.83563,  -0.84654
  -0.60039,   0.93750,  -0.48165,  -0.59892,   0.58366,   0.74252,  -0.68678,  -0.56664,  -0.87143,   0.32961,  -0.76147,  -0.70849,  -0.83519,  -0.83472,  -0.72447,  -0.19410,  -0.48348,   0.33788,  -0.69294,  -0.58980,  -0.68044,   0.93750,   0.93270,  -0.80101,  -0.68479,   0.48374,  -0.38132,  -0.34939,  -0.85497,  -0.74645,  -0.45721,   0.41727,  -0.12273,  -0.43129,   0.87431,   0.36187,   0.45744,  -0.16767,  -0.66552,  -0.65642,   0.05939,  -0.88555,  -0.28011,  -0.46989,  -0.41024,   0.35938,  -0.87316,  -0.33494,  -0.75091,  -0.86092,   0.82998,  -0.42484,  -0.81545,   0.80252,   0.56866,  -0.32379,  -0.19853,   0.86774,  -0.38621,  -0.46050,  -0.71134,   0.01253,  -0.92815,   0.31122,  -0.63773,  -0.33056,  -0.77768,  -0.54781,  -0.63693,  -0.46830,  -0.39503,   0.82876,   0.27966,  -0.93750,  -0.35762,  -0.86359,  -0.85286,   0.72511,  -0.40399,  -0.62752,   0.75042,  -0.74976,  -0.32173,   0.51735
  -0.69700,  -0.86991,   0.86217,  -0.58236,  -0.78017,  -0.92037,  -0.74939,   0.33609,  -0.82658,  -0.86698,  -0.86511,   0.87055,  -0.91824,  -0.46195,  -0.92703,  -0.85333,   0.86959,  -0.93398,  -0.19894,  -0.93506,  -0.87743,  -0.77480,  -0.93750,  -0.57376,   0.87763,  -0.78788,  -0.67960,   0.81099,  -0.56189,  -0.81775,   0.87712,  -0.68553,  -0.56151,  -0.02989,  -0.89408,  -0.92715,  -0.82665,  -0.67576,   0.89427,  -0.41995,  -0.71033,  -0.52557,   0.68016,  -0.84245,  -0.58271,  -0.93750,  -0.79695,  -0.83643,  -0.87106,  -0.92150,   0.75473,   0.85847,  -0.90262,  -0.89438,  -0.76880,  -0.75165,  -0.64576,  -0.84171,   0.85213,  -0.44567,  -0.60707,  -0.77424,  -0.20027,  -0.79472,  -0.17887,  -0.40640,   0.44574,   0.27743,   0.93746,  -0.84822,   0.90563,  -0.93750,  -0.86413,  -0.74070,  -0.86414,  -0.82887,  -0.73918,   0.83135,  -0.93750,  -0.43453,  -0.87578,  -0.66588,  -0.75412,  -0.93750
  -0.67983,  -0.84772,   0.87768,  -0.83690,  -0.93750,  -0.93750,  -0.67981,  -0.81508,  -0.65938,  -0.93750,  -0.84084,   0.87123,  -0.92754,   0.07007,  -0.79783,  -0.69823,   0.93943,  -0.93750,  -0.64574,  -0.93014,  -0.93689,  -0.91557,  -0.57075,  -0.88220,   0.78913,  -0.85973,  -0.61291,   0.88192,  -0.74772,  -0.92433,   0.85499,  -0.80112,   0.77570,   0.84703,  -0.78048,  -0.89149,  -0.93750,  -0.55293,   0.93750,  -0.87927,  -0.07729,  -0.61244,   0.85394,  -0.93750,   0.75041,  -0.93750,  -0.73396,  -0.75216,  -0.84832,  -0.93478,   0.78742,   0.16121,  -0.90058,  -0.86495,  -0.93241,  -0.79788,   0.87113,  -0.92261,   0.91261,  -0.71562,   0.06814,  -0.49217,  -0.72240,  -0.78861,   0.44928,  -0.87040,  -0.52582,   0.80263,   0.81706,  -0.92969,   0.87875,  -0.93750,  -0.91776,  -0.75913,  -0.79137,  -0.68361,  -0.87376,   0.93750,  -0.93750,  -0.86439,  -0.92135,  -0.86874,  -0.79017,  -0.93750
  -0.57029,  -0.69429,  -0.59158,   0.54859,  -0.72679,  -0.93750,  -0.83921,  -0.80080,  -0.58865,  -0.80406,   0.92204,  -0.17564,  -0.88508,   0.32364,   0.85058,   0.13122,   0.18573,  -0.86642,   0.13248,  -0.86774,  -0.85609,  -0.57556,   0.04049,   0.81846,  -0.69307,  -0.89058,   0.48605,   0.04042,   0.83450,   0.30807,  -0.71205,   0.08131,  -0.59382,  -0.54837,  -0.86663,  -0.93367,  -0.77924,  -0.76629,  -0.46466,  -0.38091,  -0.64346,  -0.87151,  -0.33150,   0.53992,  -0.62301,   0.14229,  -0.75227,  -0.45301,   0.89794,  -0.84641,  -0.66368,   0.55630,  -0.92480,  -0.80955,  -0.80855,  -0.73597,  -0.65464,  -0.59971,   0.67135,  -0.20292,   0.13304,  -0.79754,  -0.88236,  -0.46482,  -0.27520,   0.62117,   0.05875,  -0.81041,  -0.50077,  -0.86035,  -0.57785,  -0.89582,  -0.91733,   0.87664,  -0.65404,   0.82941,  -0.33535,  -0.87890,  -0.64630,  -0.66684,  -0.64535,  -0.86848,   0.56350,  -0.93750
   0.68500,  -0.67282,  -0.41531,  -0.43952,  -0.72107,  -0.77469,  -0.53583,  -0.46674,  -0.61144,  -0.93750,  -0.67142,  -0.21513,  -0.81721,   0.92494,  -0.36017,  -0.64218,  -0.17795,  -0.81567,   0.66697,  -0.79863,  -0.63825,  -0.82712,  -0.78777,  -0.86520,  -0.25677,  -0.86520,  -0.55200,  -0.36320,  -0.74696,   0.78682,  -0.29552,  -0.71408,  -0.43071,  -0.48846,  -0.49953,  -0.87617,  -0.89416,   0.86639,  -0.78496,   0.88165,   0.79652,  -0.74676,  -0.82593,  -0.65706,  -0.87173,  -0.85745,  -0.72524,   0.91596,  -0.54892,   0.70937,  -0.78453,  -0.71909,  -0.37631,  -0.93750,  -0.88564,  -0.86106,  -0.71044,  -0.82591,  -0.14585,  -0.65290,   0.93054,   0.82217,  -0.54564,  -0.85413,   0.87969,  -0.40402,   0.74499,  -0.52334,  -0.49173,  -0.70662,  -0.16292,  -0.69237,  -0.93750,   0.70388,   0.74812,  -0.02357,   0.48491,  -0.60335,  -0.92292,  -0.84578,  -0.75570,  -0.57743,  -0.57436,  -0.74345
  -0.46738,  -0.75100,  -0.72517,  -0.74032,  -0.73442,  -0.64533,  -0.19205,  -0.57565,   0.68488,  -0.03308,  -0.72204,  -0.34312,   0.46757,  -0.02129,  -0.44373,  -0.77222,  -0.35520,   0.93750,  -0.13175,   0.63422,   0.72434,  -0.69402,  -0.25215,  -0.29993,  -0.74745,   0.67455,  -0.57875,  -0.25106,  -0.41859,  -0.40942,  -0.46360,  -0.76081,  -0.19416,  -0.20701,  -0.51523,   0.84905,   0.87099,  -0.35333,  -0.45330,  -0.01905,  -0.27258,   0.86259,  -0.51555,  -0.78761,   0.38340,  -0.57753,  -0.20053,  -0.04035,  -0.63953,   0.85294,  -0.59231,  -0.36216,   0.45086,   0.60418,  -0.36337,  -0.47600,  -0.13126,  -0.62592,  -0.05304,  -0.49859,  -0.09510,  -0.59240,  -0.61379,  -0.70266,   0.48419,  -0.76215,  -0.24501,   0.49496,  -0.58685,   0.75872,  -0.07415,  -0.53821,   0.74582,  -0.91566,  -0.40799,  -0.24860,   0.44473,  -0.49011,   0.32132,  -0.73860,   0.76963,   0.74972,  -0.49580,   0.71098
  -0.13615,   0.80450,  -0.22377,  -0.36866,   0.81023,   0.93421,  -0.93750,  -0.81469,  -0.87245,   0.74654,  -0.92280,  -0.71390,  -0.73607,  -0.87627,  -0.93007,  -0.07325,  -0.41351,   0.12380,  -0.81080,  -0.68242,  -0.54936,   0.88412,   0.93750,  -0.62576,  -0.60505,  -0.04940,  -0.52214,  -0.20212,  -0.81682,  -0.82982,  -0.63188,   0.28942,  -0.26944,   0.16558,   0.93750,  -0.73600,  -0.06613,   0.45241,  -0.59352,  -0.81898,   0.48004,  -0.86381,  -0.47518,  -0.74963,  -0.43743,  -0.77378,  -0.75658,   0.66092,  -0.88548,  -0.73155,   0.93750,  -0.49560,  -0.87186,  -0.13556,  -0.57459,  -0.56428,  -0.45913,   0.64657,  -0.55690,  -0.72913,  -0.80522,   0.59999,  -0.61683,  -0.36955,  -0.70236,  -0.35156,  -0.76011,  -0.08349,  -0.16649,  -0.61857,  -0.53670,   0.74153,  -0.60690,  -0.66704,   0.66506,  -0.53820,  -0.82926,   0.70339,   0.75733,  -0.79436,  -0.29074,  -0.74277,  -0.78134,   0.06582
   0.67076,   0.31085,   0.10418,  -0.84348,   0.02418,  -0.86634,  -0.82860,   0.93423,  -0.57399,  -0.62368,  -0.78676,  -0.29841,  -0.84867,   0.06499,  -0.51599,  -0.32649,  -0.48039,  -0.87790,  -0.24545,  -0.85098,  -0.89087,   0.75894,  -0.03629,  -0.84651,  -0.59203,  -0.01390,  -0.31924,  -0.55454,  -0.67761,   0.24090,  -0.46992,  -0.03306,  -0.42400,  -0.67464,  -0.93400,  -0.77315,  -0.84027,   0.29353,  -0.44462,  -0.15281,   0.19668,  -0.87398,  -0.11293,  -0.73996,  -0.69769,   0.40984,  -0.75062,   0.65538,  -0.60967,  -0.76951,  -0.07413,  -0.41778,  -0.82726,  -0.88697,   0.86271,   0.50122,  -0.33312,  -0.70497,  -0.16012,   0.79781,   0.66626,  -0.92306,   0.08292,  -0.48184,   0.46698,  -0.77263,  -0.18678,  -0.45254,  -0.36117,  -0.82187,  -0.36681,  -0.88570,  -0.84966,   0.62999,  -0.64697,  -0.53432,  -0.08638,  -0.01535,  -0.87500,   0.76331,   0.43471,  -0.80096,   0.85893,  -0.79297
  -0.42602,  -0.82706,  -0.39504,  -0.69977,  -0.85540,  -0.67084,  -0.39065,  -0.83663,  -0.21173,  -0.79508,  -0.66491,   0.36880,  -0.35982,  -0.66851,  -0.72066,  -0.73057,  -0.07253,   0.76165,   0.10493,   0.72157,   0.76835,  -0.76835,  -0.61078,  -0.44812,  -0.40886,   0.58078,  -0.57978,  -0.31034,  -0.26126,  -0.07085,  -0.25814,  -0.81869,   0.61404,   0.73954,  -0.87587,   0.88111,   0.79908,  -0.00237,  -0.37242,  -0.13223,  -0.62655,   0.19530,  -0.70216,  -0.58334,   0.17405,  -0.25151,  -0.51044,   0.05888,  -0.88316,   0.69428,  -0.51042,  -0.31109,   0.62634,  -0.44421,  -0.82240,  -0.77077,   0.16410,  -0.87500,  -0.11640,  -0.26868,  -0.32615,  -0.50375,  -0.80982,  -0.76237,  -0.02034,  -0.67665,  -0.25594,   0.34273,  -0.47230,   0.72509,   0.18631,  -0.69190,   0.28815,  -0.53641,   0.02444,  -0.50872,  -0.00475,  -0.66571,  -0.42126,  -0.78034,   0.53052,   0.58903,  -0.62279,   0.64245
   0.16928,  -0.85702,  -0.43884,  -0.62442,  -0.85341,  -0.79122,  -0.67634,  -0.64452,  -0.56375,  -0.91423,   0.68625,  -0.35228,  -0.80650,   0.88486,   0.70804,  -0.74363,  -0.43436,  -0.91827,   0.30464,  -0.93714,  -0.76625,  -0.79095,   0.56985,   0.70222,  -0.43144,  -0.61464,  -0.59440,  -0.53410,   0.57771,   0.87637,  -0.58614,  -0.72439,  -0.59190,  -0.58781,  -0.78768,  -0.80604,  -0.90939,  -0.59271,  -0.67411,   0.80404,  -0.78287,  -0.57088,  -0.23752,   0.80542,  -0.68111,   0.07758,  -0.55269,  -0.39045,   0.81270,  -0.43485,  -0.84414,   0.55513,  -0.68308,  -0.89918,  -0.75194,  -0.69882,  -0.49739,  -0.82938,   0.35432,  -0.47679,   0.88714,  -0.78652,  -0.81466,  -0.59569,   0.61967,   0.78770,   0.82948,  -0.60786,  -0.60130,  -0.85421,  -0.40610,  -0.72244,  -0.93750,   0.79905,  -0.70094,   0.74341,  -0.03782,  -0.62932,  -0.93750,  -0.72230,  -0.63534,  -0.88412,  -0.26398,  -0.79127
   0.64022,  -0.55079,  -0.43323,   0.80102,  -0.56557,   0.26182,   0.81869,  -0.62543,  -0.64691,  -0.90282,  -0.93323,  -0.53694,  -0.88185,  -0.93750,  -0.87510,   0.93750,   0.81812,  -0.86396,  -0.91532,  -0.92207,  -0.87898,  -0.87466,  -0.92457,  -0.90511,  -0.67613,  -0.64720,   0.86564,   0.93750,  -0.71045,  -0.93343,  -0.59805,   0.86828,  -0.54727,  -0.32199,  -0.68564,  -0.91613,  -0.71928,   0.91827,  -0.58723,  -0.84489,   0.93750,  -0.73568,   0.10113,  -0.75249,  -0.67970,  -0.93426,   0.29074,   0.89320,  -0.81434,  -0.88347,  -0.71012,  -0.54390,  -0.56858,  -0.75468,  -0.70949,  -0.59672,  -0.45347,   0.11031,   0.30636,  -0.83393,  -0.68118,   0.88158,  -0.60319,   0.36033,   0.27476,  -0.67322,  -0.69872,  -0.35304,   0.10122,  -0.92465,  -0.54228,   0.61913,  -0.88379,  -0.73774,   0.93136,  -0.63716,  -0.84893,  -0.84863,  -0.85847,  -0.82064,  -0.62046,  -0.72997,  -0.50333,  -0.70150
   0.35981,  -0.75790,   0.80061,   0.51428,   0.73824,  -0.92308,  -0.58679,   0.68191,  -0.71849,  -0.93750,  -0.84860,  -0.18181,  -0.67122,  -0.56479,  -0.93750,   0.69317,  -0.03129,  -0.93158,  -0.89383,  -0.66734,  -0.90650,  -0.08844,  -0.92926,  -0.87673,   0.53422,  -0.81990,  -0.60387,   0.02710,  -0.67370,  -0.93435,   0.71781,   0.60326,  -0.60712,  -0.56319,  -0.93457,  -0.93750,  -0.84864,   0.40567,   0.87941,  -0.49715,   0.29712,  -0.90009,   0.85079,  -0.93750,  -0.63771,  -0.93750,  -0.72487,   0.55504,  -0.93750,  -0.86266,  -0.67276,  -0.49982,  -0.52048,  -0.74284,   0.51996,   0.86553,  -0.60140,  -0.73479,  -0.16497,   0.93750,  -0.55705,   0.40448,   0.61841,   0.81051,   0.87765,  -0.77435,  -0.21439,  -0.75302,   0.36450,  -0.80431,   0.93750,  -0.89212,  -0.92896,  -0.82940,   0.81516,  -0.87368,  -0.85351,  -0.11858,  -0.87724,   0.67661,  -0.90976,  -0.70357,   0.60868,  -0.84961
  -0.89218,  -0.91663,   0.93750,  -0.75994,  -0.85424,  -0.84295,  -0.74500,  -0.93750,  -0.76564,  -0.91206,  -0.93308,   0.81600,  -0.88160,   0.01542,  -0.47468,  -0.68545,   0.93750,  -0.91692,   0.88790,  -0.91401,  -0.87896,  -0.86220,  -0.74199,  -0.78256,   0.84231,  -0.78782,  -0.51845,   0.93750,  -0.81670,  -0.37113,   0.81032,  -0.88336,   0.68058,   0.80722,  -0.93546,  -0.93255,  -0.92303,  -0.81657,   0.77453,  -0.64727,   0.53772,  -0.76054,   0.26764,  -0.84989,   0.87958,  -0.88327,  -0.82376,  -0.51589,  -0.79574,  -0.86218,   0.85297,   0.55611,  -0.64810,  -0.93750,  -0.86491,  -0.83214,   0.89448,  -0.86672,   0.92745,  -0.68827,  -0.10536,  -0.53880,  -0.79842,  -0.86617,   0.41590,  -0.75180,   0.34422,   0.57178,   0.92776,  -0.81998,   0.87500,  -0.83936,  -0.93750,  -0.56015,  -0.87367,  -0.62826,  -0.92243,   0.93250,  -0.86997,  -0.92386,  -0.93438,  -0.82063,  -0.93750,  -0.93750
  -0.71399,  -0.67228,   0.81201,  -0.87171,  -0.70700,  -0.86734,  -0.91634,  -0.04966,  -0.89199,  -0.85430,  -0.89998,   0.87751,  -0.81679,  -0.81147,  -0.83856,  -0.68563,   0.93095,  -0.66399,  -0.86477,  -0.86371,  -0.80416,  -0.53582,  -0.88201,  -0.73612,   0.73758,  -0.93750,  -0.72788,   0.64897,  -0.75629,  -0.65414,   0.80581,  -0.79560,  -0.56628,  -0.43072,  -0.82265,  -0.93750,  -0.93750,  -0.84241,   0.84767,  -0.87778,  -0.90810,  -0.86177,   0.90128,  -0.66647,  -0.60797,  -0.91731,  -0.73864,  -0.84807,  -0.88772,  -0.86290,   0.92193,   0.79720,  -0.75654,  -0.93064,  -0.50868,  -0.80649,  -0.38600,  -0.90823,   0.87598,   0.39598,  -0.39871,  -0.88805,   0.79956,  -0.21168,  -0.72540,  -0.09045,  -0.06347,  -0.56998,   0.91066,  -0.76388,   0.90300,  -0.79110,  -0.87104,  -0.90914,  -0.93750,  -0.44727,  -0.92426,   0.87488,  -0.93750,   0.75230,  -0.82233,  -0.86129,  -0.07080,  -0.93580
  -0.75006,  -0.74049,  -0.37162,   0.47493,  -0.87352,  -0.90788,  -0.77099,  -0.78179,  -0.61540,  -0.78561,   0.93750,  -0.16445,  -0.81522,  -0.05104,   0.86173,  -0.52101,  -0.16632,  -0.93681,   0.07717,  -0.89093,  -0.91652,  -0.77694,  -0.42171,   0.67584,  -0.60505,  -0.86364,  -0.14860,  -0.08240,   0.89869,   0.28803,  -0.67269,  -0.77495,  -0.73133,  -0.75490,  -0.66617,  -0.80677,  -0.79432,  -0.47538,  -0.35806,   0.28053,  -0.28871,  -0.77206,  -0.45018,   0.71874,  -0.77750,   0.50086,  -0.78065,  -0.64044,   0.84225,  -0.67792,  -0.76062,   0.35882,  -0.86668,  -0.83678,  -0.76531,  -0.75988,  -0.86566,  -0.49964,   0.17681,  -0.37034,   0.57663,  -0.80343,  -0.77160,  -0.69933,   0.08565,   0.82550,   0.63999,  -0.64141,  -0.75677,  -0.87414,  -0.40900,  -0.81108,  -0.93260,   0.71551,  -0.80418,   0.93750,   0.23619,  -0.76861,  -0.87187,  -0.74886,  -0.63954,  -0.88212,  -0.25572,  -0.92238
  -0.81714,  -0.77804,  -0.23322,   0.37880,  -0.85887,  -0.67803,   0.85096,  -0.82801,   0.86529,  -0.31264,   0.51212,   0.87776,  -0.43613,  -0.82951,   0.42754,   0.76428,   0.85810,  -0.88490,  -0.66108,  -0.87617,  -0.76809,  -0.93621,  -0.79361,   0.93750,  -0.60396,  -0.79227,   0.87731,   0.93750,   0.89760,  -0.92894,  -0.53902,   0.12805,   0.64117,   0.70924,  -0.87145,  -0.77410,  -0.55062,  -0.86214,  -0.16207,  -0.66658,  -0.86965,   0.60398,  -0.24729,  -0.16725,   0.10624,  -0.93750,   0.77031,  -0.77171,   0.64977,  -0.82524,  -0.83515,   0.81414,   0.53301,  -0.46069,  -0.74444,  -0.81617,   0.62941,  -0.88227,   0.80307,  -0.56940,  -0.76051,  -0.80319,  -0.69724,  -0.70043,  -0.77468,   0.12444,  -0.66367,   0.46172,   0.85560,  -0.84624,   0.61515,  -0.83731,  -0.83854,  -0.91056,  -0.87503,   0.85231,  -0.54219,  -0.68490,  -0.32456,  -0.62812,  -0.74036,   0.79796,  -0.55412,  -0.88760
  -0.05719,   0.81162,   0.93750,   0.88584,   0.68787,  -0.83332,  -0.68038,   0.86227,  -0.72523,  -0.48095,  -0.87427,  -0.70673,   0.32641,  -0.93077,  -0.93750,   0.88141,  -0.70940,  -0.90558,  -0.85651,  -0.60680,  -0.93750,   0.93637,  -0.92229,  -0.92384,  -0.62446,  -0.74057,   0.90152,  -0.47978,  -0.62296,  -0.75818,   0.20338,   0.91124,  -0.66281,  -0.84689,  -0.93750,  -0.86628,  -0.74401,  -0.09895,   0.50162,  -0.81322,   0.28802,  -0.70395,   0.85789,  -0.87706,  -0.75427,  -0.64704,  -0.82957,   0.44888,  -0.92120,  -0.93750,  -0.14497,  -0.04822,  -0.79329,  -0.93750,   0.93750,   0.92988,  -0.66487,  -0.87476,  -0.02346,   0.93264,  -0.79886,  -0.66122,   0.75546,   0.91437,  -0.62206,  -0.73922,  -0.87534,  -0.79179,   0.82350,  -0.74247,  -0.57478,  -0.83801,  -0.81661,  -0.62635,   0.93358,  -0.89488,  -0.87452,  -0.63440,  -0.88415,   0.89625,  -0.76983,  -0.73315,   0.92198,  -0.77725
  -0.67656,   0.70069,  -0.13412,  -0.16170,   0.41554,   0.43485,  -0.75398,  -0.80924,  -0.66201,  -0.89779,  -0.82003,  -0.58734,  -0.81747,  -0.67342,  -0.72616,  -0.53017,  -0.00615,  -0.63507,  -0.85038,  -0.87764,  -0.71286,   0.46530,   0.80334,  -0.86224,  -0.81698,  -0.58601,  -0.33120,   0.62312,  -0.74201,  -0.57553,  -0.01345,   0.83302,  -0.04406,   0.51067,   0.53706,  -0.88198,  -0.68053,   0.03053,  -0.53843,  -0.57111,   0.63568,  -0.93750,  -0.17337,  -0.69789,   0.50853,  -0.77406,  -0.71851,   0.15757,  -0.93001,  -0.82528,   0.78947,  -0.40422,  -0.84504,  -0.62372,  -0.75534,  -0.86353,   0.04022,   0.81338,  -0.33599,  -0.65415,  -0.54466,   0.82608,  -0.69326,  -0.80204,  -0.23547,  -0.93510,  -0.78066,   0.61451,  -0.15728,  -0.87105,   0.07432,   0.63426,  -0.49418,  -0.80946,   0.13313,  -0.85545,  -0.93750,   0.77338,  -0.74481,  -0.61792,  -0.88244,  -0.80233,  -0.88172,  -0.79086
   0.43787,  -0.56999,  -0.56218,   0.33275,   0.73919,   0.76983,   0.77224,  -0.66463,  -0.45929,  -0.04850,  -0.90513,  -0.81923,  -0.93750,  -0.87178,  -0.92025,   0.86314,   0.26025,  -0.92370,  -0.80116,  -0.80996,  -0.72129,  -0.88287,  -0.75276,  -0.82640,  -0.75420,  -0.85846,   0.86116,   0.88068,  -0.41056,  -0.90710,  -0.80990,   0.92897,  -0.63857,  -0.67628,  -0.46219,  -0.92913,  -0.82095,  -0.01202,  -0.65171,   0.20261,   0.73887,  -0.68132,   0.51559,  -0.76339,  -0.75628,  -0.85952,   0.86603,   0.85429,  -0.60946,  -0.91616,  -0.61662,  -0.69252,  -0.81647,  -0.27958,  -0.69192,  -0.66187,  -0.83663,   0.90090,   0.21545,  -0.70457,  -0.75335,   0.73019,  -0.83063,   0.59679,  -0.28620,  -0.54462,  -0.52827,  -0.51888,   0.87449,  -0.71763,  -0.54683,  -0.61772,  -0.93750,  -0.90206,   0.92438,  -0.52154,  -0.89098,  -0.63928,  -0.47923,  -0.76922,  -0.79681,  -0.82864,  -0.54762,  -0.84675
   0.91845,  -0.80769,  -0.40049,  -0.39123,  -0.66767,  -0.73769,  -0.23388,   0.87344,  -0.57687,  -0.83921,  -0.87850,  -0.69821,  -0.87132,   0.22930,  -0.89247,  -0.44339,  -0.42634,  -0.66985,   0.13350,  -0.34525,  -0.84764,  -0.47522,  -0.92287,  -0.70095,  -0.10079,  -0.81558,  -0.27931,  -0.07288,  -0.52970,   0.49726,   0.09136,  -0.05863,  -0.56997,  -0.46033,  -0.73630,  -0.79048,  -0.84323,   0.87392,  -0.47062,   0.74972,   0.88466,  -0.43221,  -0.17991,  -0.86185,  -0.73860,  -0.92893,  -0.38311,   0.67133,  -0.88121,   0.58034,  -0.68475,  -0.48067,   0.34874,  -0.88762,   0.43735,   0.72061,  -0.70603,  -0.70694,  -0.05718,   0.87566,   0.09926,   0.75249,   0.89822,  -0.26424,   0.77951,  -0.87107,   0.28903,  -0.71533,  -0.38195,  -0.56897,   0.15871,  -0.74237,  -0.90984,  -0.56308,   0.80561,  -0.79229,   0.10677,  -0.53061,  -0.81888,   0.93683,  -0.74078,   0.39413,   0.93750,  -0.91031
  -0.85883,   0.82158,  -0.51166,  -0.33548,   0.14068,   0.54600,   0.85549,  -0.72794,  -0.40323,   0.86138,  -0.22296,  -0.55204,  -0.72728,  -0.88241,   0.86098,   0.72100,   0.87052,  -0.72767,  -0.93102,  -0.82289,  -0.74641,  -0.81264,  -0.66237,   0.85765,  -0.71234,  -0.87297,   0.62955,   0.91328,   0.22996,  -0.92515,  -0.61981,   0.88100,  -0.79577,  -0.46903,   0.93750,  -0.84395,  -0.78119,  -0.85389,  -0.59673,  -0.91974,  -0.73876,  -0.86903,   0.93750,   0.78062,  -0.61612,  -0.86518,   0.74191,  -0.65577,   0.37939,  -0.83038,  -0.35826,   0.87693,  -0.78914,   0.73689,  -0.75538,  -0.79102,  -0.60082,   0.59455,   0.03891,  -0.74792,  -0.87099,  -0.47626,  -0.80806,   0.53162,  -0.77846,   0.87951,  -0.93750,  -0.63739,   0.77992,  -0.90987,  -0.56892,   0.86476,  -0.93750,  -0.80487,  -0.81008,   0.55037,  -0.90660,  -0.46980,   0.24100,  -0.71337,  -0.71944,  -0.75749,  -0.80305,  -0.86840
   0.03020,  -0.71828,  -0.77449,   0.81301,  -0.31595,   0.05101,   0.71377,  -0.86978,  -0.56566,   0.19203,  -0.87475,  -0.64286,  -0.86684,  -0.83000,  -0.65529,   0.83704,   0.78875,  -0.87662,  -0.85107,  -0.86565,  -0.88925,  -0.93203,  -0.53642,  -0.28492,  -0.93290,  -0.74569,   0.61817,   0.81817,  -0.48171,  -0.66957,  -0.70931,   0.93750,  -0.27597,  -0.64553,   0.44555,  -0.93717,  -0.69770,   0.08822,  -0.72569,  -0.83479,   0.12059,  -0.93339,   0.67242,  -0.59444,  -0.59993,  -0.93750,   0.86698,   0.12694,  -0.40419,  -0.93750,  -0.73517,  -0.42163,  -0.84405,  -0.27016,  -0.76153,  -0.75349,  -0.75075,   0.65971,   0.14859,  -0.61695,  -0.73994,   0.29110,  -0.77144,  -0.04311,  -0.35395,  -0.25177,  -0.70512,  -0.58939,   0.45693,  -0.81304,  -0.48568,  -0.35670,  -0.81835,  -0.62632,   0.91583,  -0.51675,  -0.74261,  -0.78885,   0.10611,  -0.72610,  -0.83839,  -0.81478,  -0.75460,  -0.79094
  -0.83948,   0.73289,  -0.22354,  -0.58757,   0.83949,  -0.53426,  -0.75164,   0.75501,  -0.61660,   0.06829,  -0.93750,  -0.79203,  -0.45783,  -0.83856,  -0.69653,  -0.22859,  -0.64914,  -0.58974,  -0.86576,  -0.69752,  -0.61659,   0.93750,  -0.19756,  -0.69065,   0.75716,  -0.35657,  -0.58794,  -0.68644,  -0.72890,  -0.60604,  -0.47674,   0.15167,  -0.68030,  -0.54505,  -0.53430,   0.67819,  -0.66751,  -0.54094,   0.27274,  -0.63239,  -0.35457,  -0.78960,   0.49134,  -0.88445,  -0.75596,   0.29608,  -0.79231,  -0.41924,  -0.68957,  -0.91233,   0.79198,  -0.26851,  -0.71865,  -0.60301,   0.91885,   0.84855,  -0.67069,  -0.22560,  -0.61235,   0.84609,  -0.87500,  -0.75879,   0.93750,   0.93750,  -0.73877,  -0.72803,  -0.64483,  -0.83914,   0.05898,  -0.54067,  -0.16558,   0.10181,  -0.61733,  -0.86901,  -0.72034,  -0.80471,  -0.85183,   0.87612,  -0.62197,   0.92844,   0.39276,  -0.93280,   0.93750,   0.27831
  -0.88949,  -0.52519,   0.12325,  -0.67265,  -0.68258,  -0.51084,   0.50801,  -0.22704,  -0.14529,   0.15341,  -0.73879,   0.40799,   0.79789,  -0.70364,  -0.79028,  -0.48022,   0.40885,   0.93750,  -0.29230,   0.56841,   0.63027,  -0.66435,  -0.75591,  -0.68222,   0.09810,  -0.55833,  -0.37747,   0.34970,  -0.61110,  -0.85818,   0.03184,  -0.78688,   0.61721,   0.80763,   0.08876,   0.44167,   0.37359,  -0.77053,   0.15846,  -0.68218,  -0.78174,   0.68092,  -0.40165,  -0.90319,   0.59637,  -0.92902,   0.09871,  -0.74550,  -0.86921,  -0.77742,  -0.18702,  -0.29478,   0.86887,   0.32319,  -0.12840,  -0.43347,   0.23726,  -0.70441,  -0.08739,  -0.64446,  -0.68703,  -0.47196,   0.19871,  -0.64750,  -0.60793,  -0.75957,  -0.71144,   0.92307,   0.32537,   0.50428,   0.44863,   0.46649,   0.73383,  -0.92519,  -0.64231,  -0.69904,  -0.72105,  -0.04218,   0.71280,   0.24551,  -0.43798,   0.65072,  -0.69047,  -0.18118
  -0.51636,  -0.69724,  -0.54716,  -0.15295,  -0.80349,  -0.86765,  -0.74662,  -0.84635,  -0.35769,  -0.87359,   0.87940,  -0.68019,  -0.73396,   0.49473,   0.88275,  -0.75021,  -0.07201,  -0.76805,   0.64765,  -0.79878,  -0.93600,  -0.79407,   0.45270,   0.87901,  -0.74811,  -0.76691,  -0.45400,  -0.35986,   0.78644,   0.87415,  -0.78007,  -0.62723,  -0.57608,  -0.58287,  -0.60628,  -0.89603,  -0.74078,  -0.62952,  -0.27951,  -0.20644,  -0.79419,  -0.83033,  -0.35309,   0.93059,  -0.68823,   0.23060,  -0.80136,  -0.81434,   0.85954,  -0.76428,  -0.72013,   0.84488,  -0.86394,  -0.73716,  -0.75529,  -0.75119,  -0.74703,  -0.77775,   0.34578,  -0.57271,   0.80903,  -0.91070,  -0.63228,  -0.86407,  -0.64364,   0.86847,  -0.00986,  -0.81177,  -0.11225,  -0.88337,  -0.47281,  -0.86423,  -0.80202,   0.77533,  -0.65510,   0.87330,  -0.11452,  -0.55859,  -0.85159,  -0.71657,  -0.62185,  -0.76593,  -0.32831,  -0.81139
  -0.74049,  -0.62969,   0.05975,  -0.81874,  -0.45233,   0.35192,   0.90621,   0.80804,   0.87841,   0.19888,  -0.87374,   0.24933,   0.42993,  -0.90525,  -0.83301,  -0.61129,   0.21900,   0.84937,  -0.72268,   0.33256,   0.76624,  -0.63434,  -0.81124,  -0.84111,   0.48191,  -0.18295,  -0.44690,   0.28594,  -0.38366,  -0.81631,   0.13734,  -0.73865,   0.10024,   0.64369,  -0.16203,  -0.21933,  -0.15390,  -0.79490,  -0.03074,  -0.76215,  -0.58075,   0.80119,  -0.53101,  -0.82611,  -0.10108,  -0.77697,   0.75649,  -0.42327,  -0.77523,  -0.54980,  -0.11004,  -0.37772,   0.91150,   0.16013,  -0.63416,   0.10779,   0.11534,  -0.86102,  -0.15645,  -0.52443,  -0.59900,  -0.15895,   0.53544,  -0.66399,  -0.48733,  -0.64920,  -0.67654,   0.59934,  -0.08484,   0.76330,   0.93750,   0.05053,   0.66165,  -0.88963,  -0.74492,  -0.56355,  -0.69401,   0.20997,  -0.30545,  -0.23499,  -0.66738,   0.93106,  -0.46600,  -0.40317
   0.59874,   0.58762,  -0.08561,   0.93750,   0.45683,  -0.80768,  -0.29049,   0.77667,  -0.78256,  -0.85105,  -0.85748,  -0.68041,  -0.81035,  -0.73804,  -0.93617,   0.93051,  -0.17213,  -0.86303,  -0.69967,  -0.87626,  -0.82377,   0.93750,  -0.80081,  -0.88535,  -0.65332,  -0.79522,   0.86575,  -0.28043,  -0.67177,  -0.92401,  -0.48358,   0.91465,  -0.89649,  -0.60517,  -0.93750,  -0.62542,  -0.87319,   0.62487,  -0.53601,  -0.59056,   0.93750,  -0.56732,   0.73881,  -0.93536,  -0.62891,  -0.83649,  -0.67103,   0.63626,  -0.93750,  -0.91438,  -0.60074,  -0.36181,  -0.72525,  -0.91243,   0.92514,   0.93750,  -0.61132,  -0.81470,  -0.22738,   0.93750,  -0.74589,  -0.28594,   0.84116,   0.83569,  -0.26930,  -0.66749,  -0.76126,  -0.91919,  -0.09513,  -0.86463,   0.15467,  -0.90133,  -0.87355,  -0.64955,   0.79924,  -0.64750,  -0.61659,  -0.49554,  -0.82832,   0.93331,  -0.63054,  -0.94407,   0.93559,  -0.83573
  -0.14164,  -0.77026,  -0.03377,  -0.53083,  -0.56116,  -0.87732,  -0.62316,  -0.27521,  -0.09558,  -0.75936,  -0.64888,   0.80804,  -0.47285,   0.04103,  -0.85943,  -0.78084,  -0.57574,  -0.59349,   0.26381,  -0.12252,  -0.05173,  -0.68279,  -0.80323,  -0.39573,   0.26392,   0.14597,  -0.50553,  -0.25939,  -0.47000,  -0.01601,  -0.07663,  -0.78557,   0.26486,   0.52966,  -0.87435,   0.37634,  -0.18674,  -0.13852,   0.15186,  -0.17554,  -0.50463,   0.10892,  -0.63793,  -0.80725,   0.26821,  -0.59005,  -0.66191,  -0.29592,  -0.76054,   0.51569,  -0.55367,  -0.14073,   0.00617,  -0.61889,  -0.57654,  -0.38215,   0.65277,  -0.87966,  -0.02627,  -0.22908,   0.52064,  -0.85740,  -0.41210,  -0.54861,   0.56168,  -0.54215,  -0.02995,   0.43000,  -0.29811,   0.67179,   0.54957,  -0.78521,   0.46718,  -0.19970,  -0.61179,  -0.82504,   0.58594,  -0.12874,  -0.61526,   0.05636,   0.00100,  -0.34754,  -0.53175,   0.39232
  -0.62678,  -0.74777,  -0.65681,   0.58785,  -0.79741,  -0.78402,  -0.66827,  -0.93071,  -0.66332,  -0.75680,   0.92135,  -0.28739,  -0.75058,   0.12967,   0.93750,  -0.50499,  -0.31615,  -0.87959,   0.29045,  -0.93148,  -0.88141,  -0.62456,   0.17653,   0.67460,  -0.73757,  -0.87777,  -0.33671,  -0.10264,   0.91896,   0.67308,  -0.62160,  -0.36712,  -0.56158,  -0.67106,  -0.76681,  -0.57389,  -0.77510,  -0.54654,  -0.28526,   0.02647,  -0.75516,  -0.72586,  -0.45930,   0.66483,  -0.61671,  -0.07969,  -0.93719,  -0.49263,   0.83594,  -0.79621,  -0.48812,   0.87269,  -0.86565,  -0.67578,  -0.57399,  -0.86763,  -0.65188,  -0.66587,   0.46863,  -0.13396,   0.57090,  -0.93750,  -0.81698,  -0.42896,  -0.41427,   0.92659,  -0.65659,  -0.63502,  -0.12776,  -0.88102,  -0.54300,  -0.70871,  -0.93293,   0.93750,  -0.68564,   0.82234,  -0.27142,  -0.49107,  -0.93750,  -0.76372,  -0.77959,  -0.77425,  -0.28401,  -0.93750
   0.76933,  -0.75318,  -0.35175,  -0.93750,  -0.83989,   0.85341,   0.86514,   0.87500,   0.93289,  -0.74311,  -0.88269,  -0.57737,   0.79410,   0.92954,  -0.89913,  -0.74941,  -0.35953,   0.85583,   0.85129,   0.93750,   0.93750,  -0.93750,  -0.81460,  -0.82139,   0.91289,  -0.88809,  -0.85400,   0.83799,  -0.87154,   0.75729,   0.77832,  -0.77956,  -0.75548,  -0.65079,   0.81183,  -0.70687,  -0.93750,   0.66014,  -0.58096,   0.79398,   0.80171,   0.92724,  -0.84186,  -0.93750,  -0.81602,  -0.93048,   0.82701,   0.93750,  -0.91373,   0.86311,  -0.69905,  -0.82469,   0.93062,  -0.93584,  -0.81660,   0.62904,  -0.70388,  -0.67802,  -0.46692,  -0.93750,   0.84496,   0.92753,   0.92481,  -0.73518,   0.88535,  -0.92806,   0.80366,  -0.71203,  -0.62014,   0.87763,   0.90052,   0.92545,  -0.80999,  -0.92226,   0.78739,  -0.93750,  -0.08673,  -0.57560,  -0.90959,   0.83831,  -0.84786,   0.93750,  -0.88759,  -0.93291
  -0.66729,   0.68054,   0.59157,  -0.68336,   0.82007,   0.65006,  -0.82990,   0.40809,  -0.83151,  -0.33298,  -0.86490,  -0.75931,   0.26572,  -0.75400,  -0.87954,  -0.65780,  -0.26206,   0.01418,  -0.89258,   0.62665,  -0.58637,   0.93750,   0.78571,  -0.81851,   0.67228,  -0.31722,  -0.75803,  -0.53800,  -0.78298,  -0.87652,   0.87212,  -0.76021,   0.17007,  -0.34995,   0.86016,   0.49490,  -0.22448,  -0.77727,   0.65635,  -0.75476,  -0.46103,  -0.82001,  -0.30878,  -0.80204,  -0.13781,  -0.61862,  -0.87636,  -0.49784,  -0.79233,   0.42154,   0.92038,  -0.37947,  -0.77674,  -0.25691,  -0.29645,   0.36766,  -0.27087,   0.81074,  -0.48397,  -0.37187,  -0.90912,  -0.32801,   0.53387,  -0.45977,  -0.64480,  -0.57677,  -0.88881,  -0.53674,  -0.24748,   0.36621,  -0.21671,   0.53936,  -0.24367,  -0.93750,  -0.84451,  -0.56099,  -0.68482,   0.87567,  -0.49839,  -0.32209,  -0.70942,  -0.74827,  -0.35657,  -0.64859
  -0.47410,  -0.88995,  -0.04610,  -0.60918,  -0.89452,  -0.73680,  -0.77660,  -0.50451,  -0.42676,  -0.82689,  -0.76900,   0.69987,  -0.75717,   0.54734,  -0.91172,  -0.65511,  -0.23272,  -0.32728,   0.01391,   0.55708,  -0.28824,  -0.69250,  -0.64712,  -0.63560,   0.20457,  -0.33494,  -0.37000,  -0.39326,  -0.18654,  -0.02414,  -0.42601,  -0.56809,   0.39319,   0.41261,  -0.73656,   0.65568,  -0.35455,   0.21120,   0.02997,  -0.55580,  -0.53621,  -0.06128,  -0.72156,  -0.84369,   0.47719,  -0.76148,  -0.40982,  -0.28937,  -0.90906,   0.68768,  -0.49477,  -0.17340,   0.08785,  -0.84314,  -0.51264,  -0.26731,   0.04495,  -0.88439,   0.25606,   0.09409,   0.49434,  -0.71995,  -0.44984,  -0.69430,   0.44216,  -0.93750,   0.13552,   0.28763,  -0.64286,   0.07177,   0.23504,  -0.88731,  -0.38850,  -0.32338,  -0.65975,  -0.72126,   0.62944,  -0.42272,  -0.65783,  -0.43273,   0.38189,   0.13090,   0.12614,   0.75917
  -0.81902,  -0.93750,  -0.46762,  -0.87636,  -0.86590,  -0.87604,   0.87492,  -0.85708,   0.69322,  -0.69327,  -0.69935,   0.92276,  -0.86237,  -0.91243,  -0.93750,   0.03123,   0.88723,   0.32106,  -0.37655,  -0.42488,  -0.17993,  -0.87102,  -0.89551,   0.39648,  -0.51763,   0.20081,   0.85619,   0.12537,   0.65646,  -0.93750,  -0.54112,  -0.85099,   0.78536,   0.92558,  -0.89399,   0.33865,   0.93560,  -0.87874,   0.11973,  -0.80556,  -0.75450,   0.74124,  -0.93704,  -0.87193,   0.93887,  -0.93684,   0.93649,  -0.68085,  -0.80318,  -0.66103,  -0.93379,  -0.68600,   0.89242,  -0.34515,  -0.86437,  -0.76178,   0.76412,  -0.84303,   0.87926,  -0.69700,  -0.58809,  -0.60873,  -0.79172,  -0.86161,  -0.40181,  -0.87655,  -0.44132,   0.87719,  -0.52323,  -0.18983,   0.70760,  -0.86556,   0.82858,  -0.83100,  -0.75779,  -0.74445,   0.64233,  -0.69101,  -0.66036,  -0.63091,   0.74094,   0.93750,  -0.88985,   0.71414
  -0.76321,  -0.69781,  -0.55191,  -0.42754,  -0.87582,  -0.86404,  -0.74725,  -0.81471,   0.06758,  -0.62428,   0.76948,  -0.13446,  -0.79364,   0.48218,   0.67609,  -0.25586,  -0.20089,  -0.92674,   0.57038,  -0.92153,  -0.93205,  -0.86432,  -0.03433,   0.78306,  -0.52948,  -0.80055,  -0.62206,  -0.20388,   0.73947,   0.60296,  -0.51247,  -0.60379,  -0.68153,  -0.55869,  -0.89686,  -0.66120,  -0.87878,  -0.66132,  -0.16965,   0.93750,  -0.67417,  -0.52835,  -0.42768,   0.87557,  -0.79537,  -0.49693,  -0.91996,  -0.58424,   0.84226,  -0.64856,  -0.69993,   0.69227,  -0.62924,  -0.70474,  -0.87284,  -0.86236,  -0.51771,  -0.93750,   0.78693,  -0.43780,   0.75806,  -0.84640,  -0.77164,  -0.72837,  -0.27354,   0.84675,   0.79133,  -0.59406,  -0.13040,  -0.86748,  -0.36209,  -0.83044,  -0.93459,   0.86539,  -0.82305,   0.81681,   0.76295,  -0.68283,  -0.87160,  -0.83924,  -0.75928,  -0.74803,   0.40433,  -0.80283
   0.66841,  -0.44956,  -0.14387,   0.84486,   0.93487,  -0.93750,  -0.87971,   0.88067,  -0.93144,  -0.67686,  -0.85381,  -0.51691,  -0.80267,  -0.71507,  -0.93750,   0.77369,  -0.20370,  -0.57945,  -0.74770,  -0.83623,  -0.92115,   0.62329,  -0.80660,  -0.93750,  -0.58644,  -0.70168,   0.51901,   0.04529,  -0.58127,  -0.83565,  -0.69280,   0.88716,  -0.59018,  -0.60958,  -0.91760,  -0.92990,  -0.87028,   0.89678,  -0.72160,  -0.88077,   0.71353,  -0.85237,   0.86579,  -0.93750,  -0.75445,  -0.44065,  -0.93750,   0.67560,  -0.82040,  -0.93750,  -0.70828,  -0.69637,  -0.80540,  -0.90176,   0.86588,   0.82979,  -0.70835,  -0.58912,  -0.01296,   0.93750,  -0.78657,  -0.66619,   0.54158,   0.86572,  -0.19538,  -0.84660,  -0.85684,  -0.71479,  -0.05558,  -0.82972,  -0.25385,  -0.67887,  -0.92779,  -0.39489,   0.55700,  -0.82753,  -0.56251,  -0.80435,  -0.67809,   0.88494,  -0.58470,  -0.92820,   0.93750,  -0.87798
