   0.52253,  -0.40416,  -0.27734,   0.66442,  -0.04411,  -0.08711
   0.18079,  -0.47632,  -0.38478,   0.60987,  -0.51690,  -0.49063
  -0.10518,  -0.27639,  -0.61306,   0.75318,  -0.63672,  -0.22473
  -0.43934,  -0.53303,  -0.48603,   0.72965,  -0.10579,  -0.05548
  -0.32693,  -0.49430,  -0.42729,   0.51084,  -0.57560,  -0.28786
   0.85240,  -0.60307,  -0.06737,  -0.25938,  -0.37939,  -0.21121
   0.37059,  -0.47941,  -0.15477,   0.64179,  -0.26451,  -0.32217
  -0.25215,  -0.30332,  -0.22711,   0.59318,  -0.47576,   0.27868
  -0.30242,  -0.38551,  -0.09721,   0.65818,  -0.49381,  -0.40571
  -0.32328,  -0.38537,  -0.15354,   0.74967,   0.62673,  -0.28777
   0.66404,  -0.27706,  -0.12826,   0.11046,  -0.49144,  -0.05085
   0.73144,  -0.55934,  -0.11306,  -0.21140,  -0.48316,  -0.05125
  -0.34725,  -0.23568,  -0.39094,   0.71844,  -0.31120,  -0.15919
  -0.36003,  -0.02993,  -0.43141,  -0.45451,  -0.62581,   0.10733
  -0.09758,  -0.00288,  -0.03444,   0.71454,  -0.46171,   0.00631
   0.58335,  -0.27307,  -0.48021,  -0.47775,  -0.27461,  -0.03561
   0.26486,  -0.08309,  -0.53277,  -0.39044,  -0.42910,   0.28814
  -0.10921,   0.23222,  -0.50653,  -0.27345,  -0.40910,  -0.30282
  -0.33710,   0.56137,  -0.50557,  -0.15494,  -0.42841,   0.17146
  -0.34621,  -0.50282,  -0.57865,  -0.11676,  -0.00255,   0.06311
   0.27969,  -0.26831,  -0.28681,  -0.37336,  -0.64152,  -0.28982
   0.26714,  -0.15974,  -0.19743,  -0.02564,  -0.60378,  -0.25817
  -0.05507,  -0.69583,  -0.35951,  -0.21222,  -0.14452,   0.15482
  -0.07566,  -0.29798,  -0.60406,  -0.46655,  -0.45038,  -0.30480
  -0.23226,  -0.66876,  -0.34543,  -0.33973,   0.77494,  -0.22040
   0.77434,  -0.66217,  -0.17624,  -0.23033,  -0.30967,   0.41185
   0.00967,  -0.37139,   0.07186,  -0.51095,   0.22198,   0.72949
  -0.31182,  -0.54709,  -0.19281,   0.21122,   0.23161,   0.65463
  -0.46850,   0.01503,  -0.23020,   0.43870,   0.01980,   0.47456
  -0.39479,  -0.62068,  -0.54935,   0.20329,  -0.61936,  -0.06627
  -0.02005,  -0.61645,  -0.04383,  -0.04848,  -0.57889,   0.22338
   0.64276,   0.01928,   0.76573,  -0.38866,  -0.02802,   0.73567
  -0.25104,   0.11356,   0.76532,  -0.08978,  -0.46305,   0.34220
  -0.32914,  -0.38102,   0.66059,  -0.45733,  -0.48086,   0.67447
  -0.46724,   0.39270,   0.49127,  -0.26589,  -0.56690,   0.79549
   0.37701,   0.48379,   0.33893,  -0.27125,   0.75855,   0.49846
   0.47637,  -0.08257,   0.71699,  -0.49146,   0.04431,   0.42459
  -0.50524,   0.52660,   0.51948,  -0.43157,  -0.01903,   0.35620
  -0.43504,   0.18286,   0.51812,  -0.44989,  -0.41888,   0.61377
  -0.48831,  -0.08930,   0.50119,  -0.39729,  -0.34024,   0.67917
   0.54743,  -0.05702,  -0.44050,  -0.38781,   0.21399,   0.43312
   0.66011,   0.19046,  -0.43794,  -0.41943,  -0.33472,   0.16364
  -0.22526,   0.63206,  -0.12915,  -0.36294,  -0.24429,   0.46402
  -0.48340,   0.48980,  -0.21174,  -0.48932,  -0.43162,   0.31701
  -0.48328,   0.14368,  -0.45975,  -0.18752,  -0.38333,   0.72706
   0.60154,  -0.38146,  -0.20806,  -0.26746,  -0.01531,   0.67581
   0.31885,  -0.10159,  -0.19931,  -0.18117,  -0.27890,   0.06558
  -0.03290,   0.62615,  -0.15841,  -0.46239,   0.22161,   0.12439
  -0.34115,  -0.20512,  -0.15799,  -0.18744,   0.36743,   0.66521
  -0.37766,  -0.09948,  -0.40893,  -0.29826,  -0.62127,  -0.15230
   0.43617,   0.18678,   0.74749,   0.51668,   0.14089,  -0.56269
  -0.00235,  -0.31647,   0.56004,   0.51626,  -0.62902,  -0.34840
  -0.15917,   0.22741,   0.50375,   0.60239,  -0.16381,  -0.17350
  -0.50725,  -0.27570,  -0.07111,   0.58273,   0.52722,  -0.39833
  -0.32438,  -0.15400,   0.28208,  -0.29587,   0.54305,  -0.14783
   0.51001,   0.77269,   0.72616,   0.51219,  -0.12124,  -0.21666
   0.77239,   0.81540,   0.74850,  -0.19476,  -0.02152,  -0.49433
  -0.33132,   0.69740,   0.74898,   0.47947,   0.48848,  -0.31573
  -0.44714,   0.46167,   0.70221,   0.44404,   0.26555,  -0.31802
  -0.48454,   0.58566,   0.43236,   0.18474,  -0.09147,  -0.57412
   0.52969,   0.66149,   0.19569,  -0.04193,  -0.62944,  -0.41674
   0.77261,   0.61138,   0.17578,  -0.14864,   0.54384,  -0.36308
  -0.30291,   0.76444,   0.48609,  -0.37063,   0.45669,  -0.49318
  -0.42729,   0.56470,   0.33065,  -0.32830,   0.46955,  -0.33080
  -0.28717,   0.72242,   0.75343,  -0.17969,   0.82110,  -0.61265
   0.76300,   0.54564,  -0.39282,  -0.15273,   0.48553,  -0.39397
   0.35867,   0.67662,  -0.30011,  -0.07708,   0.24956,  -0.43142
  -0.42549,   0.69680,  -0.45617,  -0.23301,   0.31892,  -0.27452
  -0.50628,   0.71199,  -0.41000,  -0.19873,   0.04181,  -0.40237
  -0.30726,   0.34887,  -0.04531,  -0.19838,  -0.30241,  -0.55813
   0.74234,   0.73149,  -0.17042,  -0.13554,   0.11758,  -0.43362
   0.40634,  -0.04261,  -0.50391,  -0.05362,   0.35998,  -0.52210
  -0.32517,   0.18682,  -0.28796,  -0.33594,  -0.32661,  -0.33200
  -0.41054,   0.89069,  -0.25638,  -0.19412,  -0.10126,  -0.37156
  -0.29593,   0.47916,  -0.06103,   0.07752,   0.22435,  -0.34721
