  -0.38556,  -0.04172,   0.93750,   0.54440,  -0.49018,  -0.08891,  -0.39430,   0.00418,   0.62725,   0.23618
  -0.02013,   0.88332,  -0.93750,   0.23928,   0.30452,   0.35436,   0.54776,   0.79649,   0.93750,  -0.72064
   0.65912,   0.82383,   0.23819,   0.28192,  -0.70902,  -0.55878,   0.93750,   0.30371,   0.77364,   0.75969
  -0.46947,  -0.04439,  -0.13096,   0.27711,  -0.63404,  -0.27539,   0.38158,  -0.25951,  -0.10171,  -0.93750
   0.91261,   0.82496,  -0.81275,  -0.68424,   0.86503,  -0.92268,   0.87563,   0.93750,   0.80904,  -0.73664
   0.04944,   0.28467,   0.69717,  -0.83566,  -0.18266,   0.87724,  -0.07470,  -0.55684,  -0.31388,   0.42617
  -0.10177,   0.59553,  -0.91086,   0.32658,  -0.51655,   0.17051,  -0.43147,   0.93750,   0.59246,  -0.29775
  -0.33290,   0.18652,  -0.11614,   0.80571,  -0.27459,   0.90515,  -0.61310,   0.24364,   0.00260,  -0.31994
  -0.93750,  -0.92464,   0.93750,  -0.93750,   0.87055,  -0.83881,  -0.63829,  -0.85629,  -0.88378,   0.58947
  -0.14802,   0.87913,  -0.72432,   0.49126,   0.93750,  -0.82447,  -0.38642,  -0.93750,  -0.93750,  -0.93750
  -0.54885,  -0.28864,   0.93750,   0.87165,  -0.44121,   0.93750,  -0.13188,  -0.32654,  -0.18419,  -0.57050
  -0.29917,   0.29701,  -0.26024,   0.92918,   0.27429,  -0.87385,  -0.58220,  -0.32694,  -0.56034,   0.67085
   0.03039,  -0.07805,   0.31203,   0.65581,   0.36921,  -0.71211,  -0.88154,   0.93750,  -0.50805,   0.02733
   0.66808,   0.57331,  -0.89975,  -0.62806,   0.30382,  -0.27342,  -0.87596,   0.16581,   0.28374,  -0.93025
   0.93750,   0.61026,   0.75336,  -0.36547,   0.80467,   0.71823,  -0.93750,  -0.66287,   0.76542,   0.70201
   0.07848,   0.30712,  -0.81938,  -0.80175,   0.93712,   0.93750,   0.93750,   0.76880,  -0.75203,   0.18749
  -0.81378,  -0.25850,  -0.93750,   0.93750,  -0.87678,   0.93750,   0.69185,  -0.93750,   0.43548,  -0.25480
  -0.39882,   0.88499,  -0.49085,  -0.66094,  -0.93750,   0.35502,  -0.68849,  -0.61181,   0.08755,  -0.56457
   0.16700,   0.69189,   0.20531,   0.93750,   0.00942,  -0.93750,  -0.62643,  -0.42915,  -0.41512,   0.53809
   0.67131,   0.39334,  -0.49774,   0.36155,   0.33631,   0.17925,  -0.57234,   0.86202,  -0.69762,  -0.10510
  -0.01003,  -0.40309,   0.47995,  -0.54603,   0.93199,  -0.16847,   0.35514,  -0.70467,   0.47964,   0.68079
   0.16094,  -0.44512,   0.15393,   0.88735,  -0.83914,   0.04998,  -0.27440,   0.07824,   0.44171,  -0.27850
   0.54117,  -0.82737,   0.93750,  -0.56938,   0.93750,   0.82574,  -0.93165,  -0.81167,   0.93750,  -0.22098
  -0.56010,   0.16414,  -0.75997,  -0.34549,  -0.23783,  -0.56021,   0.93750,   0.46421,  -0.08892,   0.23561
  -0.09363,   0.11811,   0.80177,   0.08808,   0.43209,   0.74008,  -0.48046,  -0.52789,   0.00476,  -0.13945
  -0.72218,   0.66156,   0.39724,   0.71134,   0.46995,  -0.18284,  -0.81301,  -0.66561,  -0.09454,  -0.24395
  -0.27261,  -0.43565,  -0.68631,  -0.93750,   0.22551,  -0.80924,  -0.48619,   0.93750,   0.26480,  -0.03739
   0.17355,   0.76553,  -0.69048,   0.74608,  -0.69965,  -0.69622,   0.36969,  -0.72282,   0.62671,  -0.70849
  -0.80190,  -0.14326,  -0.93750,   0.13014,  -0.93750,  -0.13600,  -0.77226,   0.86985,   0.09193,   0.05447
  -0.78513,   0.87459,  -0.46548,  -0.40532,  -0.43630,   0.14728,  -0.58233,  -0.25688,   0.93750,   0.87753
   0.93750,  -0.50411,   0.93750,  -0.82242,  -0.67896,  -0.47946,  -0.44390,   0.71807,  -0.17985,  -0.75530
   0.57881,   0.45484,   0.05492,   0.83609,   0.09270,   0.19319,   0.93750,  -0.93750,   0.93750,   0.54674
   0.93750,  -0.77512,  -0.18372,  -0.41115,   0.86632,   0.72494,   0.93750,  -0.35453,  -0.50271,  -0.54031
   0.47166,   0.41997,  -0.35545,   0.33232,   0.88130,   0.75040,  -0.88370,  -0.81824,  -0.77162,  -0.55740
   0.19818,  -0.23056,  -0.01405,  -0.16335,   0.93750,   0.15917,   0.93750,   0.93750,   0.93750,  -0.13691
  -0.77509,   0.16652,  -0.69214,   0.04766,   0.07500,   0.82074,   0.80847,  -0.87137,  -0.27503,   0.93750
   0.50478,   0.80234,   0.93750,  -0.69657,  -0.69985,  -0.31611,   0.01506,   0.07285,  -0.04121,   0.93750
  -0.06858,   0.87300,  -0.53606,  -0.93750,  -0.69280,  -0.62692,   0.88127,   0.51902,   0.93750,   0.77814
   0.38284,   0.38125,   0.88142,   0.15582,   0.11680,  -0.04358,  -0.93750,   0.05131,  -0.24711,   0.50591
   0.87303,   0.39826,   0.93084,  -0.47557,   0.23155,  -0.83359,  -0.08959,  -0.00045,   0.75129,  -0.19534
   0.93750,  -0.10873,  -0.41507,  -0.87387,  -0.27432,  -0.07714,   0.48654,   0.63623,   0.81791,  -0.18577
   0.36491,  -0.13913,   0.03658,  -0.22983,   0.35389,  -0.45210,   0.14716,  -0.79247,   0.23326,   0.36485
   0.40355,   0.42580,  -0.18502,   0.18252,   0.70790,  -0.24354,   0.93750,   0.14910,   0.37102,   0.53538
   0.93750,   0.82951,   0.67799,   0.20887,   0.93750,  -0.93750,   0.93750,   0.93750,   0.40108,   0.93750
  -0.08713,  -0.08888,  -0.57987,  -0.67735,   0.66396,   0.72424,   0.13145,   0.73574,  -0.38322,   0.23041
  -0.41296,   0.22867,   0.67155,  -0.54117,   0.93750,  -0.08181,   0.21568,  -0.16006,   0.23067,   0.43928
   0.54172,   0.83338,  -0.88934,  -0.55255,   0.82933,   0.88070,   0.03773,  -0.82307,   0.15704,   0.80720
  -0.44613,  -0.65024,   0.74553,   0.44632,   0.00044,   0.83233,   0.81507,  -0.66809,   0.17274,  -0.81471
   0.34679,   0.66953,  -0.71983,  -0.93750,   0.87274,  -0.19329,   0.56706,   0.87945,  -0.70590,   0.16033
   0.26997,   0.93750,   0.26944,  -0.30233,   0.15484,   0.16178,  -0.27002,   0.20097,  -0.75672,  -0.51134
  -0.43498,  -0.69400,  -0.37097,   0.25114,   0.87601,  -0.49004,   0.61056,  -0.51705,   0.49300,   0.34162
   0.53806,   0.70576,  -0.82232,  -0.28225,  -0.46446,  -0.65665,  -0.08512,   0.93750,   0.10502,   0.92539
   0.69641,   0.93750,  -0.74344,  -0.09039,  -0.74865,   0.70878,   0.63524,   0.13352,   0.03439,   0.88111
  -0.04940,   0.75076,  -0.12890,   0.21287,   0.04272,  -0.30448,   0.66428,  -0.75640,   0.00943,  -0.69719
  -0.93750,   0.46008,  -0.76200,  -0.47144,   0.30352,   0.41176,  -0.13364,   0.25446,  -0.37215,  -0.42045
  -0.10766,   0.80726,  -0.24257,  -0.57040,   0.80589,   0.74801,  -0.58250,   0.93750,   0.21237,   0.04181
  -0.31978,   0.34192,  -0.57424,  -0.80342,  -0.76576,   0.62099,   0.27161,  -0.76887,   0.28702,  -0.61078
  -0.44035,  -0.93750,  -0.93750,  -0.56183,   0.10927,  -0.93750,   0.93750,  -0.93750,   0.93750,  -0.86945
  -0.37641,  -0.29582,   0.93042,   0.51478,  -0.33826,  -0.53369,  -0.46071,  -0.34697,   0.22888,  -0.32346
  -0.56581,  -0.31127,   0.09567,  -0.91154,  -0.50204,   0.93282,  -0.23073,  -0.23267,  -0.36602,  -0.43351
  -0.77002,   0.75002,   0.93363,   0.75203,   0.35756,   0.87601,   0.44932,   0.93750,  -0.93750,  -0.48718
  -0.61400,   0.22452,  -0.68863,   0.87717,   0.93750,  -0.44262,   0.93750,  -0.75611,   0.26128,  -0.29664
  -0.36821,  -0.46961,  -0.34262,   0.12638,   0.74695,   0.30363,   0.86696,   0.42896,  -0.46534,  -0.33746
   0.48309,   0.35643,   0.06657,  -0.40191,   0.93665,   0.34513,   0.77946,  -0.70437,  -0.06024,  -0.15158
  -0.73353,  -0.10411,   0.86527,  -0.75881,  -0.77352,  -0.69474,  -0.85620,   0.40587,  -0.71823,  -0.35937
  -0.34673,  -0.25666,  -0.67162,  -0.68410,   0.05639,   0.80547,  -0.38027,   0.56346,   0.93750,   0.14410
  -0.63756,  -0.27138,   0.29420,  -0.29021,  -0.63414,  -0.57700,   0.09760,   0.93750,  -0.06065,  -0.25516
   0.83336,   0.32354,   0.93750,  -0.87691,   0.00108,   0.73729,   0.54756,  -0.75380,   0.72143,   0.21344
  -0.19191,   0.93750,  -0.93750,  -0.33751,   0.14976,  -0.73853,   0.16294,   0.84020,  -0.92629,   0.21572
  -0.91728,   0.01911,   0.87470,   0.50660,   0.74935,  -0.82223,  -0.85367,  -0.73262,  -0.53471,   0.15195
   0.02083,  -0.48653,  -0.85184,  -0.61238,   0.80390,  -0.32117,  -0.05523,  -0.54497,   0.63551,  -0.20554
   0.93750,   0.72681,   0.81906,  -0.68657,   0.52768,  -0.20156,  -0.80860,  -0.00629,  -0.08181,   0.01192
   0.16320,  -0.64914,  -0.35894,  -0.22601,  -0.12701,  -0.47885,   0.35969,  -0.32096,  -0.55004,   0.92975
  -0.73305,  -0.86478,  -0.62332,   0.88029,  -0.88007,   0.62783,  -0.79795,   0.73873,   0.55334,  -0.93750
  -0.49303,   0.93750,   0.45282,   0.39391,  -0.22412,  -0.13274,   0.30348,  -0.70014,  -0.28007,   0.25742
   0.29294,   0.88751,   0.14424,   0.03313,  -0.52110,  -0.15537,  -0.54381,   0.73523,  -0.32143,  -0.49145
  -0.93750,   0.93750,  -0.58899,  -0.54575,  -0.80789,  -0.75908,   0.75719,   0.54195,   0.38004,   0.32333
  -0.83620,   0.93750,   0.78511,  -0.93750,   0.93750,   0.93750,  -0.30598,   0.93086,   0.14929,  -0.56668
  -0.81084,  -0.24838,   0.58224,   0.93750,  -0.32261,  -0.62162,   0.93750,   0.93750,  -0.18490,   0.51186
   0.75578,  -0.25196,  -0.80990,  -0.68099,  -0.23034,   0.93750,  -0.36757,   0.58484,   0.87480,   0.93750
   0.82507,   0.61320,  -0.35529,   0.34837,   0.31283,   0.10362,  -0.52030,   0.33007,   0.44928,  -0.65566
   0.93750,  -0.93750,  -0.07478,  -0.93750,  -0.79805,  -0.88810,   0.93750,  -0.93750,  -0.81138,  -0.93750
   0.92301,   0.73070,  -0.09645,  -0.45514,   0.06000,  -0.29992,  -0.07482,   0.12518,   0.49100,  -0.77211
  -0.55306,  -0.26837,  -0.55498,  -0.62791,   0.87352,  -0.10816,  -0.76246,  -0.77782,   0.47801,  -0.35888
   0.29608,   0.68340,  -0.88359,  -0.30819,   0.63175,  -0.93750,   0.93750,  -0.87901,   0.13734,  -0.82348
   0.59740,  -0.93750,  -0.93750,   0.93750,   0.93750,   0.93750,  -0.87547,   0.89154,  -0.93750,  -0.93750
   0.14578,   0.76515,  -0.13795,  -0.65802,   0.04658,  -0.67792,   0.47335,  -0.27542,  -0.56101,  -0.13144
  -0.08809,   0.83408,  -0.30225,  -0.39440,   0.50916,   0.11980,   0.02916,  -0.34207,   0.05354,  -0.14497
  -0.07837,   0.65794,  -0.36889,   0.93750,  -0.10007,  -0.63101,  -0.80706,   0.93750,   0.74121,  -0.87134
   0.87519,  -0.22315,  -0.86841,   0.78354,  -0.60137,  -0.89388,   0.55440,  -0.73693,   0.30786,  -0.65735
  -0.86723,   0.93750,   0.93750,  -0.80863,   0.64380,  -0.93750,  -0.28794,   0.93750,  -0.50725,  -0.83636
   0.93750,   0.24686,   0.21442,   0.46946,  -0.93142,  -0.82787,   0.92549,   0.74599,   0.93750,  -0.05035
  -0.15286,   0.81296,   0.02439,   0.24419,   0.08949,  -0.47715,   0.54915,   0.87164,  -0.44696,  -0.43887
  -0.87471,  -0.68340,  -0.54442,  -0.56301,  -0.67457,  -0.76619,   0.02181,  -0.18311,   0.93750,   0.43717
   0.02231,   0.05030,  -0.30868,  -0.58818,   0.81200,  -0.15372,   0.40697,   0.84886,   0.31730,   0.77578
   0.91203,   0.14361,  -0.87586,  -0.32537,   0.28451,  -0.11539,  -0.53023,  -0.87712,  -0.73702,  -0.76248
   0.06524,   0.03018,   0.93750,  -0.35882,   0.03041,   0.93750,  -0.28965,  -0.89934,  -0.35414,   0.08615
   0.46030,  -0.26783,   0.00899,   0.42738,   0.26931,   0.34528,  -0.50037,  -0.26716,  -0.78606,   0.92439
  -0.56407,   0.53377,   0.86452,  -0.33512,   0.50589,   0.47234,  -0.87200,  -0.09440,  -0.68940,   0.29942
   0.13076,  -0.12044,  -0.42728,  -0.38531,  -0.42889,   0.92745,  -0.67808,  -0.47301,   0.55077,  -0.10246
  -0.63220,   0.37622,   0.44924,   0.26855,   0.50237,  -0.74992,  -0.87406,   0.11474,  -0.65494,  -0.68717
  -0.74937,  -0.51789,   0.82623,   0.82342,  -0.48753,   0.59762,  -0.79778,   0.88663,  -0.01938,  -0.68951
  -0.39092,  -0.68315,   0.92996,  -0.42767,  -0.67179,   0.84185,  -0.41404,  -0.35307,   0.17862,   0.81501
  -0.61241,   0.76833,   0.75720,  -0.80382,  -0.93750,  -0.02688,   0.07277,   0.00208,  -0.67340,  -0.21354
   0.87204,   0.08364,  -0.68418,  -0.31783,   0.08931,  -0.21000,  -0.66759,   0.28227,  -0.54660,   0.62122
   0.41271,   0.47945,  -0.93750,  -0.63164,   0.22339,   0.06383,   0.93750,  -0.53489,  -0.93750,   0.45562
   0.20760,  -0.62302,  -0.05956,   0.08778,   0.39659,  -0.69358,   0.43671,  -0.93750,  -0.75410,   0.30782
   0.61303,   0.38948,   0.69893,  -0.70279,  -0.13335,   0.03376,  -0.38848,   0.88575,   0.12962,   0.40673
   0.93750,  -0.93750,   0.69751,  -0.47030,   0.87688,   0.13633,  -0.20452,   0.22057,  -0.93750,   0.21851
   0.92966,  -0.03863,  -0.38090,   0.93750,   0.93750,   0.17326,  -0.43783,  -0.17860,   0.93750,  -0.56134
   0.11500,   0.27287,   0.00150,   0.02019,   0.48029,  -0.49501,   0.79733,   0.92459,  -0.93750,   0.68474
   0.88412,  -0.93750,   0.04672,  -0.41060,  -0.68642,  -0.75804,  -0.73656,  -0.66889,  -0.29856,   0.93750
  -0.54594,   0.93750,  -0.53689,   0.66138,   0.86420,  -0.61966,   0.21178,   0.93750,   0.61955,  -0.67365
   0.51242,  -0.05900,   0.73424,   0.92109,  -0.15446,  -0.77006,  -0.19915,   0.21226,   0.29161,  -0.06537
   0.79644,   0.55198,  -0.73388,  -0.14882,  -0.09603,  -0.45450,  -0.62601,  -0.55127,   0.84065,   0.86362
  -0.29341,   0.52008,  -0.38098,   0.72575,   0.06116,   0.57220,   0.04364,   0.12856,   0.43941,  -0.64270
   0.81798,  -0.56495,  -0.69205,  -0.43582,   0.02320,   0.22572,   0.36435,  -0.69528,  -0.30546,  -0.52804
   0.69050,   0.08742,  -0.80287,   0.19707,  -0.00618,   0.80673,   0.93750,   0.57566,   0.69771,  -0.88349
   0.38014,  -0.74958,   0.56898,   0.51825,  -0.81458,   0.00793,   0.86881,  -0.11915,  -0.69202,   0.14638
   0.34263,   0.36147,   0.34216,   0.93750,   0.14563,  -0.74509,  -0.58941,   0.81426,  -0.07744,  -0.58337
  -0.00293,   0.81223,  -0.75804,   0.36847,   0.30905,  -0.87743,   0.62792,   0.86770,   0.48882,  -0.87282
  -0.35532,  -0.04665,   0.93750,  -0.06025,   0.39435,  -0.89810,  -0.56479,  -0.87395,  -0.85397,   0.93750
   0.34828,  -0.37812,   0.50886,   0.56740,   0.36515,   0.06900,   0.46677,  -0.09997,   0.24324,   0.13741
  -0.80306,  -0.32286,   0.32538,  -0.88188,  -0.93750,  -0.90261,  -0.93750,   0.04977,  -0.70140,   0.93750
  -0.80399,  -0.75080,   0.92442,   0.15541,  -0.13887,   0.10993,   0.25224,   0.81306,  -0.88353,   0.76521
  -0.92234,  -0.60252,  -0.84488,   0.74217,   0.01894,  -0.34199,   0.79848,   0.16624,   0.93750,  -0.38948
  -0.67568,   0.58005,   0.62507,   0.31186,  -0.70747,   0.56081,  -0.21664,  -0.26221,  -0.14924,  -0.10382
   0.40851,   0.07531,  -0.36137,  -0.03888,   0.18667,  -0.44023,  -0.40310,   0.43299,   0.10249,  -0.71257
   0.81843,  -0.49212,  -0.14348,   0.09525,   0.55898,   0.93521,   0.93750,   0.23746,   0.27928,  -0.50161
   0.86698,  -0.65475,  -0.08987,   0.93321,   0.23954,  -0.51170,   0.61330,  -0.50668,   0.05991,   0.09484
  -0.70990,  -0.41727,  -0.63954,  -0.32284,   0.48245,  -0.53616,  -0.60506,   0.19373,   0.93750,  -0.43834
  -0.47728,  -0.57537,  -0.58918,  -0.46159,   0.44656,   0.53013,   0.53453,   0.48213,   0.93750,   0.73650
  -0.25774,   0.03716,   0.75301,  -0.48521,  -0.80465,   0.86814,  -0.93746,  -0.93750,   0.53396,  -0.38332
   0.60890,  -0.04235,  -0.79348,  -0.48131,   0.27561,  -0.06678,  -0.34159,  -0.51331,   0.87868,   0.63493
  -0.45899,   0.08419,   0.09290,  -0.73907,   0.47781,  -0.46487,   0.73143,  -0.42039,  -0.31575,  -0.41440
   0.88248,   0.51707,  -0.90936,  -0.93750,   0.79122,  -0.46189,   0.34734,   0.48465,   0.51180,  -0.88167
   0.15894,   0.00793,  -0.49375,   0.58697,  -0.93750,   0.16032,  -0.66167,   0.03586,  -0.11614,  -0.93750
  -0.06813,   0.63344,  -0.93750,   0.84147,  -0.57392,   0.69421,  -0.93750,  -0.16330,   0.31909,  -0.93750
  -0.17912,   0.61752,  -0.13289,   0.21335,  -0.51790,  -0.57364,   0.92251,  -0.45892,   0.88174,  -0.05275
  -0.25146,  -0.42789,  -0.40238,   0.81482,  -0.18910,  -0.48863,   0.16737,   0.67289,  -0.11743,  -0.44671
   0.08080,   0.14049,   0.83318,   0.93750,   0.61189,   0.91874,  -0.37345,   0.93750,   0.87306,   0.38287
   0.82433,   0.80941,  -0.69469,   0.60503,   0.37631,   0.39589,  -0.41844,  -0.32884,  -0.81009,  -0.55341
   0.29001,   0.12826,   0.39696,   0.42875,  -0.45051,   0.55070,   0.17011,   0.26227,  -0.29716,   0.67085
  -0.19600,   0.44344,  -0.23838,   0.62200,  -0.80094,  -0.42141,   0.33771,   0.93750,   0.00823,   0.12824
   0.70419,  -0.68913,   0.69400,  -0.46978,  -0.26304,   0.06706,  -0.29879,  -0.53442,   0.86800,  -0.52796
   0.54597,   0.68269,   0.87027,  -0.54886,   0.87581,   0.20160,  -0.06367,  -0.85280,  -0.93750,   0.23932
  -0.26064,   0.62688,   0.77305,  -0.60817,   0.87678,  -0.09862,  -0.38854,  -0.30615,   0.04173,   0.65446
  -0.63560,  -0.41401,  -0.54452,  -0.77933,  -0.07057,   0.02860,  -0.21597,  -0.07866,   0.93750,   0.00920
   0.67736,  -0.35525,  -0.58370,   0.93750,  -0.93750,  -0.05299,   0.93750,  -0.33989,  -0.93750,  -0.80557
   0.86456,  -0.93750,   0.54520,  -0.86538,  -0.77059,   0.60190,   0.80668,  -0.93750,   0.31787,   0.93750
  -0.48308,  -0.17289,  -0.38484,   0.64861,  -0.15505,  -0.15265,   0.82352,   0.87936,  -0.82106,  -0.11067
   0.08189,   0.93750,  -0.68221,   0.55745,  -0.84907,   0.35232,   0.21028,   0.81743,   0.40771,  -0.49619
  -0.71130,  -0.39498,  -0.68622,  -0.27424,   0.09192,   0.57258,  -0.67824,   0.39549,   0.34889,   0.36679
  -0.93750,   0.93750,  -0.93750,   0.93750,   0.93750,   0.86334,  -0.70922,   0.22346,  -0.37344,   0.93750
   0.43700,  -0.48217,  -0.93750,   0.36310,   0.93750,  -0.81626,   0.93750,  -0.28182,   0.48157,  -0.68073
   0.03344,   0.63025,  -0.01491,   0.33982,  -0.34784,   0.22553,   0.06465,  -0.93750,   0.07547,   0.68521
   0.37691,   0.50856,   0.69830,   0.03857,   0.93750,   0.13721,  -0.32346,   0.03259,   0.44137,  -0.07704
   0.34783,   0.59127,   0.19032,  -0.63912,  -0.68857,   0.81623,   0.15123,   0.14360,   0.43537,   0.16266
   0.58434,   0.93750,   0.93750,  -0.81352,   0.30580,   0.61252,  -0.81193,   0.56365,  -0.63506,  -0.50105
   0.56799,   0.86560,  -0.30281,  -0.63562,   0.86602,  -0.55735,  -0.08347,   0.93750,   0.80660,   0.08067
  -0.68799,   0.83267,  -0.29147,  -0.68338,  -0.11787,   0.19690,  -0.33439,  -0.23591,  -0.79756,   0.93713
   0.90923,  -0.25340,  -0.51002,  -0.62223,   0.02717,  -0.26176,   0.92957,  -0.48696,   0.41861,   0.06371
   0.57204,  -0.87923,   0.93750,  -0.25887,   0.82836,   0.71671,  -0.63386,  -0.27194,  -0.93750,  -0.93750
   0.56749,  -0.39456,  -0.75440,   0.20358,   0.56402,   0.37788,   0.15445,  -0.09427,   0.81713,   0.80522
   0.48725,   0.13326,  -0.81946,  -0.13207,  -0.66307,  -0.57044,   0.88037,   0.44365,   0.75013,   0.01279
   0.72071,   0.93750,   0.59277,  -0.08755,  -0.09112,   0.66023,  -0.30846,   0.20755,  -0.42522,  -0.71056
  -0.01455,   0.25970,  -0.46016,  -0.69477,  -0.47232,   0.93750,   0.65259,  -0.27890,  -0.16552,   0.47329
   0.65671,   0.87879,  -0.62587,   0.49034,  -0.40365,  -0.93750,   0.36050,  -0.05156,  -0.41262,   0.37450
  -0.65317,  -0.00040,   0.88084,   0.73953,   0.61661,  -0.53846,  -0.59400,  -0.11855,  -0.75526,  -0.17649
  -0.68359,   0.92025,  -0.13773,   0.08860,   0.03097,   0.54388,   0.19818,   0.58059,   0.79355,  -0.50322
   0.93750,  -0.05591,  -0.89736,  -0.17762,   0.81066,  -0.86935,   0.05576,  -0.86126,  -0.75850,  -0.74690
   0.54388,   0.12716,  -0.36036,   0.69705,   0.17849,  -0.54339,  -0.75657,   0.93479,   0.54607,  -0.20067
  -0.93535,  -0.45929,   0.32301,   0.79663,   0.72609,   0.93750,  -0.46374,   0.40679,   0.36308,  -0.67812
   0.55531,  -0.28190,  -0.61191,   0.74689,  -0.63314,   0.93750,   0.10080,   0.31820,  -0.75510,   0.49161
  -0.70942,   0.08077,  -0.32267,   0.93145,  -0.68483,  -0.16286,   0.92489,   0.08049,   0.93750,   0.47645
  -0.22919,   0.87606,   0.21206,  -0.01513,   0.21452,  -0.26283,   0.70651,   0.44894,   0.31842,  -0.50976
  -0.10054,  -0.10947,   0.32363,   0.87631,   0.07901,  -0.53940,   0.42529,  -0.39967,   0.87448,   0.27544
  -0.48989,   0.20439,   0.71068,   0.09777,   0.93750,  -0.77000,   0.08524,   0.70132,   0.93750,   0.27857
  -0.22731,   0.93750,   0.36467,   0.63396,  -0.25780,  -0.55064,  -0.19015,  -0.02491,   0.93750,  -0.43014
  -0.93645,   0.12227,   0.27496,  -0.68861,   0.93750,  -0.09758,  -0.93750,   0.83024,  -0.47815,   0.80163
  -0.34968,  -0.30192,   0.93750,   0.28791,  -0.22664,  -0.02161,   0.60829,   0.46603,  -0.31318,   0.38634
   0.93750,  -0.93750,   0.93750,   0.93750,   0.87196,   0.77417,   0.62359,  -0.88704,  -0.93750,  -0.26276
   0.00932,  -0.87175,  -0.74500,   0.73405,  -0.43970,  -0.70249,   0.38832,  -0.35144,  -0.83935,  -0.63897
   0.46347,  -0.24256,  -0.07714,  -0.51122,   0.55212,   0.05764,   0.93635,   0.34984,   0.71025,   0.07578
   0.48605,   0.15855,  -0.49786,  -0.56613,  -0.09961,   0.82218,   0.61175,  -0.38507,   0.87762,   0.87526
  -0.75095,  -0.39216,   0.65503,   0.93750,  -0.93750,  -0.89425,   0.15636,   0.93750,   0.30671,   0.93750
  -0.74691,  -0.41569,  -0.19653,  -0.43565,  -0.46340,   0.93750,  -0.56071,  -0.40158,   0.35101,  -0.84173
  -0.93750,  -0.88335,  -0.29216,   0.57841,  -0.72861,  -0.42442,   0.69345,  -0.57158,   0.93750,   0.93750
   0.67910,   0.37771,   0.33444,  -0.31896,  -0.69947,  -0.06840,   0.73014,   0.14371,   0.68745,  -0.57089
  -0.71783,  -0.30027,   0.82188,  -0.26837,   0.09412,   0.93750,  -0.31158,   0.41706,   0.77791,  -0.01961
  -0.88188,  -0.45536,  -0.87140,  -0.14305,   0.59722,  -0.57826,   0.34098,   0.69690,   0.93750,   0.76927
   0.48161,   0.40630,  -0.13054,   0.69459,  -0.26927,  -0.59500,  -0.15385,   0.37106,  -0.03836,  -0.28150
   0.30377,   0.10421,  -0.43839,  -0.71276,  -0.93750,   0.93750,  -0.56809,   0.28808,  -0.36952,   0.93750
   0.87260,   0.59484,  -0.14554,  -0.02476,  -0.12839,   0.30076,  -0.05037,   0.01059,  -0.58072,  -0.52879
   0.39144,   0.08847,  -0.48280,  -0.93750,   0.32270,   0.93750,   0.13727,   0.10561,   0.15683,  -0.26680
   0.82042,   0.81735,   0.51394,   0.93750,  -0.33758,  -0.67747,  -0.17344,  -0.35721,  -0.18359,  -0.63190
  -0.16685,  -0.25095,   0.42034,   0.86748,   0.10770,  -0.41878,  -0.58668,  -0.45795,  -0.82343,   0.12393
   0.53149,   0.44937,   0.23676,  -0.67654,  -0.75623,  -0.08673,  -0.75127,   0.58900,   0.49974,   0.93750
  -0.79017,   0.30979,  -0.19081,   0.15541,   0.92020,  -0.19193,   0.44522,   0.15568,  -0.25761,  -0.57692
   0.19526,   0.09742,   0.35595,   0.57362,   0.87201,   0.34078,   0.24799,   0.05397,   0.39095,   0.18443
  -0.43704,   0.03908,   0.21586,  -0.23466,  -0.87865,   0.93750,   0.53242,   0.75193,   0.80872,   0.90356
  -0.67512,   0.28766,   0.75145,   0.03313,   0.18642,  -0.11400,   0.69472,  -0.22178,   0.93750,  -0.61457
  -0.49491,  -0.37358,  -0.20127,   0.24844,   0.86107,   0.37237,  -0.75712,  -0.89765,  -0.25036,  -0.06361
  -0.26904,   0.70790,  -0.30142,   0.82564,  -0.44552,   0.38386,  -0.87017,  -0.60678,  -0.06812,  -0.49097
  -0.93750,   0.59984,   0.88836,  -0.56401,   0.36587,  -0.93750,   0.49636,  -0.80566,  -0.33807,  -0.84904
   0.75986,   0.93549,   0.43789,  -0.35966,   0.16905,  -0.32551,  -0.02523,   0.23680,  -0.60078,  -0.58579
   0.36879,   0.87524,   0.56417,  -0.62097,   0.93750,  -0.93750,   0.46410,   0.93750,  -0.48936,  -0.80669
  -0.02339,  -0.26490,   0.93750,  -0.62771,  -0.46493,  -0.74092,  -0.01376,  -0.65555,   0.68622,  -0.46521
   0.49862,   0.39107,   0.57095,   0.59163,   0.75028,   0.25756,   0.36721,   0.41767,  -0.61977,   0.67095
   0.11506,   0.13118,   0.07574,   0.38337,   0.42906,  -0.93380,  -0.00263,   0.57809,   0.93750,   0.18992
  -0.86448,  -0.53538,  -0.72946,   0.67140,  -0.93750,   0.93750,   0.93750,   0.54026,  -0.79742,   0.93750
   0.87879,   0.93429,  -0.23416,  -0.60388,  -0.79794,  -0.30449,  -0.58148,  -0.64445,  -0.24272,   0.51524
   0.93750,   0.78863,  -0.80662,  -0.93750,   0.41654,   0.13876,   0.93750,   0.93750,  -0.93750,   0.93750
   0.40003,  -0.10833,   0.63452,   0.74564,  -0.10784,  -0.93750,  -0.55783,   0.59301,  -0.63384,   0.81551
   0.93750,  -0.93750,   0.88746,   0.93750,   0.14716,   0.34437,  -0.52091,   0.19812,  -0.11371,   0.07531
  -0.47585,  -0.75063,   0.66854,   0.03025,   0.42848,   0.12949,  -0.63178,  -0.86989,  -0.36433,   0.93750
  -0.08610,  -0.53839,  -0.78396,  -0.93750,  -0.14415,  -0.84106,   0.93132,   0.42181,  -0.35625,   0.21614
   0.10656,   0.93750,  -0.62283,   0.17744,  -0.60638,   0.19313,   0.92059,  -0.19884,  -0.60231,  -0.87329
   0.87297,   0.68714,  -0.89894,  -0.86386,  -0.69370,  -0.22269,   0.17925,  -0.37957,  -0.18724,   0.15030
   0.63433,  -0.93435,  -0.09589,   0.08795,  -0.33495,   0.86639,  -0.38244,  -0.93750,   0.74107,   0.76384
   0.93750,   0.93750,   0.47012,  -0.93750,  -0.18413,  -0.93750,  -0.61191,   0.69477,   0.93750,  -0.88753
   0.86955,  -0.14746,   0.06089,   0.93750,   0.93750,  -0.87755,   0.93750,   0.93750,   0.18689,   0.73380
  -0.86081,  -0.81797,   0.63553,  -0.93750,  -0.01681,   0.88115,  -0.83561,   0.93750,  -0.07081,  -0.88122
  -0.15671,   0.34217,  -0.73296,  -0.87946,  -0.03031,   0.76202,   0.50642,  -0.02045,  -0.91531,   0.34681
  -0.11140,   0.35849,  -0.81314,   0.23200,   0.82664,  -0.74663,  -0.37870,  -0.87462,  -0.24409,  -0.64342
   0.69331,   0.37580,   0.78995,  -0.49331,  -0.13304,  -0.24603,   0.41370,  -0.42581,  -0.33617,  -0.01097
   0.48537,  -0.93750,   0.51277,   0.93750,   0.41195,  -0.93750,   0.93750,  -0.93750,  -0.93750,   0.83603
  -0.85853,   0.93750,  -0.70469,  -0.50869,  -0.42402,   0.91666,   0.14882,   0.86971,  -0.45190,  -0.57724
  -0.11046,  -0.88357,  -0.85506,  -0.87895,  -0.93750,  -0.70514,   0.51293,  -0.01758,   0.11071,   0.93750
   0.16190,  -0.35235,  -0.33404,  -0.63666,  -0.58978,   0.56795,   0.93750,  -0.46815,  -0.35813,   0.20641
   0.25437,  -0.02157,  -0.65430,  -0.02099,  -0.24041,   0.93750,  -0.06744,   0.82008,   0.17637,  -0.30007
  -0.44095,  -0.27803,  -0.28724,   0.86928,   0.90709,   0.38146,  -0.23957,   0.05012,   0.09132,   0.60823
  -0.00587,  -0.11811,  -0.54095,   0.63745,  -0.01402,   0.35980,   0.52292,  -0.58654,   0.17763,   0.82470
   0.90677,   0.70848,   0.54659,  -0.13507,  -0.24661,   0.38752,   0.93750,  -0.88215,   0.05992,  -0.66893
   0.10943,   0.05883,   0.53957,   0.53760,   0.62522,   0.28835,   0.40882,   0.20332,   0.10909,   0.20758
   0.53495,   0.68593,   0.67241,  -0.04579,   0.75744,   0.86809,   0.70563,  -0.66458,  -0.14704,  -0.73542
  -0.44352,  -0.13616,  -0.81823,   0.34407,   0.93750,   0.10768,  -0.27083,   0.36431,  -0.54134,  -0.56991
   0.80357,  -0.80882,   0.29789,  -0.36028,   0.75657,   0.28722,  -0.57415,   0.77573,  -0.25503,  -0.35778
  -0.30806,   0.22898,   0.32074,  -0.12925,  -0.42223,   0.51623,   0.29658,   0.93477,   0.46721,   0.86385
   0.93750,   0.08197,  -0.19576,  -0.93750,   0.35223,   0.93750,   0.93516,  -0.55633,   0.93750,   0.51949
  -0.37142,   0.27997,   0.82070,   0.72371,   0.27159,   0.30761,   0.08064,   0.23224,  -0.46575,  -0.43027
   0.58758,   0.48946,  -0.80700,  -0.43327,  -0.55416,   0.32800,  -0.01041,   0.31963,  -0.66750,   0.61638
  -0.78712,  -0.48106,   0.93139,  -0.76054,  -0.69233,  -0.05802,   0.43666,  -0.84831,  -0.13113,   0.20230
   0.93750,   0.86659,  -0.93750,  -0.71109,   0.67968,  -0.11104,   0.42326,   0.22137,   0.68240,  -0.64760
  -0.74899,   0.09325,  -0.08970,   0.02257,   0.07007,   0.45527,  -0.05784,  -0.11060,   0.88872,   0.70179
   0.48308,  -0.32379,  -0.04017,   0.81004,   0.71959,  -0.27228,  -0.40654,   0.77024,  -0.18158,  -0.70479
   0.52634,  -0.09954,   0.43106,  -0.32307,   0.88222,   0.14701,  -0.80372,  -0.38047,  -0.51257,  -0.50622
   0.27713,  -0.44250,   0.59857,   0.61999,  -0.68654,   0.25214,   0.28639,   0.21966,   0.17787,  -0.07055
   0.43802,   0.87426,  -0.48218,   0.93342,   0.23458,  -0.44849,  -0.32555,   0.59916,  -0.42624,  -0.79902
   0.52553,   0.93750,  -0.92811,   0.34527,   0.93750,  -0.29282,   0.48269,  -0.24648,   0.79398,  -0.88220
   0.93451,   0.31825,  -0.55361,  -0.75858,   0.37345,   0.10375,  -0.06982,  -0.49731,  -0.17445,   0.84603
   0.56586,  -0.87099,   0.79767,  -0.55299,   0.26147,   0.72632,  -0.34710,  -0.81706,  -0.87648,   0.61482
   0.75847,  -0.68105,  -0.55416,  -0.45760,   0.27442,  -0.79571,   0.93750,  -0.81803,   0.93750,   0.88129
   0.74985,  -0.15145,  -0.22872,  -0.12079,   0.87362,  -0.44598,   0.22580,  -0.90286,  -0.56850,   0.08247
  -0.09632,  -0.03346,  -0.33625,   0.77838,   0.83234,   0.03440,  -0.38711,   0.00942,   0.28250,  -0.13090
   0.05705,  -0.16373,  -0.65213,   0.12644,   0.85039,   0.72979,   0.93750,  -0.58827,  -0.44779,  -0.50082
  -0.04302,   0.25122,  -0.60996,   0.51505,  -0.65162,  -0.34012,  -0.07987,   0.93673,  -0.31477,   0.32390
   0.63448,   0.17996,  -0.02859,   0.42796,   0.42455,  -0.50572,  -0.85936,  -0.09698,  -0.75253,  -0.13336
   0.61496,  -0.75857,  -0.93750,   0.93750,   0.93750,   0.93750,  -0.41228,   0.93750,   0.68730,   0.55940
  -0.53938,   0.80428,  -0.58056,   0.33211,  -0.19241,   0.20923,  -0.48999,  -0.13709,  -0.20671,  -0.05239
   0.16415,   0.49498,   0.90284,  -0.65269,  -0.46510,  -0.61646,  -0.93750,   0.93313,  -0.68966,   0.32063
  -0.93750,   0.03239,  -0.93750,  -0.93750,   0.93750,   0.01409,   0.93750,   0.93750,  -0.83292,  -0.46965
   0.68847,  -0.93750,   0.87651,  -0.66952,  -0.93750,   0.93750,   0.00445,  -0.93750,  -0.53566,  -0.66187
   0.24493,  -0.57460,  -0.19270,  -0.63143,  -0.27870,   0.03570,   0.87500,   0.29021,   0.38211,  -0.46937
  -0.65366,  -0.30593,  -0.71310,  -0.37079,  -0.81449,  -0.49531,   0.05401,   0.93150,   0.01569,  -0.81962
  -0.93750,  -0.86521,  -0.80761,   0.55845,   0.93750,  -0.87914,  -0.82200,  -0.88593,  -0.55785,   0.93750
  -0.57947,  -0.34612,  -0.18729,  -0.13899,   0.64319,   0.30898,   0.61759,  -0.06205,   0.93750,  -0.73644
   0.23321,  -0.57591,  -0.62550,  -0.05500,  -0.43218,  -0.49498,  -0.53389,   0.86370,  -0.46080,   0.93750
  -0.30563,   0.62594,   0.72488,   0.41970,  -0.56699,  -0.42947,  -0.65657,   0.53270,  -0.75070,  -0.50203
   0.78182,  -0.34862,  -0.74412,   0.65074,  -0.86374,  -0.86319,   0.93750,  -0.62004,   0.31692,   0.75239
  -0.93750,  -0.85420,  -0.93750,   0.93750,   0.93750,   0.88463,   0.93750,   0.24663,   0.93750,  -0.93750
  -0.76465,   0.03662,   0.81552,   0.86841,  -0.05327,   0.88420,  -0.52085,   0.80814,  -0.75257,   0.01656
  -0.26219,  -0.76502,   0.35408,  -0.14383,   0.86612,   0.50676,   0.32296,   0.86467,  -0.73605,  -0.34983
   0.31128,  -0.20309,   0.93750,   0.48450,  -0.86449,   0.79388,   0.06977,  -0.93750,   0.33081,   0.29853
   0.55261,   0.83687,  -0.59207,   0.48277,   0.32946,  -0.32112,   0.87682,   0.58159,   0.88308,   0.46586
  -0.86476,   0.93750,   0.71279,  -0.93750,  -0.75966,   0.70308,  -0.93750,   0.93750,  -0.68059,   0.73054
  -0.62276,   0.93363,   0.22971,   0.67982,   0.79534,   0.05951,  -0.45583,   0.52061,  -0.18112,  -0.58113
  -0.68092,  -0.23800,  -0.91486,   0.69539,  -0.08725,  -0.64886,   0.49474,  -0.45008,   0.03620,   0.93750
  -0.50564,   0.14638,  -0.50907,   0.56404,  -0.25421,   0.49707,   0.78080,  -0.10777,   0.35157,   0.66447
   0.87161,  -0.00735,  -0.74125,   0.11339,  -0.29668,   0.16323,   0.41953,   0.86048,  -0.42271,  -0.24811
   0.16670,   0.78863,  -0.29521,   0.74128,  -0.11334,   0.63186,   0.75921,   0.31593,  -0.56829,   0.16011
  -0.73872,   0.87168,   0.22552,   0.86525,   0.81014,   0.93750,   0.93750,  -0.35053,   0.86710,   0.69491
   0.61237,  -0.46231,  -0.87446,  -0.93750,   0.45281,  -0.93750,   0.23146,  -0.37327,   0.62548,   0.93750
   0.93209,   0.10750,   0.60751,  -0.82337,   0.76430,  -0.75820,   0.09977,  -0.34534,  -0.92017,  -0.63924
  -0.71940,  -0.34457,   0.39491,   0.10596,  -0.70549,  -0.64836,   0.55868,  -0.03034,  -0.35470,   0.77430
  -0.93750,  -0.93750,  -0.93750,  -0.93750,  -0.14782,   0.18068,   0.66932,   0.08357,   0.38702,  -0.82860
  -0.26800,   0.30705,  -0.74671,  -0.77510,   0.45273,   0.87993,   0.75060,  -0.54473,  -0.93750,  -0.74654
   0.80236,  -0.59435,   0.80401,  -0.51850,   0.19120,  -0.05104,  -0.40915,  -0.43468,   0.55635,  -0.43896
   0.25802,   0.80970,   0.93750,  -0.66587,  -0.58968,  -0.68176,  -0.17072,   0.15513,   0.93750,  -0.53483
  -0.56270,   0.07913,  -0.81296,   0.47875,   0.63715,  -0.93750,   0.49518,  -0.93750,   0.77680,   0.60750
   0.93750,  -0.47802,   0.88459,  -0.18574,  -0.24857,   0.17693,  -0.08630,  -0.37025,  -0.51477,  -0.13602
  -0.55560,   0.19793,   0.53194,  -0.40980,  -0.90468,  -0.35271,   0.87689,  -0.72513,  -0.21854,  -0.11302
   0.15633,   0.47159,   0.81847,   0.42907,  -0.74131,   0.27578,   0.93750,  -0.69204,  -0.81894,  -0.85591
  -0.01783,   0.93750,   0.93750,   0.93750,   0.93750,  -0.87592,   0.88457,   0.93750,   0.86256,  -0.93750
  -0.71289,  -0.62390,  -0.93750,   0.78359,   0.93750,   0.93750,   0.23061,  -0.35160,  -0.38143,   0.01575
  -0.04384,   0.62933,   0.53398,  -0.68884,   0.25256,  -0.93750,  -0.10929,   0.87719,  -0.85004,   0.93750
   0.77178,  -0.89336,   0.62963,  -0.80821,   0.74165,  -0.11019,   0.93750,   0.93750,   0.59351,  -0.51041
   0.68169,   0.33222,  -0.32747,  -0.25624,  -0.23023,  -0.14405,   0.87500,  -0.37798,   0.59446,   0.79472
  -0.64860,   0.24223,  -0.52676,  -0.43070,  -0.89185,  -0.79486,   0.92489,   0.07134,  -0.40400,   0.22526
   0.35982,   0.83596,   0.63914,  -0.42448,  -0.05608,   0.39264,   0.26371,   0.41478,   0.56072,   0.48462
  -0.81492,  -0.88139,  -0.60003,  -0.19050,   0.63401,  -0.39984,   0.91966,  -0.63861,  -0.72350,   0.93750
  -0.87793,  -0.57314,   0.03382,  -0.56028,  -0.93750,   0.62298,  -0.06907,   0.68153,  -0.56349,  -0.10082
   0.74297,   0.61191,   0.49429,   0.17826,  -0.68119,   0.05651,   0.52687,   0.20284,  -0.82144,   0.28288
  -0.52368,   0.92459,   0.93750,  -0.10381,  -0.26561,  -0.28013,  -0.57697,  -0.62479,  -0.42536,  -0.77327
  -0.25367,   0.15480,  -0.34812,  -0.71060,   0.75939,   0.68417,   0.47441,  -0.70930,   0.04099,   0.20394
   0.71067,  -0.63748,   0.62927,   0.87833,   0.04812,   0.93243,   0.48254,  -0.21238,  -0.86667,   0.43692
  -0.87957,  -0.39487,   0.46059,  -0.51266,  -0.38320,   0.67447,  -0.72631,   0.93750,   0.63580,   0.51168
   0.18559,  -0.50738,   0.36260,  -0.67430,   0.87471,  -0.74708,   0.86660,  -0.68929,   0.93667,   0.61457
  -0.64356,  -0.87560,  -0.38656,  -0.93750,  -0.93750,  -0.93750,  -0.93750,  -0.93750,   0.12297,  -0.93750
   0.24505,   0.46502,   0.00443,  -0.57572,  -0.93750,  -0.76521,  -0.75575,   0.93750,   0.79530,  -0.07577
  -0.25302,   0.86941,   0.76796,  -0.25712,  -0.84911,   0.50609,  -0.17733,  -0.32948,  -0.46754,  -0.46063
   0.81707,  -0.85642,  -0.67870,   0.74744,  -0.27419,   0.05533,   0.73138,  -0.32826,  -0.57430,   0.69046
  -0.29217,  -0.61390,   0.28877,   0.21926,  -0.08229,  -0.39351,   0.91567,   0.66512,   0.13186,   0.02199
  -0.38142,  -0.54462,  -0.11844,   0.93750,  -0.54905,  -0.55541,  -0.43886,   0.61360,  -0.63140,  -0.70757
   0.93750,  -0.13369,   0.82541,  -0.86740,  -0.63936,   0.32889,   0.93750,   0.93750,   0.93750,   0.11769
  -0.75582,   0.23512,  -0.45951,  -0.00865,   0.93750,  -0.88166,  -0.22007,  -0.86442,  -0.06578,   0.93750
   0.06418,  -0.08163,  -0.91201,   0.61944,  -0.72405,   0.74208,  -0.64442,   0.63514,  -0.51895,   0.11368
  -0.43812,   0.87519,   0.12529,  -0.46098,   0.93750,   0.87403,  -0.88367,   0.93750,   0.77571,  -0.57209
  -0.07206,   0.11059,   0.38933,   0.30671,  -0.25024,  -0.10486,  -0.38487,   0.31287,  -0.07571,   0.35503
  -0.85610,  -0.39974,   0.66945,  -0.19362,  -0.22194,   0.93750,  -0.87754,   0.19626,   0.39239,  -0.16951
  -0.42837,  -0.25969,  -0.51925,  -0.19065,  -0.30004,   0.43402,   0.60178,   0.43532,  -0.66475,  -0.86354
   0.93750,  -0.13096,   0.09723,  -0.18151,  -0.29231,   0.19112,   0.77603,   0.26693,  -0.76403,  -0.59153
  -0.54421,   0.73707,   0.69197,   0.67279,   0.75856,  -0.44242,  -0.45258,   0.26477,   0.46106,  -0.05008
  -0.54187,  -0.73484,  -0.70391,   0.50413,   0.61701,   0.93750,  -0.92478,   0.58296,   0.93750,   0.63438
  -0.51505,   0.93750,  -0.63807,   0.83275,   0.87579,  -0.21520,  -0.28696,  -0.80053,  -0.19300,   0.50786
   0.81664,   0.00957,  -0.38982,  -0.01081,   0.13641,   0.13275,  -0.38202,   0.93714,  -0.71538,  -0.37855
  -0.17131,  -0.93750,   0.81449,   0.10099,   0.93750,   0.81289,   0.93750,   0.67745,  -0.68872,   0.60354
   0.50622,   0.93750,  -0.80659,  -0.05281,  -0.63838,  -0.93750,  -0.86832,  -0.93750,  -0.72825,  -0.56931
  -0.55851,  -0.03385,   0.90977,  -0.93581,  -0.40787,  -0.67294,  -0.66852,  -0.79490,  -0.80481,  -0.10100
   0.82884,   0.09786,   0.93750,  -0.80743,  -0.62567,   0.24520,  -0.68492,  -0.25964,  -0.88115,   0.40083
   0.87193,   0.44442,  -0.57350,  -0.20825,  -0.31355,   0.39541,  -0.22861,  -0.66215,  -0.52499,  -0.70405
  -0.87324,   0.76355,   0.53406,   0.55684,   0.27759,  -0.05192,  -0.69690,   0.79713,   0.93750,   0.07525
  -0.88307,   0.93750,  -0.72501,  -0.39694,   0.93750,  -0.89462,   0.93750,   0.93750,  -0.93750,  -0.88023
  -0.82185,   0.56584,   0.34620,   0.87622,   0.16988,   0.70554,  -0.87353,  -0.23817,  -0.93750,   0.84419
  -0.16708,  -0.23979,  -0.28285,   0.69084,  -0.49387,   0.84013,   0.80787,  -0.71358,  -0.40801,  -0.30881
  -0.12094,  -0.26377,  -0.10553,   0.80269,   0.83867,   0.27866,  -0.24515,   0.08053,   0.35744,   0.92049
   0.21833,  -0.12708,  -0.69131,  -0.91958,   0.59358,   0.93750,   0.12222,  -0.47013,  -0.17017,  -0.61548
   0.93750,  -0.57431,  -0.04909,  -0.48231,  -0.60902,  -0.30541,   0.17028,  -0.13653,  -0.81321,   0.74656
  -0.79800,  -0.23947,   0.35888,  -0.79741,   0.32102,  -0.81530,  -0.59489,   0.80282,  -0.84592,  -0.87023
   0.80533,  -0.60818,  -0.59427,   0.63861,  -0.58841,  -0.05506,  -0.33473,  -0.03472,   0.23807,   0.26006
  -0.07059,   0.80405,  -0.84837,  -0.78842,   0.65964,  -0.53079,   0.05359,   0.93504,  -0.00813,  -0.03240
   0.12973,   0.93199,   0.87659,  -0.32087,  -0.38547,   0.47397,  -0.32731,  -0.27152,  -0.17582,   0.43108
  -0.33958,  -0.36944,  -0.43908,  -0.31771,   0.93750,  -0.65435,  -0.78248,  -0.16381,   0.65116,   0.74297
  -0.60430,  -0.93332,  -0.46175,  -0.09152,   0.20090,   0.93750,   0.86796,   0.10602,   0.57500,  -0.87516
  -0.49163,  -0.17381,  -0.75824,   0.68546,   0.93750,  -0.87440,  -0.83252,  -0.86974,  -0.86368,   0.93750
   0.73942,  -0.52987,   0.93750,  -0.42314,  -0.93750,   0.80102,   0.37303,   0.42499,   0.93750,  -0.09262
  -0.51606,  -0.61692,   0.46551,  -0.12360,  -0.93750,  -0.68406,   0.55767,   0.93750,   0.93750,   0.63928
  -0.81726,   0.93750,   0.64235,   0.04964,   0.93750,   0.66949,  -0.09578,  -0.10219,   0.09271,  -0.80398
   0.56371,  -0.17475,   0.80518,  -0.49555,  -0.06754,  -0.63382,   0.40942,   0.16996,   0.56367,  -0.41736
  -0.81050,   0.24214,  -0.55934,   0.78098,  -0.80734,  -0.34242,  -0.39245,   0.09851,  -0.59788,   0.69583
  -0.73006,   0.02683,   0.89071,  -0.29715,  -0.29581,  -0.35978,   0.33587,   0.93750,  -0.15041,  -0.60874
  -0.32635,   0.92565,  -0.93750,   0.91870,  -0.72260,   0.93750,   0.23870,  -0.06801,   0.93750,  -0.93750
   0.07053,  -0.41312,   0.81011,   0.41631,  -0.87548,  -0.42449,   0.54433,  -0.22913,  -0.51868,   0.02020
  -0.60661,   0.19343,   0.93750,   0.26784,  -0.93750,   0.27203,  -0.28068,   0.76265,   0.51014,   0.29060
  -0.04152,   0.47717,  -0.85776,  -0.14544,   0.75075,   0.63025,  -0.78683,   0.93750,  -0.26892,  -0.65206
  -0.11896,   0.87282,  -0.70872,  -0.80686,  -0.42034,   0.80671,   0.05491,  -0.22395,  -0.19919,   0.93750
  -0.67189,   0.86298,  -0.10865,   0.65189,  -0.26844,   0.71954,   0.32826,  -0.13461,   0.93543,  -0.27805
   0.75831,  -0.22184,  -0.43304,   0.15616,   0.93750,  -0.39980,   0.19602,   0.10864,  -0.04416,   0.25993
   0.83358,   0.43835,  -0.78851,   0.63441,   0.93750,  -0.34770,  -0.02897,   0.31679,  -0.93750,   0.93750
  -0.19971,  -0.93750,  -0.58275,  -0.37937,   0.32329,   0.54517,   0.81841,  -0.34132,  -0.71166,   0.36901
   0.93750,  -0.42144,  -0.86422,   0.70239,   0.83636,   0.93750,  -0.93750,   0.93750,  -0.10606,  -0.93750
   0.05831,   0.76021,   0.22440,   0.69764,  -0.38791,   0.37792,  -0.88346,   0.93499,  -0.38539,   0.49374
   0.19379,  -0.34357,   0.21091,   0.57658,   0.73588,  -0.24941,  -0.49566,   0.58972,   0.11166,  -0.13947
  -0.07101,   0.10662,  -0.66237,   0.93750,  -0.04158,  -0.55851,   0.90189,  -0.35191,  -0.55705,  -0.25398
   0.25778,   0.02090,   0.61610,   0.49598,   0.05063,  -0.05739,  -0.56030,   0.09565,   0.20605,   0.35765
   0.50452,   0.28372,   0.40977,  -0.78836,  -0.75936,  -0.63409,   0.86849,  -0.55698,   0.33778,  -0.38350
   0.18280,   0.88064,   0.93750,   0.81342,  -0.36495,  -0.30484,  -0.46333,  -0.25982,  -0.10034,   0.56145
   0.82275,   0.21000,   0.87912,  -0.86199,   0.74723,  -0.67826,  -0.37126,  -0.80618,  -0.81771,   0.75890
  -0.52471,   0.43204,  -0.87097,  -0.45014,   0.93750,  -0.68653,   0.93750,   0.18991,  -0.70334,  -0.61446
   0.31122,   0.39220,  -0.72054,   0.25563,   0.33801,  -0.79644,   0.50140,   0.14674,   0.65503,  -0.66427
  -0.85542,  -0.59594,  -0.09643,   0.21263,  -0.26836,  -0.52999,  -0.00818,   0.60520,   0.93262,  -0.45838
   0.53955,   0.83077,  -0.35864,  -0.58805,  -0.51229,  -0.92351,  -0.21094,   0.93750,  -0.30362,   0.28695
  -0.00621,  -0.05700,   0.93016,   0.09991,  -0.36814,  -0.39009,   0.19608,  -0.00483,  -0.79799,  -0.08785
  -0.23024,   0.02881,   0.87058,  -0.15387,   0.12284,  -0.43590,  -0.09558,  -0.20428,   0.13506,  -0.08594
  -0.18797,   0.87685,  -0.64706,  -0.40635,  -0.60588,   0.26123,   0.77171,   0.67969,   0.60729,   0.33078
  -0.04305,  -0.03716,  -0.70258,   0.73012,   0.61170,   0.54287,  -0.37016,   0.61844,   0.36078,  -0.20997
  -0.04258,   0.75544,  -0.87540,   0.88026,  -0.69212,   0.32710,   0.12543,  -0.16070,  -0.43036,  -0.53698
   0.35392,  -0.38576,   0.93750,   0.09889,  -0.62351,   0.40717,   0.93750,  -0.05713,  -0.88172,   0.43781
  -0.76166,  -0.84084,   0.82963,  -0.06323,   0.51317,  -0.05366,   0.81495,   0.75317,  -0.91453,  -0.63307
   0.32544,  -0.61189,   0.58275,  -0.18068,  -0.47794,  -0.54254,   0.92750,   0.65721,  -0.10113,   0.93750
  -0.04830,  -0.60875,  -0.44069,  -0.30365,  -0.42330,   0.28747,   0.87479,   0.15269,  -0.19844,   0.23529
   0.66905,   0.09515,   0.93247,   0.56648,   0.75230,  -0.00675,   0.57488,  -0.53942,  -0.63168,  -0.36791
   0.82569,  -0.73680,  -0.54217,   0.38439,  -0.75635,  -0.29905,  -0.85937,  -0.82007,  -0.56357,   0.08249
   0.93750,   0.63209,   0.07333,  -0.35969,   0.61268,  -0.26762,   0.43752,   0.93750,  -0.41673,  -0.64446
  -0.64733,  -0.93750,   0.43627,  -0.33745,   0.08155,   0.93750,   0.93750,  -0.93750,  -0.78281,   0.90150
   0.64197,  -0.25580,   0.65633,  -0.28708,  -0.31539,  -0.25869,  -0.35779,  -0.07748,   0.56727,   0.52313
   0.55654,   0.70366,  -0.82645,  -0.53093,   0.58011,   0.44951,   0.41104,  -0.80855,   0.01637,  -0.42877
  -0.53984,   0.79377,  -0.32922,  -0.72268,   0.05722,  -0.58948,  -0.20971,  -0.34996,  -0.71347,   0.87623
  -0.13930,   0.50969,  -0.28689,  -0.68425,  -0.52276,   0.93750,   0.39733,   0.55367,   0.87547,   0.81975
  -0.57191,   0.06033,   0.24528,   0.49619,  -0.93750,   0.73798,  -0.63484,  -0.93750,   0.59742,  -0.87617
  -0.24736,   0.20147,   0.21770,  -0.08547,  -0.06159,  -0.38850,  -0.48847,   0.86829,  -0.67310,   0.61601
  -0.18566,   0.10509,  -0.57414,   0.65498,   0.17043,  -0.87777,   0.77824,  -0.63916,  -0.87741,  -0.37468
   0.76417,   0.32135,   0.05241,   0.69739,   0.53637,   0.04450,  -0.07296,  -0.93750,  -0.79551,   0.36094
   0.78981,  -0.33344,  -0.93750,  -0.62843,   0.12977,  -0.32615,  -0.22127,   0.43067,  -0.93750,  -0.75800
  -0.88633,   0.04194,   0.93750,  -0.25111,  -0.63880,  -0.39848,  -0.32349,   0.36696,  -0.77033,   0.59749
   0.71931,   0.58675,   0.22914,   0.93750,  -0.45809,  -0.90916,   0.66697,  -0.53961,  -0.20130,   0.87244
  -0.66553,  -0.88878,   0.28767,   0.09082,  -0.03921,  -0.31086,  -0.75374,  -0.63504,  -0.55088,   0.82017
  -0.87688,  -0.79647,  -0.30107,  -0.76087,  -0.58388,   0.57571,  -0.21325,  -0.87199,   0.67917,  -0.87798
  -0.58649,   0.87042,  -0.80475,   0.80426,  -0.79004,   0.70366,  -0.31056,  -0.62542,   0.29037,   0.62728
  -0.55777,   0.62254,  -0.50141,  -0.83615,   0.47370,  -0.69379,   0.87248,  -0.51672,   0.05448,   0.23712
  -0.93750,   0.21849,   0.93750,   0.47236,  -0.93750,  -0.39666,  -0.93750,   0.08851,   0.74908,  -0.87230
   0.44705,  -0.04660,   0.36298,  -0.33146,  -0.29838,  -0.79574,  -0.14025,   0.93750,   0.40246,   0.78545
   0.93750,  -0.00056,   0.93743,  -0.47865,  -0.10186,  -0.52282,  -0.62945,   0.53909,   0.24275,   0.18605
   0.15106,  -0.93750,  -0.48996,  -0.24759,  -0.87266,  -0.18664,   0.65162,   0.93750,  -0.02366,  -0.87171
  -0.17698,  -0.69293,  -0.09965,   0.08507,  -0.18083,   0.25883,   0.71616,   0.56793,  -0.71024,   0.93670
  -0.22683,   0.75158,  -0.82136,   0.49875,   0.21585,   0.52473,  -0.45032,   0.75245,   0.87425,   0.64093
   0.46106,  -0.16524,  -0.09426,  -0.53683,   0.86207,   0.51851,  -0.17161,  -0.34654,  -0.87616,   0.37465
   0.07639,   0.92801,   0.08043,  -0.50598,  -0.55723,  -0.56701,  -0.49441,   0.14413,  -0.61222,   0.29452
  -0.62979,  -0.34728,  -0.81758,   0.61875,  -0.55123,  -0.11819,   0.87237,   0.15173,   0.11918,   0.68355
  -0.66336,  -0.93750,   0.82198,  -0.80627,   0.82065,   0.38415,   0.93750,  -0.86670,   0.86678,  -0.55610
  -0.79497,   0.75374,  -0.93750,  -0.78508,   0.07987,   0.17460,  -0.53029,   0.32446,  -0.50290,  -0.87763
   0.81756,  -0.56704,  -0.37761,   0.81475,   0.49451,  -0.67462,  -0.16866,  -0.23563,  -0.93458,   0.51436
   0.86959,  -0.17290,  -0.68329,   0.23298,  -0.61690,  -0.26127,   0.53187,  -0.10040,  -0.73360,  -0.27372
   0.39483,   0.91704,  -0.69610,  -0.93750,  -0.26494,  -0.93750,   0.76510,  -0.12809,   0.63705,   0.34936
  -0.45611,   0.39915,  -0.51345,  -0.90033,  -0.10418,  -0.86660,   0.88429,   0.63845,   0.64435,   0.93750
   0.62224,   0.01537,  -0.13456,   0.93750,  -0.45076,  -0.49099,  -0.12906,  -0.19448,   0.10455,  -0.50206
   0.93750,  -0.74151,  -0.50658,  -0.78308,   0.16134,  -0.87982,   0.64274,  -0.93750,   0.48258,   0.19425
   0.15373,  -0.43392,  -0.54684,  -0.11097,  -0.53295,  -0.02234,   0.93510,  -0.68495,  -0.48103,  -0.04462
   0.63657,   0.08595,   0.93750,  -0.07209,   0.51959,  -0.79330,  -0.36706,   0.26608,  -0.00307,   0.73529
  -0.19906,  -0.59067,   0.93750,   0.23575,   0.93750,  -0.81491,   0.93750,   0.31770,  -0.06008,   0.93750
  -0.83573,  -0.07361,   0.77990,  -0.83068,  -0.09112,  -0.70540,   0.36791,  -0.57328,  -0.87449,   0.77997
  -0.93750,  -0.65719,  -0.78580,  -0.93750,   0.13382,  -0.85632,  -0.26897,  -0.93750,  -0.10859,  -0.68492
   0.93750,   0.93750,  -0.72646,   0.93750,  -0.75594,   0.25278,   0.57423,   0.48215,  -0.44115,  -0.74856
   0.87932,   0.93750,  -0.02959,  -0.32712,  -0.29098,   0.93750,   0.86687,   0.14280,   0.93750,   0.67192
  -0.10946,  -0.58849,   0.26969,   0.93750,   0.08053,   0.40668,  -0.20492,  -0.87317,   0.27020,   0.93481
  -0.84538,   0.12827,  -0.71326,   0.14033,  -0.57155,   0.87493,  -0.51311,   0.93750,   0.34039,   0.30106
  -0.14319,  -0.05587,   0.46737,   0.91508,   0.23356,  -0.86751,  -0.55637,  -0.37944,   0.15969,  -0.01488
  -0.60953,  -0.37519,  -0.10268,  -0.29450,  -0.66886,   0.12006,  -0.17456,   0.93750,   0.49311,   0.91142
  -0.81600,   0.93750,   0.16018,   0.47746,   0.13281,  -0.51472,  -0.74421,   0.21338,   0.77850,   0.10567
   0.32604,  -0.12830,   0.75105,   0.74649,  -0.42742,   0.87447,  -0.41369,  -0.44064,   0.11597,   0.00652
   0.32597,   0.83183,  -0.42455,  -0.63816,   0.93750,  -0.20429,  -0.51359,   0.20785,  -0.75254,   0.72724
  -0.20007,  -0.69290,  -0.93750,  -0.87568,  -0.93750,  -0.84024,   0.93750,   0.79904,  -0.89029,   0.64270
  -0.22798,   0.28984,  -0.70880,  -0.37932,   0.85883,   0.03768,   0.02299,  -0.28131,   0.76285,  -0.56020
  -0.48942,   0.71384,   0.22057,  -0.00806,   0.61703,   0.11199,  -0.24201,  -0.29933,  -0.65313,   0.92950
   0.93750,  -0.36743,  -0.93750,  -0.14875,  -0.72471,  -0.86982,   0.86891,  -0.23288,  -0.45954,  -0.38553
   0.34274,  -0.78471,  -0.93750,   0.30740,   0.63927,   0.93750,   0.00622,  -0.66305,   0.07586,   0.93750
  -0.74654,   0.35122,  -0.36056,  -0.04334,  -0.11217,   0.77267,   0.86962,  -0.76091,  -0.63860,  -0.61193
   0.87518,   0.17724,  -0.37376,  -0.03637,  -0.58169,  -0.85211,  -0.03667,   0.93750,   0.29220,  -0.13864
   0.25254,  -0.17638,   0.92548,  -0.23562,  -0.67753,   0.83275,  -0.19801,  -0.55307,  -0.07300,  -0.27670
   0.25007,   0.44568,   0.75878,   0.43661,  -0.43234,  -0.56588,  -0.54262,   0.82270,  -0.54000,  -0.81126
  -0.69963,  -0.58397,   0.93750,  -0.33820,   0.93750,  -0.93750,  -0.49424,   0.93750,  -0.93750,   0.93750
  -0.00318,   0.26088,   0.93521,  -0.03120,   0.07387,  -0.35328,   0.25782,  -0.66210,  -0.64658,  -0.10324
  -0.70599,   0.93750,  -0.93750,  -0.06736,  -0.06387,   0.09085,  -0.29632,  -0.26636,  -0.92150,  -0.58365
   0.84190,  -0.93750,   0.93750,   0.93750,  -0.56016,   0.93750,   0.93750,  -0.93750,   0.28564,  -0.70360
  -0.39805,  -0.22076,   0.86159,   0.72233,  -0.14092,  -0.06116,  -0.13394,   0.80451,  -0.77079,  -0.46619
   0.01559,  -0.00289,   0.88952,   0.64407,  -0.24654,  -0.20702,   0.54384,  -0.80977,  -0.07480,   0.19723
  -0.31336,   0.41645,  -0.70982,   0.64171,  -0.11842,  -0.62477,   0.74924,  -0.23739,  -0.25339,   0.26270
  -0.41195,   0.24327,  -0.81100,  -0.70195,  -0.32758,   0.71594,  -0.90430,  -0.35142,  -0.73801,  -0.93750
   0.31423,  -0.27406,  -0.52915,   0.89974,  -0.65663,  -0.64326,   0.38979,  -0.23667,   0.63960,   0.39526
   0.47890,   0.93750,  -0.65583,  -0.56272,  -0.60106,   0.15385,  -0.60264,   0.22045,  -0.73311,   0.93750
   0.57184,  -0.68285,   0.36472,  -0.39154,  -0.91216,   0.26775,   0.50256,   0.17080,   0.17760,   0.17928
  -0.42816,  -0.25775,   0.61928,  -0.18718,   0.54817,  -0.24413,  -0.38165,   0.66986,   0.84995,  -0.41416
  -0.05311,   0.86920,   0.08156,   0.80865,  -0.17812,  -0.17781,  -0.67344,   0.80772,   0.01493,   0.38566
  -0.48152,  -0.24413,   0.93750,  -0.56716,  -0.42044,  -0.49196,  -0.20549,   0.14466,  -0.16533,  -0.52285
   0.16091,   0.29616,  -0.76045,   0.79616,   0.37413,   0.18180,  -0.88902,  -0.16595,   0.25875,   0.13058
   0.23218,  -0.04412,   0.55393,  -0.62866,   0.52023,   0.32762,   0.61797,   0.55348,   0.18598,   0.14892
   0.27490,   0.60953,   0.93750,  -0.93750,   0.93750,  -0.75259,  -0.93750,  -0.48412,   0.35583,   0.93750
  -0.54656,   0.74530,  -0.69049,   0.93750,   0.93750,   0.59086,  -0.45230,   0.65258,  -0.13824,  -0.93510
   0.13962,  -0.41294,  -0.61758,  -0.07730,   0.70013,  -0.68832,   0.68063,  -0.75328,   0.75463,   0.49449
  -0.86995,  -0.87669,  -0.93750,  -0.01473,  -0.22217,   0.18336,  -0.11096,  -0.02562,   0.67546,   0.14310
  -0.87025,   0.34892,   0.69639,   0.46096,  -0.88307,  -0.18114,   0.83730,  -0.48342,  -0.45164,   0.90865
  -0.04047,   0.16758,   0.80945,  -0.08133,   0.10739,   0.91538,  -0.29751,   0.00093,  -0.34387,   0.19298
   0.93750,  -0.75488,  -0.12888,   0.93750,   0.93750,  -0.93750,   0.93750,   0.80752,  -0.09908,   0.87767
  -0.41885,  -0.08134,  -0.73803,   0.08549,  -0.29880,  -0.59725,   0.80462,   0.17345,  -0.88258,  -0.92088
  -0.93651,  -0.90182,  -0.51971,  -0.84859,  -0.90395,   0.27855,  -0.63493,   0.22493,  -0.46910,  -0.84410
   0.93750,   0.09515,  -0.65524,  -0.49796,  -0.15727,  -0.05978,   0.15749,   0.23389,  -0.79612,  -0.28306
  -0.73440,   0.59395,  -0.19245,  -0.06574,   0.48908,   0.81891,  -0.65498,  -0.69466,  -0.88074,   0.56197
  -0.36044,  -0.80107,  -0.66196,   0.60035,   0.68127,   0.16674,  -0.75979,   0.93750,   0.08744,  -0.23070
  -0.67211,   0.47203,   0.83260,   0.93118,  -0.93750,  -0.81439,  -0.53465,   0.93750,   0.31755,   0.17485
   0.93750,  -0.80543,  -0.83466,  -0.10008,   0.30064,  -0.10412,  -0.82372,   0.93750,   0.72264,   0.19784
  -0.39217,   0.51899,  -0.26255,   0.81168,  -0.64848,   0.89154,  -0.49440,   0.46394,   0.56247,  -0.42080
   0.80293,  -0.60309,  -0.70084,   0.61848,  -0.93750,   0.92810,  -0.72050,  -0.33372,   0.63198,  -0.21555
   0.93750,   0.71220,   0.65317,  -0.93750,  -0.93750,   0.83926,  -0.70672,   0.07300,  -0.93750,  -0.87358
   0.93750,   0.88294,   0.93750,   0.00932,  -0.07970,  -0.39627,   0.18408,   0.34172,  -0.69519,  -0.93750
   0.36135,   0.93750,  -0.75637,   0.08738,  -0.93750,  -0.93750,  -0.93750,  -0.68655,  -0.93750,  -0.64685
  -0.87429,  -0.75871,  -0.04423,  -0.78708,   0.36192,   0.31784,  -0.88657,   0.78204,  -0.68065,  -0.01644
  -0.60449,   0.93750,  -0.71959,   0.34385,  -0.20202,  -0.33704,  -0.80502,  -0.11169,   0.76837,   0.81269
  -0.73053,   0.67292,   0.93750,  -0.46281,   0.55354,  -0.55859,   0.44094,  -0.86861,   0.71994,  -0.28697
   0.93750,   0.12427,  -0.75056,   0.10100,  -0.51434,  -0.42860,   0.06209,  -0.64200,  -0.62030,   0.20420
  -0.14551,  -0.24848,  -0.19759,  -0.21668,   0.22474,   0.87039,   0.73727,  -0.37893,   0.20905,  -0.34858
   0.86038,  -0.37003,  -0.31039,  -0.42819,   0.09175,  -0.00493,   0.42649,   0.75331,   0.93750,  -0.46633
   0.16443,   0.00042,  -0.23362,   0.05959,  -0.48286,  -0.37272,   0.57026,   0.60346,   0.46383,   0.41964
  -0.67621,   0.06412,  -0.52303,  -0.59893,  -0.41359,  -0.36242,   0.93409,  -0.62903,   0.01340,  -0.18921
  -0.75340,  -0.07565,   0.93750,  -0.61161,   0.93750,   0.83255,  -0.04574,   0.14185,  -0.86862,  -0.88079
   0.93750,  -0.93750,   0.08876,  -0.59917,  -0.84251,  -0.65380,  -0.93750,   0.81980,   0.73851,  -0.31227
  -0.93750,   0.34649,  -0.87261,   0.03964,  -0.93750,   0.86794,  -0.93750,  -0.80244,  -0.61021,   0.32392
   0.93297,  -0.11871,  -0.50977,  -0.90298,   0.13551,  -0.41530,  -0.07029,  -0.39685,   0.33399,  -0.83808
  -0.82494,   0.78027,  -0.87868,   0.47799,   0.52345,  -0.40282,  -0.69680,  -0.58311,  -0.80051,   0.29647
  -0.86484,  -0.68242,   0.93750,  -0.66596,  -0.86902,   0.85309,  -0.72970,  -0.25003,  -0.93750,   0.29120
   0.82330,  -0.93750,   0.44118,  -0.81314,   0.89520,   0.14696,   0.44072,  -0.87807,  -0.49859,  -0.15945
   0.38229,   0.13343,  -0.54022,  -0.59123,   0.36243,  -0.54745,   0.87682,  -0.00197,  -0.75718,  -0.23585
  -0.59575,   0.52735,  -0.33568,   0.37175,  -0.82382,  -0.82510,   0.81438,  -0.49717,  -0.14014,  -0.22746
  -0.60933,   0.16866,   0.74450,  -0.31933,   0.78574,   0.57133,  -0.39544,   0.45971,   0.14237,  -0.36560
   0.12568,   0.93750,  -0.09059,  -0.07275,   0.68772,   0.57956,  -0.52465,  -0.34183,  -0.42892,  -0.53404
  -0.93750,  -0.81363,   0.41619,   0.61656,  -0.55806,  -0.60466,  -0.47440,   0.93750,  -0.93750,  -0.93750
   0.76214,  -0.07968,   0.00947,   0.10879,  -0.18915,   0.73477,   0.93750,  -0.04922,   0.14230,   0.43345
   0.08511,   0.02581,  -0.79082,   0.87994,  -0.70524,   0.82457,  -0.59317,  -0.67155,  -0.12065,   0.29250
  -0.43335,  -0.45236,  -0.82670,  -0.64638,   0.93720,  -0.68680,  -0.29341,  -0.80551,   0.16091,  -0.43953
   0.52266,  -0.04360,  -0.87766,   0.40896,   0.78806,  -0.58048,  -0.78930,  -0.28022,   0.36470,   0.86940
   0.46809,  -0.20388,  -0.28000,  -0.66677,  -0.50290,  -0.13811,   0.87582,  -0.20150,  -0.26124,  -0.54029
   0.93750,   0.93750,  -0.14928,   0.93750,   0.46443,  -0.70578,   0.54391,   0.93750,  -0.77030,  -0.93750
   0.52460,   0.04281,   0.74752,   0.01295,   0.75991,  -0.78506,  -0.59370,  -0.20495,   0.48422,   0.09005
   0.93750,   0.32944,   0.06373,  -0.37620,   0.93750,  -0.81082,   0.86544,  -0.76887,  -0.93750,  -0.84581
   0.12948,  -0.15180,   0.14421,   0.22400,  -0.42927,   0.22189,   0.15602,   0.47253,  -0.54621,  -0.16704
  -0.72805,  -0.84969,   0.93750,  -0.37500,  -0.18059,   0.82126,  -0.93750,   0.73088,  -0.42312,  -0.18443
   0.74693,  -0.59439,  -0.27088,   0.67131,  -0.53828,  -0.64617,   0.88468,  -0.39851,  -0.93750,   0.80999
  -0.88697,   0.82577,   0.56199,  -0.68277,  -0.84516,  -0.10686,  -0.13504,  -0.26588,   0.92824,   0.21369
  -0.67374,   0.93750,  -0.35826,   0.01480,  -0.03668,   0.13227,  -0.08363,   0.68847,  -0.38106,  -0.89916
   0.27035,   0.57448,  -0.91287,   0.55441,   0.39869,   0.87596,   0.63023,   0.64383,  -0.21225,  -0.26333
  -0.72967,   0.76376,  -0.19652,  -0.46875,   0.16820,   0.22462,   0.20010,  -0.31349,   0.88282,  -0.75148
  -0.58340,  -0.47238,   0.54882,  -0.70964,  -0.90377,   0.03284,   0.77769,   0.86725,   0.71475,  -0.76716
   0.56218,  -0.31017,  -0.93750,   0.47052,  -0.56405,   0.20962,   0.58680,   0.54179,  -0.51408,  -0.08966
  -0.38491,  -0.19131,  -0.40677,   0.82499,  -0.25566,   0.40149,   0.64770,  -0.29226,   0.09866,  -0.16464
  -0.28991,  -0.69317,  -0.75662,  -0.27381,  -0.71012,   0.12583,  -0.76606,   0.93750,  -0.06861,  -0.32485
  -0.43376,   0.87542,   0.64113,   0.20243,  -0.80944,  -0.72769,   0.40656,   0.67577,  -0.56431,   0.56404
   0.93750,   0.87642,  -0.78918,  -0.35757,   0.47945,   0.19488,   0.18874,   0.23293,  -0.50397,  -0.86614
   0.51320,   0.35133,  -0.00761,   0.31315,   0.84557,   0.11514,  -0.44840,  -0.16824,   0.19639,  -0.64805
   0.68572,  -0.04939,   0.80926,   0.93750,  -0.93750,  -0.52796,   0.73343,   0.93750,  -0.50642,  -0.76222
   0.18094,   0.05838,   0.29016,   0.42912,   0.00196,   0.62136,   0.80164,  -0.36400,  -0.93750,  -0.43371
  -0.38894,   0.22609,   0.00436,   0.86805,  -0.60606,   0.45904,   0.24706,  -0.09799,   0.93051,  -0.76378
  -0.81944,  -0.62865,  -0.69955,   0.65168,  -0.59256,  -0.19718,  -0.60375,   0.46966,   0.93750,   0.81584
  -0.51381,   0.60606,  -0.70784,   0.93750,  -0.93750,  -0.93750,  -0.93750,  -0.93750,   0.92135,   0.93750
   0.89903,   0.88184,  -0.05253,   0.29611,   0.03202,   0.15606,  -0.49514,  -0.53638,  -0.58726,   0.87992
  -0.60025,  -0.14020,  -0.71856,  -0.82149,   0.93750,   0.10882,   0.66676,  -0.33189,   0.93750,  -0.50563
   0.28831,  -0.43617,  -0.62488,  -0.45395,  -0.28696,   0.86990,  -0.07399,  -0.31219,  -0.51740,  -0.11805
  -0.93750,  -0.30923,   0.43615,  -0.52022,   0.48774,   0.93750,  -0.31429,  -0.38661,   0.68952,  -0.80561
   0.22105,  -0.56568,   0.75821,  -0.82497,  -0.01772,  -0.81031,  -0.31457,   0.45242,  -0.12627,   0.62285
   0.73075,  -0.14069,   0.56382,  -0.16273,   0.86345,   0.33811,  -0.38127,   0.79364,  -0.64275,  -0.65214
  -0.17419,   0.30269,   0.34311,  -0.52975,   0.93750,  -0.47249,  -0.60105,   0.86913,  -0.24914,  -0.65894
  -0.25489,  -0.17662,   0.05897,  -0.50853,  -0.79678,  -0.12927,   0.93750,   0.20028,   0.34055,  -0.52866
  -0.46213,  -0.54153,  -0.76769,   0.74826,  -0.82750,  -0.16571,  -0.34952,  -0.93750,   0.02003,  -0.20592
   0.30056,   0.51576,  -0.60812,  -0.09598,   0.93750,   0.79637,  -0.09628,   0.92194,   0.82745,  -0.02687
  -0.68770,   0.41063,   0.86560,  -0.49756,   0.32905,  -0.12264,  -0.33533,  -0.04152,   0.93337,   0.25121
   0.93750,   0.74696,  -0.72989,   0.93750,  -0.93750,   0.93750,  -0.77965,   0.26189,  -0.93750,   0.93750
   0.36356,  -0.61774,  -0.85884,   0.93750,   0.19831,  -0.61230,  -0.66419,  -0.52940,   0.41590,  -0.22648
   0.09954,  -0.31781,   0.17767,   0.61739,   0.11257,   0.26124,   0.59190,  -0.01216,   0.05709,   0.22052
   0.61438,  -0.27422,   0.73755,   0.26801,   0.49464,  -0.93750,   0.17695,  -0.93750,  -0.57339,  -0.93750
  -0.09924,   0.54912,   0.25212,   0.89581,  -0.21013,  -0.63315,   0.93750,   0.28180,  -0.22075,  -0.14707
  -0.47167,  -0.86453,  -0.64021,  -0.45005,   0.93750,   0.33654,   0.84108,   0.87833,  -0.20218,   0.93750
  -0.03119,  -0.83616,   0.15826,   0.39280,   0.44754,  -0.86011,  -0.88923,   0.93750,   0.53123,  -0.72962
  -0.41306,  -0.82545,   0.93750,  -0.67484,   0.93380,   0.79348,  -0.14085,   0.93750,   0.62152,   0.14267
  -0.72562,   0.48128,  -0.39814,   0.16684,   0.93750,  -0.93671,   0.93750,   0.93750,  -0.57539,   0.36330
   0.87283,   0.93750,  -0.40626,   0.80620,   0.40703,  -0.64010,   0.55373,   0.56676,  -0.57216,  -0.67497
   0.80224,   0.93750,   0.21630,  -0.47604,  -0.19931,   0.56972,  -0.20183,   0.58110,   0.81237,  -0.63576
  -0.56219,  -0.46981,   0.63867,  -0.45262,   0.66056,   0.03614,   0.73736,   0.25209,  -0.12163,   0.08070
  -0.02793,  -0.38075,  -0.59228,   0.80905,   0.21135,  -0.62611,   0.93750,  -0.21310,   0.09755,  -0.08157
  -0.67167,   0.33231,  -0.23359,   0.93750,  -0.72224,   0.93750,  -0.91125,  -0.65273,  -0.86387,  -0.76918
  -0.32505,   0.69939,   0.73408,   0.82442,  -0.84233,   0.33234,   0.60660,  -0.62681,  -0.64472,  -0.80797
   0.24021,  -0.20460,  -0.19681,  -0.52584,  -0.86817,   0.83603,   0.93341,  -0.20913,   0.36684,  -0.31419
   0.47348,  -0.93750,   0.11259,   0.15434,  -0.68090,  -0.93750,  -0.64128,  -0.49378,  -0.93750,  -0.74579
  -0.17102,   0.19304,  -0.25637,  -0.18772,   0.46672,  -0.69710,   0.38462,   0.93750,  -0.25945,  -0.16744
   0.01987,  -0.27622,  -0.52516,  -0.51129,   0.77992,  -0.00752,  -0.30233,   0.56051,   0.35318,  -0.20380
  -0.34585,   0.34870,  -0.90383,  -0.63869,   0.31439,   0.93484,  -0.80030,  -0.24800,   0.45580,  -0.17832
  -0.09824,   0.55892,  -0.47187,   0.62988,   0.52194,   0.86812,  -0.80078,  -0.62656,  -0.93750,   0.93750
  -0.09747,  -0.04955,  -0.35099,  -0.24785,   0.61977,  -0.60702,  -0.63921,  -0.76072,   0.35543,  -0.93750
   0.88688,  -0.05863,   0.27709,  -0.54078,  -0.75058,   0.81167,  -0.10572,  -0.25583,  -0.09362,  -0.55588
  -0.59915,  -0.20617,  -0.85397,   0.56675,  -0.15517,   0.73580,  -0.51939,  -0.15898,  -0.58052,   0.16422
   0.15325,   0.36285,  -0.09692,  -0.70236,  -0.84444,  -0.43922,   0.93750,  -0.78351,   0.16612,  -0.04763
   0.12791,   0.45752,   0.51387,   0.74627,  -0.33190,  -0.63208,   0.08984,  -0.69802,   0.81205,   0.81583
   0.82921,   0.93750,   0.93750,   0.93750,  -0.65498,  -0.77069,   0.32395,   0.93750,  -0.83020,  -0.01925
   0.10518,  -0.18131,   0.86355,  -0.69417,   0.02267,   0.79243,  -0.74783,  -0.34704,  -0.22375,   0.36143
   0.93750,  -0.08258,  -0.61922,  -0.03221,  -0.87500,   0.05415,  -0.20168,  -0.62116,  -0.76820,  -0.32626
   0.72226,  -0.18920,  -0.07695,   0.80046,  -0.00671,   0.20932,   0.56130,   0.40951,  -0.82492,   0.30536
   0.08687,  -0.80169,   0.20151,   0.01001,  -0.59444,   0.93750,  -0.93121,   0.37150,   0.93750,  -0.49875
   0.04887,   0.04842,  -0.25288,  -0.58579,  -0.29051,   0.79171,  -0.58848,   0.82019,   0.33703,   0.27461
   0.11477,   0.39577,  -0.93750,  -0.81691,   0.66062,  -0.56585,  -0.18516,   0.93750,   0.63031,  -0.02143
  -0.42407,   0.59426,  -0.86513,   0.74843,   0.17382,  -0.66476,   0.28902,   0.75891,  -0.31310,  -0.40912
   0.29834,  -0.01043,   0.12324,   0.09118,   0.93750,   0.42486,  -0.09410,  -0.31591,  -0.93750,  -0.93750
   0.65715,  -0.58750,  -0.60503,  -0.35369,   0.93750,  -0.46718,  -0.48973,  -0.46297,  -0.24330,   0.49199
  -0.03622,   0.86571,  -0.09949,   0.58461,  -0.65787,   0.58972,   0.07125,   0.92445,  -0.43859,  -0.14364
  -0.81715,   0.93750,   0.47552,  -0.58206,   0.93750,   0.87383,  -0.51671,  -0.68852,  -0.84897,   0.56348
   0.45105,  -0.89306,   0.74338,  -0.17567,   0.67838,  -0.22980,  -0.74553,  -0.83114,   0.03970,   0.66810
  -0.33911,   0.87207,  -0.72719,   0.22275,  -0.67672,   0.18750,  -0.38945,  -0.39139,   0.25949,  -0.86401
  -0.41020,   0.32531,   0.07296,  -0.10718,   0.10844,   0.49243,  -0.33399,   0.89144,   0.80462,   0.87462
  -0.08119,  -0.44369,  -0.63584,  -0.27141,  -0.66487,   0.48969,   0.93750,  -0.76694,   0.47798,   0.28083
  -0.04448,  -0.23118,  -0.08213,  -0.52006,  -0.53477,   0.85705,   0.20343,   0.18037,   0.93750,  -0.23641
  -0.50331,  -0.31922,  -0.86923,   0.87163,   0.93750,  -0.62536,  -0.54528,  -0.51691,   0.67500,   0.39971
  -0.82990,  -0.77437,  -0.07024,   0.73269,  -0.05772,   0.70546,  -0.09870,  -0.32565,   0.92865,   0.39172
   0.09740,   0.32584,   0.22359,   0.69563,  -0.68631,  -0.50382,  -0.18679,   0.81317,  -0.81697,   0.93750
  -0.87800,   0.93750,  -0.13085,   0.93750,   0.54749,  -0.87262,  -0.93750,  -0.84881,   0.71396,  -0.93750
   0.51111,  -0.12655,   0.88021,  -0.12794,   0.07723,  -0.44096,  -0.88600,  -0.16483,  -0.06311,  -0.93750
   0.52788,  -0.10266,   0.54842,   0.79852,   0.86733,   0.87159,   0.22280,  -0.04872,   0.81088,  -0.87619
   0.60935,   0.65417,  -0.93750,  -0.87371,  -0.92030,   0.26452,   0.78682,   0.86476,   0.41404,   0.93750
  -0.68521,   0.67744,  -0.18787,  -0.78986,   0.47429,   0.32818,   0.61289,  -0.57955,  -0.58636,  -0.93750
  -0.05815,  -0.81406,   0.80734,   0.73870,   0.44184,  -0.58959,   0.92324,  -0.80636,   0.87156,   0.04700
  -0.38692,  -0.80769,   0.67517,  -0.82340,  -0.34590,  -0.85621,   0.60223,   0.62917,   0.08933,   0.21520
  -0.87216,   0.92642,   0.46865,   0.15100,  -0.85186,   0.81373,   0.11718,  -0.76393,  -0.81619,  -0.87493
   0.86687,  -0.66974,  -0.78093,  -0.56996,  -0.93750,   0.46577,  -0.21466,  -0.62575,   0.73743,  -0.87988
  -0.49182,  -0.86815,   0.15054,  -0.47412,  -0.81477,   0.10607,  -0.76202,   0.65166,   0.01095,  -0.86861
   0.93750,  -0.69132,   0.93750,   0.93750,   0.93750,  -0.04993,  -0.68727,  -0.82525,  -0.93750,  -0.68061
  -0.30360,  -0.29425,  -0.44513,  -0.85836,  -0.10680,   0.93750,  -0.87779,   0.14905,   0.64324,   0.00897
  -0.52605,   0.27817,  -0.66927,   0.59150,  -0.71939,   0.49757,  -0.62799,  -0.74349,   0.03045,  -0.20447
  -0.24515,  -0.62959,  -0.39598,  -0.05288,  -0.49061,  -0.51571,   0.12448,   0.81038,  -0.20200,   0.80728
   0.29801,  -0.70197,   0.87231,   0.28287,  -0.57641,  -0.41115,   0.48895,  -0.15183,   0.07360,   0.87031
   0.23565,   0.51603,  -0.73957,  -0.24616,  -0.16985,   0.93750,   0.81144,   0.49423,   0.67517,  -0.21251
   0.88005,   0.87548,  -0.80942,  -0.51901,  -0.87701,  -0.26434,  -0.37851,  -0.24387,   0.22971,   0.07153
   0.54666,  -0.58631,  -0.68943,   0.91988,  -0.33575,   0.88416,  -0.75659,  -0.63016,   0.69324,   0.05511
   0.88058,  -0.49385,   0.18922,   0.65962,   0.78810,  -0.80590,  -0.70111,   0.28261,  -0.88301,   0.32744
  -0.68874,  -0.93750,   0.54465,   0.26641,   0.81045,  -0.93750,   0.93750,   0.41587,   0.69263,  -0.08256
  -0.88042,  -0.93750,  -0.00442,   0.86678,   0.56072,   0.83915,  -0.82111,  -0.07530,   0.80785,  -0.88323
  -0.69089,   0.01432,   0.92804,  -0.24865,   0.82169,  -0.09321,  -0.61488,  -0.61050,  -0.15271,   0.61266
   0.68987,   0.15464,  -0.61396,  -0.60388,   0.88064,  -0.29519,   0.91264,  -0.57825,  -0.05631,   0.36113
  -0.19037,  -0.13641,   0.75373,  -0.42109,   0.31211,  -0.65417,   0.38432,   0.92069,  -0.07372,   0.82945
   0.62979,  -0.25624,   0.13174,  -0.12211,  -0.16833,  -0.09244,  -0.45437,   0.92892,  -0.12082,   0.88610
   0.66352,  -0.93750,  -0.11861,  -0.93750,   0.93750,  -0.59018,   0.75975,  -0.63400,  -0.74882,   0.46247
  -0.17633,   0.93750,   0.21068,   0.45373,  -0.53166,  -0.80518,   0.86611,   0.92353,   0.93750,  -0.71662
  -0.72536,   0.93750,  -0.93750,   0.90601,   0.39286,   0.88270,   0.34026,   0.93750,   0.40741,  -0.80295
  -0.64133,   0.35424,  -0.11438,  -0.84994,  -0.33374,  -0.39281,  -0.12219,   0.93750,  -0.29676,  -0.62396
  -0.44579,   0.10037,  -0.60551,   0.93352,  -0.69751,   0.33186,   0.93750,   0.82704,   0.06834,   0.43739
   0.67938,   0.07031,   0.93750,  -0.25764,   0.07768,   0.05613,  -0.52185,   0.32717,  -0.89523,  -0.09665
   0.33305,  -0.52870,  -0.10844,  -0.80380,  -0.46121,   0.21155,  -0.59354,  -0.58243,   0.86713,   0.93584
  -0.85045,   0.16528,   0.81014,   0.25293,  -0.88493,  -0.78097,   0.20927,  -0.44228,  -0.21793,  -0.73352
  -0.03210,  -0.68148,   0.09590,   0.93750,   0.93750,  -0.93750,   0.93750,   0.58192,   0.93750,   0.31962
   0.75419,  -0.19454,   0.74931,  -0.50266,   0.07613,  -0.12671,   0.83612,   0.51108,  -0.92918,   0.29993
   0.93750,   0.93750,  -0.35978,  -0.93750,  -0.93750,   0.31560,   0.74666,   0.78885,  -0.09291,   0.93750
   0.87011,   0.47208,  -0.15214,  -0.69607,  -0.16748,   0.78609,  -0.13583,   0.26287,   0.16919,  -0.82649
   0.93750,  -0.44679,  -0.05936,  -0.77576,  -0.12566,  -0.13914,  -0.10210,  -0.11781,   0.62431,   0.93577
   0.08724,  -0.03154,   0.25036,   0.93750,  -0.21606,  -0.88808,  -0.55013,  -0.66752,  -0.53087,   0.42886
  -0.20903,  -0.59541,  -0.58482,  -0.50386,  -0.47026,   0.68350,   0.93750,  -0.05259,   0.02597,   0.75613
   0.49231,  -0.19009,  -0.35047,  -0.61702,   0.93750,   0.93732,  -0.64724,   0.27594,  -0.21688,  -0.37480
   0.93750,  -0.37077,   0.22876,  -0.88004,   0.87205,   0.61146,   0.93750,   0.76316,  -0.56800,   0.93750
   0.81201,  -0.70772,  -0.17416,   0.21404,   0.53768,   0.93750,  -0.77248,   0.16143,  -0.48633,  -0.31515
  -0.20062,  -0.24068,   0.44180,  -0.22760,  -0.71159,  -0.33294,   0.93547,  -0.06577,  -0.79915,  -0.54367
   0.48208,   0.31588,   0.22344,  -0.65382,   0.48019,  -0.77506,   0.04113,   0.93750,  -0.01336,   0.10682
   0.46276,   0.14651,   0.23533,   0.28491,   0.93750,   0.05980,   0.16288,   0.57723,  -0.26691,  -0.07967
   0.72674,   0.47638,  -0.50211,  -0.43173,   0.92748,  -0.47846,   0.68839,  -0.54591,   0.82702,  -0.80800
   0.27235,   0.07102,   0.56803,  -0.72812,  -0.45926,  -0.33642,  -0.05417,  -0.12639,   0.02909,   0.93750
  -0.48225,   0.55115,   0.72978,  -0.10749,   0.92549,   0.17737,  -0.88058,   0.38807,  -0.67572,   0.56440
   0.25329,   0.01073,   0.55042,   0.55320,   0.33331,   0.46145,   0.29987,   0.15529,  -0.13071,  -0.13637
  -0.42650,  -0.93750,   0.93750,   0.93750,   0.06381,  -0.79791,   0.29256,   0.93750,   0.37611,  -0.93750
  -0.52815,   0.05707,  -0.12214,   0.89245,  -0.66308,  -0.82120,  -0.69941,   0.43811,  -0.68742,  -0.91734
  -0.38246,  -0.25316,  -0.10825,  -0.40817,   0.82112,  -0.41071,   0.53392,  -0.54400,   0.29654,  -0.31477
  -0.93750,  -0.45714,   0.84094,  -0.75183,   0.93750,   0.23125,  -0.84100,   0.00426,  -0.80638,  -0.81974
   0.22046,  -0.58231,   0.35598,   0.53293,   0.30362,   0.93414,   0.82449,  -0.15956,  -0.38276,   0.51408
   0.78161,   0.32177,  -0.40964,  -0.73492,   0.77179,  -0.54455,  -0.56282,   0.25325,  -0.12663,  -0.18482
   0.86910,  -0.56913,  -0.74702,   0.19181,  -0.38115,   0.40269,  -0.19078,  -0.70210,  -0.75969,  -0.62580
   0.93750,  -0.27165,  -0.80263,  -0.29630,  -0.93280,  -0.50568,  -0.93750,  -0.24519,  -0.16997,   0.54521
  -0.47422,   0.04663,   0.93750,   0.93750,   0.77601,   0.89280,  -0.93750,   0.45146,   0.13473,  -0.70729
  -0.29928,   0.58818,  -0.93750,  -0.88833,  -0.14972,   0.76352,  -0.93750,  -0.88434,   0.93750,   0.42953
   0.81357,  -0.70345,  -0.77245,  -0.27412,   0.21201,  -0.13978,  -0.62778,   0.00749,   0.93016,  -0.52812
  -0.70453,  -0.74133,  -0.85533,   0.93750,  -0.57757,   0.08026,  -0.07162,   0.75573,   0.13449,  -0.15380
   0.53019,   0.39206,   0.05851,  -0.66454,  -0.41075,   0.61026,   0.33570,  -0.01361,  -0.67481,   0.68189
  -0.53836,   0.93750,   0.93750,  -0.20473,   0.66764,  -0.02954,   0.05972,  -0.73600,  -0.01965,  -0.93750
  -0.49919,  -0.33460,   0.51054,   0.93750,   0.48224,  -0.69830,  -0.59042,   0.57334,   0.03253,   0.75034
  -0.67612,   0.01249,  -0.12211,   0.55113,  -0.05316,  -0.74335,   0.82910,   0.05482,   0.19917,   0.14215
   0.19083,  -0.48370,   0.55948,  -0.62919,   0.93550,  -0.04863,   0.40566,   0.80803,  -0.47082,   0.81117
   0.31406,   0.93703,   0.25541,  -0.68964,   0.93750,  -0.77692,  -0.44043,   0.41762,   0.61558,  -0.54341
  -0.87773,   0.93750,   0.30911,  -0.51147,  -0.93750,  -0.58018,  -0.84332,  -0.74153,   0.93750,  -0.74197
   0.81005,   0.37899,  -0.81471,   0.93750,   0.38373,  -0.55657,  -0.64949,   0.92536,  -0.93750,  -0.87569
  -0.93750,  -0.10986,  -0.23030,  -0.81895,   0.67097,  -0.88376,   0.62312,  -0.91093,  -0.92085,   0.78473
  -0.73039,   0.87480,  -0.74768,  -0.50642,  -0.86368,  -0.45513,   0.22758,   0.40538,   0.93750,   0.17470
   0.33652,  -0.13393,   0.92559,  -0.12583,  -0.06275,  -0.80748,  -0.55352,   0.88847,   0.75267,  -0.42021
   0.87538,  -0.40524,  -0.26511,   0.47702,  -0.93750,   0.87438,   0.56936,   0.70867,  -0.93750,   0.93750
  -0.40691,   0.79893,  -0.80179,  -0.36802,   0.50215,   0.89273,   0.11978,   0.25339,  -0.06057,  -0.26386
   0.61930,  -0.39321,  -0.45096,   0.03978,   0.09183,   0.76400,  -0.04302,   0.00363,  -0.10308,  -0.43393
  -0.68416,  -0.00325,  -0.23822,  -0.08651,  -0.87888,   0.81754,   0.63283,   0.42710,   0.80423,   0.50464
   0.31941,  -0.30696,   0.80698,   0.93750,   0.93750,   0.32752,   0.93750,  -0.22534,  -0.13859,  -0.56241
  -0.79536,  -0.16946,  -0.26058,   0.80216,  -0.02624,  -0.34870,  -0.52205,   0.01645,  -0.66654,  -0.88567
  -0.52369,  -0.75611,  -0.11499,  -0.44421,  -0.82348,  -0.36733,   0.42498,   0.93750,  -0.40569,   0.69004
   0.13483,   0.05390,  -0.52381,   0.13767,   0.93694,  -0.58075,  -0.09365,  -0.92582,   0.14310,   0.01709
  -0.02490,   0.08312,   0.41922,   0.34549,  -0.08112,  -0.27697,  -0.81647,  -0.45184,   0.42630,  -0.14968
   0.93750,  -0.43455,  -0.72186,   0.61275,  -0.51826,   0.31024,  -0.86721,   0.86124,  -0.50329,  -0.28274
   0.44805,  -0.87213,   0.93750,  -0.81721,  -0.93750,   0.93750,   0.30546,   0.70494,   0.12505,  -0.10484
  -0.58816,   0.55369,  -0.86099,   0.93750,  -0.72055,   0.51098,  -0.93750,  -0.10207,  -0.06825,  -0.87393
  -0.87751,   0.32436,  -0.93750,   0.77770,  -0.33325,   0.42140,  -0.93750,  -0.56912,  -0.30982,  -0.85794
   0.82079,   0.23612,  -0.55023,   0.70610,   0.32207,  -0.29182,   0.67462,   0.72592,   0.56908,  -0.27703
   0.34500,  -0.93750,   0.63841,   0.81670,  -0.67294,  -0.93750,   0.93750,   0.28288,  -0.92373,   0.46564
   0.25033,  -0.87054,   0.81546,  -0.08529,  -0.93750,  -0.93750,  -0.64484,   0.35577,  -0.77156,  -0.82169
   0.22427,  -0.33967,   0.35489,   0.03546,   0.93750,   0.75096,  -0.42539,   0.10215,  -0.08630,   0.62714
   0.93391,   0.66866,   0.57013,  -0.93750,   0.50156,  -0.33232,   0.30487,  -0.39251,  -0.23669,  -0.49704
   0.34954,  -0.81388,  -0.50650,   0.93750,   0.93750,   0.33303,   0.93750,   0.13025,   0.25905,   0.47164
   0.83676,   0.37533,   0.33056,  -0.80700,   0.13917,  -0.01151,  -0.92013,  -0.22465,  -0.91479,   0.35492
   0.24014,  -0.87733,   0.18050,  -0.16583,  -0.24651,  -0.49103,   0.25679,   0.93750,  -0.93750,   0.41745
  -0.46065,   0.80312,  -0.31030,   0.89078,   0.45133,  -0.08288,  -0.28457,  -0.25380,  -0.46639,  -0.46147
   0.71099,   0.86743,  -0.25914,  -0.06515,  -0.53648,  -0.14452,   0.30929,  -0.21103,  -0.16283,  -0.36798
   0.87368,   0.34431,  -0.72016,   0.33951,  -0.36661,  -0.11428,  -0.57505,   0.31754,   0.87876,  -0.22329
   0.31834,  -0.67109,   0.45888,   0.50573,  -0.68583,   0.35632,   0.59479,  -0.01686,   0.91497,   0.03708
   0.39106,   0.80535,   0.48598,  -0.80622,  -0.55605,   0.48863,   0.36562,  -0.86573,  -0.03746,  -0.30644
  -0.37849,   0.24335,   0.89467,  -0.63662,  -0.22898,  -0.41749,   0.69314,   0.25689,   0.00529,  -0.18827
   0.24967,   0.12201,  -0.86135,   0.93750,   0.44886,  -0.93750,   0.86923,   0.82438,   0.93750,   0.80882
   0.87699,  -0.64686,   0.93750,   0.93750,  -0.88151,   0.18527,  -0.12766,  -0.60499,   0.72228,   0.93750
  -0.75495,  -0.70140,   0.09084,   0.87344,  -0.42091,  -0.93750,  -0.83703,   0.84687,   0.37737,  -0.35596
   0.23126,   0.91107,  -0.27709,   0.93750,  -0.11687,  -0.41619,   0.30870,   0.76572,  -0.86094,   0.12703
  -0.93750,   0.55845,  -0.09742,   0.93477,   0.87834,  -0.75696,  -0.83531,   0.51991,   0.23977,   0.23061
  -0.34654,   0.37299,  -0.60471,  -0.35597,  -0.93750,   0.33682,   0.61284,   0.60057,   0.45226,   0.57559
  -0.52524,  -0.90274,   0.93532,  -0.20272,   0.43151,  -0.14103,   0.36807,  -0.18279,   0.54003,   0.92215
   0.20427,   0.51617,   0.35813,  -0.87216,  -0.25725,   0.86525,   0.16310,   0.12242,  -0.34353,   0.36901
  -0.47317,   0.62946,  -0.87145,   0.93750,   0.33393,  -0.50870,  -0.12438,   0.41762,  -0.34611,   0.93750
  -0.72567,  -0.63825,   0.87030,  -0.04381,   0.53546,  -0.00230,   0.80258,   0.11316,   0.93750,  -0.36470
  -0.32084,  -0.02241,   0.80916,   0.34013,  -0.87417,  -0.31154,   0.12111,   0.52929,  -0.68861,   0.59376
  -0.74676,   0.21185,  -0.33138,  -0.40841,  -0.87005,   0.93750,  -0.17618,   0.25207,   0.51454,  -0.93750
   0.86805,   0.73385,  -0.61233,  -0.60900,  -0.44873,  -0.54138,  -0.83601,  -0.74134,   0.77774,   0.76409
   0.03572,   0.52320,   0.17296,   0.08819,   0.31033,  -0.54074,  -0.75522,   0.93750,  -0.57568,  -0.37778
   0.06819,   0.92371,  -0.34949,  -0.74522,   0.02504,   0.34233,   0.86954,   0.36742,  -0.17698,  -0.77794
  -0.80655,   0.93750,  -0.17583,  -0.43236,   0.27160,  -0.54032,   0.10749,   0.12401,  -0.44325,   0.91756
  -0.56222,   0.93750,   0.16186,  -0.38385,  -0.24507,  -0.26175,  -0.50414,  -0.57667,  -0.60520,   0.93057
   0.12159,  -0.08022,   0.82085,  -0.64455,   0.46495,   0.93750,   0.38255,  -0.07352,  -0.22924,   0.02625
   0.63927,   0.32085,  -0.33220,   0.93750,   0.93750,  -0.74488,  -0.93750,  -0.43015,   0.93750,  -0.53893
  -0.63752,  -0.28175,   0.11745,  -0.87459,   0.15646,   0.87060,   0.34812,  -0.83569,   0.93750,  -0.27504
  -0.93750,   0.82093,  -0.65136,   0.93750,  -0.88739,   0.17746,   0.82943,   0.70657,   0.46177,  -0.50380
   0.93750,   0.71403,  -0.39672,  -0.46248,  -0.63098,   0.40909,   0.93750,   0.93750,   0.88401,   0.05384
   0.37439,  -0.29096,   0.47726,  -0.17823,  -0.66811,   0.31455,   0.93750,   0.93750,   0.40084,   0.81799
  -0.05664,  -0.81835,  -0.12077,   0.73059,   0.44769,  -0.23629,   0.27515,  -0.54909,   0.21567,   0.93750
  -0.03144,  -0.74911,  -0.80460,   0.59031,  -0.80685,  -0.49137,   0.21872,   0.61811,   0.03551,  -0.31669
   0.93750,   0.87512,  -0.02791,  -0.18274,   0.61042,  -0.49033,  -0.93750,  -0.27067,   0.86672,  -0.24005
  -0.47577,   0.03407,   0.26568,  -0.29286,  -0.55307,   0.48540,   0.29877,   0.93750,  -0.45270,  -0.67382
   0.93750,  -0.66509,  -0.88115,  -0.87019,   0.13314,  -0.88287,  -0.35874,  -0.48597,  -0.68976,  -0.23930
  -0.21978,   0.82164,  -0.89982,  -0.53871,  -0.79647,   0.18041,   0.54750,   0.00254,  -0.75473,   0.92529
   0.00969,   0.08489,  -0.47006,  -0.84642,  -0.89087,  -0.17591,  -0.05715,   0.93481,  -0.27298,  -0.51299
  -0.93750,  -0.02686,  -0.01314,   0.90289,  -0.73400,   0.49564,   0.37865,   0.11440,   0.93750,   0.82266
   0.13515,   0.71544,  -0.49933,   0.93750,   0.19251,   0.16370,  -0.63338,   0.78220,   0.75488,  -0.14611
   0.21714,  -0.70019,  -0.57153,   0.86480,   0.93750,  -0.66635,   0.66596,   0.23256,   0.48123,  -0.75505
   0.86366,  -0.09762,   0.12660,  -0.20001,   0.87762,   0.87951,  -0.70730,   0.55023,   0.19866,   0.87637
  -0.90812,   0.01645,  -0.79582,   0.89373,  -0.15302,  -0.86552,   0.93750,  -0.81595,  -0.83750,  -0.93750
  -0.59465,  -0.40627,  -0.13751,  -0.60099,   0.93750,  -0.55217,   0.21185,   0.37728,  -0.67533,  -0.74921
  -0.93750,  -0.25517,  -0.75761,  -0.93669,   0.76191,   0.24920,  -0.73359,  -0.26610,   0.39634,   0.82039
   0.21882,   0.38602,   0.23026,  -0.31714,  -0.71582,   0.06707,   0.05992,  -0.58318,   0.40921,   0.88413
  -0.66728,   0.93750,  -0.81513,   0.46650,  -0.81493,   0.83263,  -0.65528,  -0.87795,   0.84455,  -0.66629
  -0.54860,  -0.11112,  -0.93456,  -0.04934,   0.93518,  -0.17359,  -0.07156,  -0.67246,  -0.64265,   0.74571
  -0.93750,  -0.67453,  -0.11255,   0.10881,  -0.93750,   0.58202,  -0.47540,   0.80960,  -0.61653,  -0.93750
   0.53295,  -0.15384,  -0.41856,   0.80689,  -0.38491,   0.93330,  -0.58568,   0.02289,  -0.26817,  -0.13031
  -0.67399,   0.93750,   0.24712,  -0.72533,   0.32569,   0.05782,   0.62515,  -0.81005,  -0.80851,   0.93750
   0.81106,  -0.57288,  -0.85917,  -0.06672,  -0.03046,   0.14857,   0.50306,  -0.62420,   0.93750,  -0.19513
  -0.93397,   0.08378,   0.79847,   0.36501,  -0.88437,   0.93750,   0.08304,  -0.67378,  -0.01238,  -0.07641
  -0.24462,   0.53699,   0.61146,   0.16522,  -0.74542,  -0.63067,   0.74244,   0.93750,   0.36257,  -0.26235
   0.73926,   0.87915,  -0.87194,  -0.81606,  -0.57463,   0.69527,  -0.87835,  -0.25598,  -0.93750,   0.04413
   0.34530,  -0.62897,  -0.65535,  -0.35824,   0.82059,  -0.70304,  -0.61745,   0.70392,   0.61947,   0.93750
  -0.25384,   0.34213,  -0.67556,  -0.62553,   0.82271,   0.17604,   0.12058,  -0.93750,   0.48637,  -0.49072
   0.93750,  -0.28994,   0.82102,  -0.06299,  -0.39240,  -0.35456,  -0.34199,   0.46854,  -0.80190,  -0.28514
  -0.55936,   0.67402,  -0.55610,  -0.64132,  -0.40438,  -0.14837,  -0.44552,   0.93750,  -0.88115,   0.93750
   0.86960,   0.84406,   0.93750,   0.93750,  -0.93750,   0.93750,   0.64417,  -0.71463,   0.32888,  -0.79971
  -0.82219,   0.93750,   0.77566,  -0.43550,  -0.60587,   0.81058,   0.36727,  -0.64979,  -0.62305,  -0.93750
  -0.68912,  -0.93750,   0.00994,  -0.18923,   0.52545,   0.68546,   0.74993,   0.38241,  -0.75047,  -0.15209
  -0.39071,   0.45938,  -0.25400,  -0.23611,   0.76570,  -0.28545,  -0.50734,   0.37664,  -0.55686,   0.42188
   0.49628,  -0.62012,   0.11706,   0.52555,  -0.93750,  -0.80842,  -0.46355,   0.16814,  -0.80652,  -0.38743
  -0.93750,   0.93750,  -0.61757,  -0.60663,  -0.93750,  -0.93750,  -0.93750,  -0.93750,  -0.93750,  -0.45796
   0.26405,   0.33988,   0.93750,   0.02901,  -0.54858,   0.93750,  -0.05479,   0.75464,   0.46507,  -0.64098
  -0.61609,   0.87186,   0.93618,   0.81180,  -0.33472,   0.22367,   0.93750,  -0.56695,   0.26784,   0.93750
   0.08364,   0.11626,   0.87251,   0.04468,  -0.83688,  -0.67741,   0.39205,  -0.89292,  -0.08819,  -0.44717
   0.65810,   0.90456,  -0.93750,  -0.73401,   0.10996,   0.86308,  -0.86703,   0.39389,   0.65816,  -0.80863
   0.52114,  -0.55138,   0.75825,  -0.58405,   0.86594,  -0.67978,  -0.41308,   0.39897,  -0.22202,   0.93612
   0.93750,  -0.41090,   0.03912,  -0.93750,  -0.08264,   0.24414,  -0.42021,  -0.24921,  -0.83862,  -0.54345
   0.15428,   0.93750,   0.82089,  -0.51835,   0.85248,  -0.55767,  -0.87345,  -0.31651,  -0.87341,   0.06495
  -0.67978,  -0.47641,   0.93378,  -0.60484,  -0.45723,   0.70478,  -0.27583,  -0.36744,  -0.49463,   0.14626
   0.93750,  -0.62698,   0.01968,  -0.90602,  -0.62749,  -0.76359,   0.02167,  -0.10719,  -0.63927,   0.73122
   0.82449,  -0.87401,   0.87749,   0.87766,   0.93750,  -0.93750,  -0.67071,   0.82193,   0.86423,   0.93750
   0.10393,   0.65842,   0.67171,  -0.21120,   0.46245,   0.56104,  -0.22868,  -0.35939,   0.38935,  -0.57961
   0.93750,   0.93750,  -0.17111,   0.09568,  -0.77791,  -0.38234,   0.93750,   0.93750,  -0.82569,  -0.56611
   0.38078,   0.86927,   0.20733,  -0.73972,  -0.46624,  -0.10715,   0.71627,  -0.33310,   0.57828,   0.91477
   0.56971,   0.88311,  -0.25757,  -0.69974,  -0.30972,   0.58336,   0.88144,   0.67383,  -0.76725,  -0.10036
   0.93750,  -0.87384,   0.77716,   0.39849,   0.86012,   0.82729,  -0.93750,  -0.51266,   0.26149,  -0.39203
   0.28603,  -0.20635,  -0.21228,  -0.69051,  -0.14985,   0.93750,  -0.40990,  -0.03971,  -0.01230,   0.03048
  -0.63222,   0.43779,   0.88769,   0.11572,  -0.87724,   0.14994,   0.25177,   0.80336,   0.19024,  -0.30663
   0.45023,   0.57325,  -0.12701,  -0.51416,  -0.02450,   0.74537,   0.90028,   0.67138,  -0.70761,   0.05485
   0.42719,   0.87473,  -0.58126,   0.56623,   0.93750,  -0.86353,  -0.93750,  -0.43575,   0.40597,   0.93750
   0.54854,  -0.64146,   0.03324,   0.14637,  -0.93750,   0.72282,   0.06822,   0.86211,   0.39849,  -0.12994
   0.30555,  -0.20348,  -0.39244,   0.35089,   0.92697,   0.39498,  -0.23464,  -0.14745,   0.08619,   0.59113
   0.02627,   0.19201,   0.93750,   0.13184,  -0.71459,  -0.80761,  -0.80962,  -0.01848,  -0.43858,  -0.24180
   0.70096,  -0.82466,   0.51744,   0.33213,   0.90356,  -0.68969,  -0.87186,  -0.87799,  -0.00569,   0.25193
  -0.77946,   0.17031,   0.14658,  -0.70604,  -0.87787,  -0.55837,   0.75452,  -0.85996,  -0.04083,  -0.93750
   0.92799,  -0.74255,  -0.32764,  -0.31492,   0.67616,  -0.27451,   0.50935,   0.55643,  -0.25924,  -0.93343
   0.93750,   0.71808,   0.58318,  -0.63583,  -0.29035,   0.63881,   0.64446,   0.06778,   0.23609,   0.76811
  -0.30689,   0.93750,  -0.28172,   0.58240,  -0.68482,  -0.73248,   0.93750,  -0.83973,  -0.72804,  -0.36244
   0.39418,   0.11729,  -0.81372,  -0.87584,  -0.20514,  -0.39348,   0.21024,   0.30161,  -0.01091,   0.93750
  -0.93750,  -0.93750,   0.16831,   0.58546,  -0.93750,   0.66662,  -0.93750,   0.93750,  -0.25764,  -0.93750
   0.80661,  -0.45588,  -0.87348,   0.45355,   0.93750,  -0.35128,  -0.63532,   0.80021,   0.20394,   0.76384
  -0.63338,   0.21058,  -0.80481,  -0.33951,   0.28136,   0.90342,   0.70985,   0.51540,  -0.52950,  -0.25278
   0.38412,   0.87515,  -0.04254,  -0.55805,   0.93750,   0.03143,  -0.57265,   0.93750,   0.29071,   0.63517
   0.10467,   0.83306,   0.00910,   0.65013,   0.59343,   0.57874,   0.21987,   0.31340,   0.28281,  -0.47348
   0.77114,  -0.36832,   0.93750,  -0.33068,   0.37193,   0.47255,  -0.69714,  -0.68550,   0.42708,  -0.80342
  -0.06858,   0.32906,   0.93750,   0.09882,   0.08243,  -0.55697,  -0.45430,  -0.18628,   0.57220,   0.36445
  -0.93750,  -0.91096,   0.09196,  -0.05319,   0.86816,   0.87732,   0.81418,   0.70631,   0.10455,   0.69110
   0.93750,  -0.13733,   0.19782,  -0.82378,  -0.75028,   0.44007,  -0.80522,  -0.00689,   0.54363,  -0.37659
   0.43267,   0.73284,   0.70810,  -0.49640,   0.58545,   0.51340,   0.61378,  -0.93750,   0.88160,  -0.53927
   0.73339,   0.81735,   0.28104,  -0.65105,  -0.04922,  -0.93559,  -0.37218,   0.12410,  -0.80883,  -0.41623
  -0.93750,   0.22946,   0.68845,   0.11462,  -0.06016,   0.05514,  -0.93750,  -0.45270,  -0.70856,  -0.04441
   0.42548,   0.70888,  -0.49179,  -0.08909,  -0.62379,   0.45966,   0.07982,  -0.42492,   0.34405,  -0.11317
  -0.26461,   0.93750,  -0.29594,  -0.12190,  -0.13850,  -0.39929,   0.93750,   0.08212,   0.29741,  -0.56609
   0.93750,  -0.35353,  -0.93750,   0.43586,   0.48528,  -0.93750,  -0.22259,  -0.93750,   0.07548,  -0.93750
   0.26430,   0.37388,  -0.50176,  -0.02446,  -0.27011,  -0.46828,   0.76980,   0.55505,   0.29513,   0.53765
   0.19994,   0.57435,  -0.71613,  -0.04945,  -0.04029,   0.39561,  -0.39597,   0.68823,  -0.04923,  -0.20642
   0.41618,  -0.38890,  -0.81273,  -0.67350,   0.11274,  -0.69615,   0.87459,  -0.62625,   0.50752,   0.50837
   0.87220,  -0.87860,  -0.10545,  -0.69283,   0.24512,   0.93750,  -0.37465,  -0.93750,  -0.88081,  -0.58297
   0.93750,  -0.29328,   0.93750,   0.09192,  -0.93709,   0.20309,   0.93750,  -0.93750,   0.93750,  -0.79542
   0.22952,   0.87993,   0.07025,  -0.93750,   0.63312,   0.12882,   0.06211,   0.80306,  -0.20927,  -0.93750
   0.59403,  -0.20088,  -0.72189,   0.82736,   0.00690,   0.74831,  -0.62479,   0.83249,  -0.19181,  -0.46394
   0.80791,  -0.20073,  -0.92521,   0.30610,   0.81429,   0.25145,  -0.16081,  -0.24144,  -0.67461,   0.21007
   0.08599,  -0.11273,   0.86371,  -0.50950,  -0.47370,   0.68663,   0.17568,  -0.61094,  -0.66007,   0.49574
  -0.19059,  -0.36012,   0.54784,  -0.85603,  -0.57646,   0.64642,   0.40339,  -0.63034,   0.28006,  -0.36169
   0.06892,  -0.60020,  -0.45108,  -0.36378,  -0.48186,   0.80647,   0.79672,  -0.62069,  -0.03247,  -0.48169
  -0.28451,   0.87789,  -0.93750,   0.01278,  -0.70214,  -0.61513,  -0.29577,   0.27888,  -0.30077,  -0.74696
  -0.05299,   0.37435,  -0.75336,  -0.79653,  -0.72486,  -0.43023,   0.93450,  -0.31964,  -0.15821,  -0.34805
   0.64913,   0.63154,  -0.69544,   0.87417,   0.85191,  -0.42337,  -0.01536,   0.23354,   0.81786,  -0.14621
   0.02820,   0.15155,  -0.58985,  -0.44867,   0.59589,  -0.13668,   0.84022,   0.86684,  -0.31368,   0.20671
   0.09786,  -0.93139,   0.17076,   0.48029,  -0.87797,   0.86741,  -0.87582,  -0.93750,  -0.93750,  -0.93750
   0.02529,   0.73862,   0.93750,   0.19771,  -0.31313,   0.31493,   0.36438,   0.26738,  -0.43801,  -0.93750
  -0.12973,  -0.14606,  -0.78083,  -0.67537,   0.24162,   0.92402,   0.40416,  -0.48199,  -0.00179,   0.33485
   0.72829,   0.05359,   0.20752,  -0.12890,   0.93498,  -0.14935,  -0.27748,   0.78216,  -0.52470,  -0.50982
  -0.79105,   0.61104,   0.74009,  -0.63098,   0.81498,   0.47503,  -0.25847,  -0.46264,   0.07428,  -0.22635
   0.48699,  -0.06111,  -0.67830,   0.93750,  -0.93750,   0.34135,   0.93750,  -0.93750,   0.59619,   0.47436
   0.03855,   0.46670,  -0.15406,   0.75421,  -0.20775,  -0.23906,  -0.88300,  -0.38431,  -0.59348,  -0.10940
  -0.59348,   0.35963,  -0.59110,   0.76351,   0.39033,  -0.06844,  -0.21856,   0.05950,  -0.87140,  -0.82815
   0.06046,   0.27245,   0.56137,  -0.31231,   0.33662,  -0.18047,  -0.55224,  -0.24302,   0.72611,   0.39179
  -0.52824,  -0.71668,   0.01235,   0.59639,   0.37093,   0.80352,   0.88560,   0.93750,  -0.25232,  -0.72841
  -0.26716,  -0.57285,   0.69031,  -0.93750,   0.07073,  -0.64009,  -0.54710,   0.93750,  -0.75563,   0.76187
   0.88927,   0.56908,  -0.85541,   0.74734,   0.86994,   0.18967,  -0.88074,  -0.48163,  -0.61738,   0.93750
  -0.81126,  -0.62829,   0.71784,   0.73920,  -0.49601,  -0.80962,  -0.51370,   0.49595,   0.82276,  -0.19876
   0.41043,   0.23856,  -0.43796,  -0.59561,  -0.49232,   0.93750,  -0.82087,  -0.38892,   0.10260,  -0.01412
  -0.92016,  -0.29844,  -0.56528,  -0.58707,   0.93750,   0.00328,  -0.68080,  -0.26309,  -0.40889,  -0.43157
  -0.46960,  -0.61551,   0.52557,   0.72090,  -0.51622,   0.73154,   0.83905,  -0.06958,  -0.23854,  -0.60173
   0.20349,   0.08095,   0.50182,   0.75437,   0.11904,   0.52890,  -0.53029,   0.85686,  -0.31700,   0.34149
   0.56726,  -0.01523,  -0.51380,   0.71888,  -0.08937,   0.19714,  -0.42830,   0.47462,   0.11005,   0.70513
  -0.12538,   0.83042,   0.93750,  -0.86938,   0.36748,  -0.51634,  -0.93750,  -0.25579,  -0.81879,   0.93750
  -0.93750,  -0.93750,  -0.80605,   0.93750,   0.93750,  -0.16755,  -0.61777,  -0.93750,   0.35347,   0.84858
  -0.39719,  -0.13586,  -0.76513,  -0.32260,   0.93750,   0.42472,  -0.91728,  -0.33950,  -0.02659,  -0.55219
   0.75348,   0.77295,   0.93750,  -0.83350,   0.86082,   0.43409,   0.68619,  -0.15578,  -0.87251,  -0.93750
   0.93750,   0.23932,   0.74250,  -0.92360,   0.93750,   0.47303,   0.93750,   0.24809,   0.60475,   0.93750
  -0.50006,  -0.30806,   0.32644,   0.74485,  -0.29377,  -0.33730,  -0.69863,  -0.47340,   0.93750,  -0.67166
  -0.47126,  -0.43286,  -0.64375,   0.29925,   0.78791,  -0.61537,  -0.19526,   0.81592,   0.61208,   0.00801
  -0.30917,   0.87007,   0.55783,   0.87444,  -0.80708,   0.81145,  -0.64228,   0.87251,   0.20077,  -0.74500
  -0.66704,   0.20380,   0.93750,  -0.23256,  -0.73930,  -0.01301,  -0.81036,   0.00803,   0.57190,   0.41392
   0.39570,  -0.88488,   0.69222,  -0.64062,  -0.34006,   0.93335,   0.28147,   0.02938,   0.14064,  -0.40034
  -0.15079,   0.93750,  -0.50710,  -0.05651,   0.93750,  -0.74669,  -0.81794,  -0.81049,  -0.90152,   0.93750
   0.01153,  -0.04362,  -0.90309,   0.93625,   0.89586,   0.85289,  -0.36208,   0.93750,   0.80683,  -0.62914
  -0.62768,   0.93750,  -0.09877,   0.93750,  -0.64394,   0.47202,   0.16647,  -0.50533,   0.54745,  -0.80518
   0.93750,  -0.56115,   0.93750,   0.20059,  -0.34238,  -0.27998,  -0.93090,  -0.06986,  -0.88295,  -0.93750
  -0.46087,  -0.93359,   0.30788,  -0.07497,  -0.93070,  -0.57836,  -0.79080,   0.93750,   0.34229,   0.26300
  -0.50636,   0.80776,   0.38767,  -0.54999,  -0.00442,   0.05940,   0.38705,  -0.91641,   0.60230,  -0.65015
  -0.75414,  -0.35550,  -0.30720,   0.93750,  -0.55956,  -0.86764,  -0.23743,   0.46125,   0.22459,  -0.23756
  -0.22106,  -0.88166,   0.93750,  -0.31133,  -0.44510,  -0.79736,   0.88162,  -0.35541,  -0.71856,   0.50246
  -0.68563,  -0.45710,   0.88444,  -0.19640,  -0.85971,   0.51893,  -0.36280,   0.93750,  -0.57035,   0.93750
  -0.80518,   0.35157,   0.81362,   0.42063,  -0.16690,  -0.26607,   0.93750,   0.75914,  -0.25327,   0.81832
  -0.29973,  -0.11252,   0.80028,  -0.14165,   0.08622,   0.62774,  -0.09861,   0.58012,   0.16625,   0.93750
   0.43364,   0.27742,  -0.45232,   0.88022,  -0.27866,  -0.88263,  -0.13934,  -0.30924,   0.82405,  -0.14088
   0.03356,   0.08919,  -0.85579,  -0.46816,  -0.79958,   0.20640,   0.65203,  -0.30467,  -0.23973,  -0.28683
  -0.44484,  -0.37367,  -0.70880,  -0.19658,   0.03225,   0.65043,  -0.63671,  -0.40369,   0.93750,  -0.30651
   0.37902,  -0.93750,   0.09225,   0.64274,  -0.06858,   0.30707,   0.80714,   0.10776,  -0.82744,   0.31391
  -0.81389,  -0.19838,   0.10012,  -0.76149,   0.93750,  -0.87062,   0.09824,  -0.87928,  -0.05820,   0.79610
   0.89717,  -0.38738,  -0.39678,  -0.93750,  -0.30809,   0.93750,  -0.69653,   0.17138,  -0.01054,   0.50839
   0.07930,  -0.19474,  -0.86427,   0.03289,   0.93097,   0.74047,   0.41743,   0.41872,  -0.73018,  -0.03154
  -0.22022,  -0.75822,  -0.55559,  -0.93750,  -0.21709,   0.81374,   0.56572,  -0.70387,   0.07866,  -0.88404
  -0.91068,  -0.69379,   0.31126,   0.64180,  -0.93750,   0.93750,  -0.62754,  -0.69676,  -0.54184,   0.32799
   0.50548,   0.30649,  -0.56175,  -0.65443,  -0.53585,  -0.06199,  -0.58213,   0.57937,   0.93750,   0.43773
  -0.70280,  -0.05282,  -0.69210,  -0.82641,  -0.79812,   0.89108,  -0.86857,   0.92537,   0.33710,   0.86862
   0.32146,  -0.22851,   0.93750,  -0.30137,  -0.30243,  -0.74797,  -0.48638,  -0.34083,  -0.03451,   0.11536
   0.10766,  -0.73013,  -0.68465,  -0.80499,   0.93750,  -0.04182,  -0.00364,  -0.52092,  -0.15973,   0.92180
  -0.10397,   0.20076,  -0.35343,   0.50068,  -0.52692,   0.92475,  -0.74849,  -0.32711,  -0.11096,  -0.25760
   0.93750,   0.07046,  -0.62668,   0.42338,  -0.87648,  -0.09485,  -0.88287,   0.08410,  -0.54186,   0.30264
   0.14531,   0.93750,  -0.38252,   0.44091,  -0.87969,   0.93750,   0.83446,  -0.76023,   0.43942,   0.85016
   0.13007,   0.79376,  -0.31409,   0.54132,  -0.31627,  -0.05731,  -0.59346,   0.29725,  -0.69052,   0.82245
  -0.40194,  -0.15232,  -0.24029,   0.93750,  -0.55529,  -0.71332,  -0.37529,  -0.04901,   0.93404,  -0.59870
  -0.93750,  -0.79456,  -0.26160,  -0.05281,  -0.76388,   0.81035,   0.93750,   0.87611,  -0.92069,  -0.87398
  -0.39302,   0.02131,  -0.88293,   0.87479,  -0.08671,  -0.81081,  -0.93750,   0.17242,   0.87126,   0.00774
  -0.10597,  -0.07433,   0.10492,  -0.34257,   0.93750,  -0.84044,   0.84375,  -0.67983,   0.13995,   0.58476
   0.09384,  -0.00717,  -0.74730,  -0.24962,   0.23176,   0.43473,  -0.81926,   0.59598,  -0.52353,   0.66177
  -0.80368,   0.93601,  -0.65078,   0.18535,   0.73149,  -0.41016,  -0.34877,   0.56311,  -0.53380,  -0.91686
   0.60930,   0.19550,  -0.64709,  -0.86126,   0.80223,  -0.62526,   0.93750,  -0.14089,  -0.41606,  -0.26865
   0.87745,  -0.15417,  -0.81965,   0.93750,   0.67911,   0.42075,  -0.03331,  -0.53538,  -0.66771,  -0.70171
   0.88612,  -0.11609,  -0.25771,   0.87760,  -0.49086,  -0.81333,   0.71941,  -0.81323,  -0.20774,  -0.16676
   0.44567,  -0.75961,  -0.49134,  -0.63657,   0.08073,   0.47304,  -0.64573,  -0.73379,  -0.58828,   0.60565
  -0.88012,  -0.61794,   0.64270,   0.74090,  -0.29655,   0.08025,   0.34716,  -0.27228,   0.44743,   0.49794
   0.44430,   0.69734,   0.40425,  -0.70653,  -0.43739,   0.06708,  -0.42375,   0.88901,  -0.37813,   0.84408
   0.31881,  -0.86740,  -0.87258,   0.93750,   0.05984,   0.76504,  -0.87562,  -0.37655,  -0.68992,   0.62148
   0.56357,  -0.93750,   0.93750,  -0.87932,   0.11838,  -0.82989,   0.74958,   0.82829,   0.85802,  -0.93750
   0.64640,  -0.80596,   0.93750,  -0.80793,   0.14191,  -0.43975,   0.75737,  -0.23855,   0.14545,  -0.62578
  -0.12690,  -0.66058,  -0.82562,   0.93750,  -0.86361,   0.18005,  -0.03984,  -0.54125,  -0.38947,   0.93750
  -0.33167,  -0.74456,   0.40899,   0.74947,  -0.80357,  -0.28891,  -0.48590,   0.93750,   0.12481,  -0.85200
   0.59389,   0.14845,  -0.72602,  -0.34296,   0.42692,  -0.04036,   0.50251,   0.60891,   0.24345,   0.28584
  -0.22627,   0.93750,  -0.54704,  -0.50321,   0.00470,  -0.55196,  -0.41701,  -0.51815,  -0.72929,  -0.86064
  -0.21215,  -0.06942,   0.26513,   0.55148,   0.52878,  -0.20542,   0.20226,   0.56144,   0.16845,   0.49355
  -0.26428,   0.87500,   0.81137,   0.00609,  -0.57649,  -0.30927,   0.44987,  -0.57293,  -0.04345,  -0.74461
   0.44578,   0.26544,   0.14177,   0.48282,  -0.35226,  -0.57763,  -0.13071,   0.93750,  -0.21769,   0.18332
   0.53786,   0.04884,   0.47533,  -0.61182,  -0.06343,   0.93750,   0.05115,  -0.33195,   0.87445,  -0.08030
   0.51507,  -0.47301,  -0.50413,  -0.79209,  -0.03357,   0.84237,   0.93750,  -0.35892,  -0.68915,  -0.78207
  -0.46361,   0.92010,  -0.79171,  -0.08690,   0.06906,  -0.17613,  -0.53037,   0.00649,  -0.61809,   0.93750
  -0.47258,   0.84894,  -0.15358,  -0.32872,  -0.11787,   0.04698,   0.86774,  -0.07640,  -0.12935,   0.86384
   0.28132,  -0.76279,  -0.17592,  -0.54166,   0.93750,   0.93750,  -0.01686,  -0.65142,   0.77611,   0.62191
  -0.75721,  -0.87751,  -0.47040,  -0.08189,  -0.24410,  -0.48765,  -0.07520,   0.28010,   0.93502,  -0.07064
   0.17203,   0.78703,   0.15797,  -0.37304,  -0.22674,   0.23011,  -0.15505,   0.06473,   0.37006,   0.61256
   0.31147,  -0.18793,  -0.68559,  -0.80038,   0.93750,   0.87863,  -0.83517,  -0.51850,  -0.29630,   0.93750
   0.93750,   0.71903,  -0.61904,   0.93750,  -0.87548,   0.31913,  -0.87876,  -0.22910,  -0.82167,  -0.12395
   0.93750,   0.93750,  -0.03922,   0.93594,  -0.87172,  -0.14111,  -0.03921,   0.68125,  -0.81489,   0.93750
   0.36890,  -0.93750,   0.93750,  -0.70121,   0.21150,  -0.54320,  -0.62994,   0.53820,   0.75544,  -0.73598
  -0.42601,   0.75242,   0.93750,   0.93750,   0.40414,   0.28837,  -0.83622,  -0.25679,   0.81128,  -0.43399
   0.34520,  -0.87212,   0.69358,  -0.55366,   0.82719,   0.13698,   0.01446,   0.87068,   0.36590,   0.47969
  -0.91526,   0.27865,   0.87081,  -0.33407,   0.87086,  -0.86113,  -0.46809,  -0.16563,  -0.31939,   0.28722
  -0.71538,   0.91230,  -0.93750,   0.73701,   0.93750,  -0.87206,  -0.79087,   0.48179,  -0.91562,   0.87677
   0.17956,   0.27963,  -0.05594,   0.39092,   0.04577,   0.58978,  -0.93750,   0.13903,   0.14434,   0.70012
   0.93750,   0.23219,   0.84747,  -0.02131,   0.93750,   0.66204,  -0.60105,   0.91578,  -0.06571,  -0.69298
  -0.79822,   0.53857,  -0.57038,  -0.04306,   0.93750,   0.77800,  -0.93750,  -0.93750,  -0.87950,   0.93750
  -0.88042,  -0.00752,  -0.06536,  -0.19712,  -0.62044,   0.01602,  -0.87053,   0.22214,  -0.93750,  -0.58112
   0.59015,   0.14919,   0.75261,  -0.17637,   0.76146,   0.15247,   0.04428,  -0.54469,  -0.35565,  -0.60660
  -0.72612,  -0.93750,   0.78277,   0.69320,   0.12933,   0.59638,   0.04688,  -0.57233,  -0.18083,   0.35724
   0.01812,  -0.79154,   0.59747,   0.69066,  -0.05850,  -0.40754,   0.18696,  -0.66136,   0.18854,  -0.74205
  -0.38596,   0.01049,  -0.64935,  -0.76846,  -0.30358,   0.86280,   0.50489,   0.13838,   0.09714,   0.55525
  -0.50167,  -0.87117,   0.00177,   0.38687,  -0.93750,  -0.80308,  -0.80641,   0.87672,  -0.33630,   0.72596
   0.63181,   0.28870,  -0.93750,  -0.13147,  -0.80754,   0.10213,   0.08866,   0.88727,  -0.38170,   0.55345
  -0.87253,  -0.40116,   0.06051,  -0.11911,   0.65091,  -0.90562,  -0.68922,   0.87182,  -0.19339,   0.59233
  -0.61836,   0.10463,   0.12170,  -0.43854,   0.60071,  -0.82208,  -0.06344,  -0.78351,   0.16369,   0.89916
   0.30634,  -0.35621,  -0.29484,   0.69481,   0.72569,   0.93750,  -0.63452,   0.05549,  -0.71480,  -0.45649
  -0.70654,   0.93750,   0.26572,  -0.32872,   0.39406,  -0.93550,  -0.71481,  -0.74736,  -0.38139,  -0.45625
   0.16045,   0.20403,   0.93750,   0.93750,  -0.39729,  -0.82002,  -0.82707,  -0.06045,  -0.20936,  -0.09918
  -0.16830,  -0.74422,   0.00912,   0.17709,  -0.39807,   0.70790,  -0.42011,   0.93750,   0.63230,   0.12588
   0.04546,  -0.80199,   0.61262,  -0.11900,  -0.42917,  -0.55957,  -0.38397,  -0.36825,  -0.21477,   0.93744
  -0.87896,   0.53960,  -0.87276,  -0.35828,  -0.88766,   0.93750,   0.23206,   0.01825,   0.87291,  -0.29409
  -0.93750,  -0.93750,  -0.44776,   0.07483,   0.93750,   0.93750,   0.59681,  -0.76352,  -0.51835,  -0.17754
   0.90253,   0.18658,  -0.51514,   0.71257,   0.93750,  -0.67484,  -0.82482,   0.30369,   0.87198,   0.11978
   0.18890,   0.87170,   0.68157,   0.44511,  -0.47256,   0.87633,   0.41616,  -0.30764,  -0.81699,  -0.93211
  -0.01682,   0.93750,  -0.73032,   0.48270,   0.09791,   0.17184,  -0.12787,  -0.03095,   0.14030,  -0.92712
