  -0.58776,  -0.73992,  -0.30200,  -0.89350,  -0.19557,  -0.85595,  -0.91465,  -0.18355,   0.03037,  -0.88137,  -0.58342,   0.10130,  -0.93689,  -0.79399,  -0.78533,  -0.75830,  -0.56663,  -0.16154,  -0.12178,  -0.65564,  -0.22699,  -0.30425,  -0.70688,  -0.72211,  -0.74389,  -0.52852,  -0.71627,  -0.61116,  -0.80941,  -0.26881,   0.00934,  -0.74198,   0.29695,   0.31247,  -0.81740,   0.79019,   0.65874,  -0.64052,  -0.68336,  -0.86294,  -0.93750,  -0.83947,  -0.41720,  -0.64768,  -0.03015,  -0.89005,  -0.55643,  -0.53281,  -0.91463,  -0.27768,  -0.15975,  -0.35543,  -0.44473,  -0.12564,  -0.07420,  -0.30219,  -0.33785,  -0.93750,   0.44948,   0.20975,  -0.34385,  -0.93750,  -0.63085,   0.40489,  -0.87305,  -0.68798,  -0.23039,  -0.31841,  -0.19312,  -0.58976,  -0.13802,  -0.83879,   0.27295,   0.38384,  -0.86936,  -0.77556,  -0.88966,  -0.19057,  -0.83967,  -0.72551,   0.49344,  -0.07620,  -0.54585,  -0.26505
  -0.91200,  -0.69037,  -0.46743,  -0.58759,  -0.35487,   0.88081,  -0.77953,  -0.76007,  -0.51436,   0.04677,  -0.83084,  -0.50559,   0.36317,  -0.60709,  -0.69929,  -0.58566,  -0.55081,   0.05055,  -0.56110,  -0.39633,  -0.46163,  -0.27783,  -0.80095,  -0.15666,  -0.24083,  -0.65662,  -0.69389,  -0.68906,  -0.93750,  -0.81124,  -0.53140,   0.21785,  -0.60940,  -0.11133,  -0.38335,  -0.09649,  -0.33596,  -0.46531,  -0.69949,  -0.08761,  -0.75592,   0.67746,  -0.67170,  -0.69568,  -0.47003,  -0.81814,  -0.32737,  -0.41955,  -0.20176,  -0.29397,   0.00404,  -0.92778,  -0.37711,  -0.82445,  -0.79307,  -0.79423,  -0.44371,  -0.40210,  -0.67872,  -0.76800,   0.48986,  -0.91605,  -0.44548,  -0.31221,   0.08147,  -0.60764,  -0.71213,  -0.00041,  -0.42147,   0.27761,  -0.54074,  -0.32955,   0.30579,   0.26108,  -0.56313,   0.17665,   0.58946,  -0.35786,   0.50372,   0.00309,  -0.35395,  -0.27507,  -0.73612,  -0.86590
  -0.80487,  -0.72991,  -0.69044,  -0.17570,  -0.23949,  -0.39295,  -0.22801,  -0.74245,  -0.65227,  -0.44340,   0.06160,  -0.43641,  -0.40374,   0.21697,  -0.43969,  -0.39555,   0.22064,  -0.93750,  -0.61659,  -0.93750,  -0.75803,   0.12034,   0.37017,  -0.37866,  -0.82383,  -0.42584,  -0.36376,   0.30226,   0.39317,   0.38553,  -0.79175,   0.81764,  -0.64111,  -0.62857,  -0.77571,  -0.35741,  -0.35477,  -0.53623,   0.08834,  -0.10718,  -0.87759,  -0.84687,   0.41968,   0.41443,  -0.81726,  -0.58536,   0.31816,  -0.35633,  -0.43525,  -0.93750,  -0.70589,   0.50694,  -0.93750,  -0.64732,  -0.60386,  -0.46625,  -0.88800,   0.53782,  -0.03771,  -0.71334,  -0.66028,  -0.93750,  -0.79659,  -0.75654,  -0.83661,   0.29028,   0.18031,  -0.22084,   0.58514,  -0.88788,  -0.73218,  -0.80179,  -0.81495,  -0.43581,  -0.47030,   0.74608,  -0.93750,  -0.50738,  -0.26173,  -0.32550,  -0.33565,  -0.93750,   0.34491,  -0.88483
  -0.89908,  -0.44687,   0.87113,  -0.92221,   0.82261,  -0.79506,  -0.87204,  -0.07610,  -0.82029,  -0.00180,  -0.93750,   0.01643,  -0.93750,  -0.86447,  -0.82903,   0.68547,   0.22025,  -0.03584,  -0.93750,  -0.91114,  -0.81463,   0.69250,   0.35567,  -0.93750,   0.71472,  -0.87879,  -0.76661,  -0.46453,  -0.92429,  -0.36287,   0.08409,   0.33741,  -0.74909,  -0.68946,  -0.88713,  -0.93750,  -0.79747,  -0.29802,   0.83478,   0.39093,  -0.82374,  -0.86745,   0.61379,  -0.60472,  -0.15274,  -0.66689,  -0.68424,   0.50212,   0.50948,  -0.93750,   0.15812,  -0.15750,   0.29690,  -0.29533,   0.47570,   0.37618,  -0.03293,  -0.80732,   0.88618,   0.01673,  -0.16137,  -0.78136,  -0.47206,  -0.50243,   0.12631,   0.29573,  -0.79895,  -0.46274,   0.14232,  -0.87905,  -0.13457,   0.18115,  -0.34679,  -0.86279,  -0.93750,  -0.81923,  -0.93750,   0.49336,   0.03975,   0.83679,  -0.92266,   0.34621,   0.93750,  -0.93750
  -0.85569,  -0.67493,   0.87380,   0.48484,   0.48620,  -0.79897,  -0.26353,   0.50837,   0.61004,  -0.37499,  -0.68581,  -0.06313,  -0.93228,  -0.93750,  -0.92384,   0.21503,   0.89467,  -0.14260,  -0.32060,  -0.79820,  -0.87586,  -0.32025,  -0.35125,  -0.88120,   0.76349,  -0.80595,  -0.78036,  -0.27857,  -0.82067,  -0.85794,   0.72509,  -0.92755,  -0.23210,  -0.87431,  -0.86986,  -0.77963,  -0.59066,   0.59616,  -0.33902,   0.56265,   0.23769,  -0.90506,   0.93750,   0.50606,  -0.84463,  -0.63643,  -0.68577,   0.37084,  -0.79568,  -0.93750,   0.79109,  -0.93750,  -0.71144,  -0.93750,   0.19436,   0.57714,   0.40049,  -0.93750,   0.86289,   0.80864,  -0.42697,  -0.89518,   0.80900,  -0.43608,  -0.88148,   0.36483,  -0.93750,  -0.67939,  -0.44712,  -0.54694,   0.39919,  -0.65722,   0.31907,   0.61777,   0.25804,  -0.93750,  -0.93750,   0.86868,  -0.62782,   0.37622,  -0.83913,  -0.92284,  -0.19940,   0.07956
  -0.65567,  -0.91278,   0.00730,  -0.92305,  -0.54394,  -0.66977,  -0.82119,  -0.17676,  -0.88251,  -0.87196,  -0.56348,  -0.19038,  -0.69964,  -0.49757,  -0.87937,  -0.86529,  -0.44721,  -0.42894,  -0.15528,  -0.82219,  -0.48018,  -0.25147,  -0.89148,  -0.93752,   0.23706,   0.50493,  -0.81767,  -0.70200,  -0.63491,  -0.72857,   0.56298,  -0.75679,   0.52437,  -0.01853,  -0.68336,   0.55211,   0.44830,  -0.78648,  -0.39826,  -0.93535,  -0.79072,  -0.26987,  -0.52550,  -0.82633,  -0.05096,  -0.81911,  -0.87319,  -0.71473,  -0.80517,  -0.22154,   0.01146,  -0.77981,  -0.56924,  -0.62923,  -0.21146,  -0.53801,  -0.05604,  -0.73916,  -0.66059,  -0.40168,   0.08614,  -0.76208,  -0.79195,  -0.70478,  -0.47472,  -0.63548,  -0.89024,   0.14958,  -0.69016,  -0.72783,  -0.25908,  -0.73794,  -0.03495,   0.00544,  -0.93750,  -0.55551,  -0.91641,  -0.23536,  -0.43231,  -0.61915,   0.36553,  -0.19773,  -0.31389,  -0.85932
  -0.76198,  -0.80693,  -0.20447,  -0.62514,   0.52961,   0.10090,  -0.73237,  -0.76650,   0.26162,  -0.43142,  -0.84776,  -0.12283,  -0.61378,  -0.87254,  -0.64047,  -0.44610,   0.12764,  -0.55037,  -0.46192,  -0.46152,  -0.81646,  -0.16824,  -0.59379,  -0.65155,   0.66074,  -0.59548,  -0.11500,  -0.90287,  -0.61400,  -0.88129,  -0.45856,  -0.59890,   0.36970,  -0.05115,  -0.28400,   0.08491,   0.18354,  -0.83175,  -0.68840,  -0.85363,  -0.81064,  -0.30767,  -0.32667,  -0.79755,   0.92153,  -0.67229,  -0.61827,  -0.92729,  -0.86497,  -0.81235,  -0.42512,  -0.49658,  -0.39592,  -0.34549,  -0.53940,  -0.63409,   0.87953,  -0.57461,   0.03119,  -0.72174,  -0.91601,  -0.93750,  -0.67894,  -0.68720,  -0.93750,  -0.47367,  -0.72749,   0.14302,  -0.48036,  -0.37812,   0.31038,  -0.60493,  -0.64839,  -0.66695,  -0.81632,  -0.88172,  -0.55605,   0.23955,  -0.13107,  -0.81449,  -0.15125,  -0.17891,  -0.70389,  -0.60448
  -0.92866,  -0.25550,   0.85934,  -0.16560,   0.41452,   0.30084,  -0.93750,   0.87599,  -0.85024,  -0.82899,  -0.90287,   0.52079,   0.48066,  -0.83094,  -0.93750,   0.10632,   0.91514,  -0.87827,  -0.61980,  -0.88499,  -0.21116,  -0.77969,  -0.11317,  -0.93750,  -0.36774,  -0.59991,  -0.68478,   0.04085,  -0.94092,  -0.83612,   0.67200,  -0.81087,  -0.14954,  -0.19771,  -0.93001,  -0.81746,  -0.81177,  -0.84703,   0.93750,   0.34947,  -0.64177,  -0.86535,   0.59295,  -0.86410,  -0.71077,  -0.90499,  -0.74674,  -0.82373,   0.42204,  -0.79768,   0.42278,  -0.79469,  -0.14087,  -0.54595,   0.91195,   0.37565,  -0.14976,  -0.93750,  -0.03090,   0.75697,  -0.68985,  -0.93750,   0.80441,  -0.72202,  -0.93588,  -0.64221,   0.07784,  -0.29281,   0.53856,  -0.82211,   0.28379,  -0.91176,  -0.52486,  -0.56440,  -0.79488,  -0.90940,  -0.87113,   0.03700,  -0.90829,   0.21119,  -0.83578,  -0.62205,   0.87603,  -0.87805
  -0.10784,  -0.67899,  -0.62837,  -0.85298,  -0.51830,   0.80153,  -0.51269,  -0.31372,  -0.40186,  -0.83683,  -0.49572,  -0.31172,   0.75474,  -0.73253,  -0.79378,  -0.62742,  -0.69386,  -0.29022,  -0.17805,   0.39338,  -0.15296,  -0.81861,  -0.81482,  -0.52654,  -0.41341,   0.03571,   0.75124,   0.14198,  -0.93750,   0.50211,  -0.11926,  -0.06220,  -0.49573,   0.10785,   0.29246,  -0.34615,  -0.46662,  -0.81807,  -0.61363,  -0.50006,   0.38964,   0.85137,  -0.77968,  -0.56572,  -0.81084,  -0.34343,   0.33882,  -0.28521,  -0.25329,  -0.51477,  -0.77126,  -0.75350,   0.19738,  -0.75033,   0.17678,  -0.71418,  -0.43052,  -0.90482,  -0.72782,  -0.39109,  -0.80168,   0.81793,  -0.27040,  -0.39635,  -0.75573,  -0.04966,  -0.61807,  -0.57275,   0.08592,  -0.14986,   0.24340,  -0.49808,   0.37144,  -0.62801,  -0.40781,  -0.84910,   0.15574,  -0.74983,  -0.84072,  -0.47061,  -0.59068,   0.93075,  -0.26225,  -0.87826
  -0.87987,  -0.66608,   0.36221,   0.76041,  -0.81315,  -0.76598,   0.57132,  -0.05294,  -0.41093,  -0.79673,  -0.74033,   0.49961,  -0.73222,   0.60583,  -0.78252,  -0.49420,  -0.58081,  -0.93750,   0.31281,  -0.86748,  -0.50091,   0.87575,  -0.48081,  -0.78738,  -0.62124,  -0.72357,  -0.37304,   0.43809,   0.29884,  -0.08501,   0.10352,  -0.81973,  -0.74701,  -0.66407,  -0.52507,  -0.59152,  -0.74736,  -0.56559,   0.78303,  -0.48484,   0.36912,  -0.56895,   0.03700,  -0.65242,  -0.87500,   0.02886,  -0.23163,   0.81834,  -0.08830,   0.41228,  -0.44636,   0.30823,  -0.18891,  -0.87411,   0.21899,   0.91977,  -0.69616,  -0.39176,  -0.33579,   0.70859,   0.31512,   0.35084,   0.34110,  -0.41362,  -0.32754,  -0.02273,   0.89622,   0.80181,   0.30213,  -0.85362,  -0.29854,  -0.03082,  -0.84106,   0.05026,  -0.20860,  -0.92691,  -0.02099,  -0.19159,  -0.93750,   0.08822,  -0.50784,  -0.87950,   0.49819,  -0.89485
  -0.59716,   0.27319,  -0.58738,  -0.68507,  -0.63309,  -0.43105,   0.19874,  -0.79826,  -0.74124,  -0.60359,  -0.15376,  -0.59146,   0.45838,  -0.66853,  -0.71081,  -0.46887,  -0.63031,   0.48073,   0.06519,  -0.02331,  -0.19949,  -0.71670,  -0.21445,  -0.20969,  -0.65635,  -0.00657,  -0.70265,  -0.80284,   0.09430,  -0.92436,  -0.39926,  -0.00662,   0.09775,  -0.23304,  -0.17430,   0.35144,   0.35160,  -0.65889,  -0.71256,  -0.51028,  -0.54949,   0.29136,  -0.77543,  -0.37132,  -0.09309,  -0.54647,  -0.79219,  -0.89977,  -0.90689,  -0.21200,  -0.45920,  -0.68075,   0.72142,  -0.47787,  -0.71616,  -0.45838,  -0.40445,  -0.06300,  -0.47899,  -0.50217,  -0.76149,  -0.15391,  -0.70648,  -0.86551,  -0.90270,  -0.25023,  -0.52602,  -0.22588,  -0.74930,  -0.26694,  -0.45221,  -0.35830,  -0.47537,  -0.68342,  -0.83779,  -0.05657,   0.41531,  -0.56655,   0.56704,  -0.93366,  -0.51632,  -0.39519,  -0.70430,   0.30313
  -0.67331,  -0.02882,  -0.54048,   0.32198,  -0.28321,  -0.53699,  -0.82948,  -0.92625,  -0.80619,  -0.74963,  -0.04132,  -0.23155,   0.15748,  -0.75469,  -0.42336,   0.45546,  -0.24022,  -0.87254,  -0.77760,  -0.76716,  -0.83804,  -0.05404,  -0.15535,   0.01606,  -0.86093,  -0.33073,   0.49209,  -0.39702,   0.36514,  -0.84103,  -0.54937,  -0.29352,   0.60180,  -0.55980,  -0.03192,  -0.63773,  -0.49751,  -0.84409,   0.06812,  -0.54664,  -0.92802,  -0.72830,  -0.19075,   0.60968,   0.02908,   0.73608,   0.08770,  -0.77104,  -0.44448,  -0.88626,  -0.30061,   0.61221,  -0.78132,  -0.64505,  -0.19147,  -0.62222,  -0.21598,  -0.56107,   0.33969,  -0.81516,  -0.93750,  -0.21281,  -0.87290,   0.04971,   0.45464,  -0.00931,  -0.72332,  -0.52730,  -0.17155,  -0.73921,  -0.50126,  -0.44117,  -0.82211,  -0.81400,  -0.80118,   0.55110,   0.12089,  -0.31166,  -0.13393,  -0.85171,   0.71354,  -0.73227,  -0.44416,  -0.28392
  -0.41592,  -0.25481,  -0.30710,  -0.84355,  -0.66760,  -0.65098,  -0.63367,  -0.72743,  -0.91355,  -0.86629,  -0.43206,  -0.22043,  -0.78138,  -0.64597,  -0.80013,  -0.83259,  -0.20593,  -0.18963,  -0.39056,  -0.48323,  -0.56851,  -0.82437,  -0.52040,  -0.71873,  -0.52377,  -0.61286,  -0.70005,  -0.85310,  -0.75074,  -0.76911,  -0.12606,  -0.25452,  -0.10616,   0.56108,  -0.75309,  -0.02833,  -0.72128,  -0.86361,  -0.43852,  -0.50223,  -0.07768,  -0.82396,  -0.18830,  -0.91714,  -0.34638,  -0.82881,  -0.74047,  -0.87798,  -0.38783,   0.11660,   0.10709,  -0.78749,  -0.53912,  -0.65719,  -0.36281,  -0.72625,  -0.13031,  -0.84104,  -0.19331,  -0.35908,  -0.40431,  -0.90616,  -0.84073,  -0.89007,  -0.87215,  -0.52050,  -0.77471,   0.19859,  -0.73554,  -0.63326,  -0.30074,  -0.85312,   0.20904,  -0.78984,  -0.61467,  -0.73102,  -0.85169,   0.26588,  -0.26794,  -0.73694,  -0.07696,  -0.14252,  -0.64616,  -0.75814
  -0.67818,   0.54082,   0.21456,  -0.01592,  -0.57057,   0.56737,  -0.63294,   0.58330,   0.01492,  -0.61501,  -0.76254,  -0.87306,   0.58509,  -0.70526,   0.53935,  -0.08603,  -0.35728,  -0.93750,  -0.66453,  -0.68977,  -0.85279,   0.16471,  -0.44219,  -0.60975,   0.05065,  -0.85133,   0.07431,   0.62184,   0.51127,   0.82968,  -0.59726,  -0.52781,  -0.66565,   0.19085,  -0.81078,  -0.11669,  -0.88993,   0.11827,  -0.54105,  -0.24897,  -0.80829,  -0.24076,   0.17115,  -0.47697,  -0.56434,   0.32623,  -0.15178,   0.62059,   0.79542,  -0.83917,  -0.52614,   0.62870,  -0.58639,  -0.86045,   0.41940,   0.73567,  -0.21121,  -0.00858,  -0.31727,  -0.62111,   0.06063,   0.27562,  -0.83577,   0.11299,   0.60937,   0.42467,   0.16395,  -0.69409,   0.74571,  -0.90588,  -0.47199,  -0.78776,  -0.89229,  -0.20773,  -0.35615,  -0.28220,  -0.31091,  -0.61584,  -0.32862,   0.66336,  -0.63122,  -0.51862,   0.52563,  -0.79854
   0.29590,  -0.90656,  -0.28485,  -0.80514,   0.07524,  -0.10818,  -0.87417,  -0.46928,  -0.08255,  -0.77755,  -0.16372,   0.05750,  -0.84545,  -0.25023,  -0.89271,  -0.85700,   0.35263,  -0.29468,   0.07271,   0.46721,  -0.04574,  -0.46654,  -0.51300,  -0.82199,  -0.33049,  -0.33680,  -0.61442,  -0.85824,  -0.37428,  -0.42797,   0.16487,  -0.73348,   0.72356,  -0.21310,  -0.54206,   0.90959,  -0.40438,  -0.84120,  -0.48990,  -0.25705,  -0.64331,  -0.70113,  -0.51504,  -0.69829,   0.31906,  -0.22064,  -0.93750,  -0.79632,  -0.83017,  -0.68934,   0.45987,  -0.72185,  -0.47692,  -0.80677,  -0.16356,  -0.63877,  -0.65119,  -0.85376,  -0.58786,   0.19449,  -0.45441,  -0.93750,  -0.27234,  -0.79232,  -0.57520,  -0.88937,  -0.83424,  -0.42151,  -0.31979,  -0.72077,   0.02587,  -0.55609,  -0.33232,   0.09512,  -0.90483,  -0.83647,  -0.79850,  -0.05684,  -0.70314,  -0.79056,   0.26345,  -0.17008,  -0.08354,  -0.03047
  -0.59423,  -0.85834,   0.64591,  -0.90935,   0.42432,  -0.05811,  -0.86222,  -0.30028,  -0.93222,  -0.40677,  -0.84762,   0.36881,  -0.87016,  -0.88209,  -0.88709,  -0.69427,   0.53048,  -0.62283,  -0.77400,  -0.39708,   0.57130,   0.55487,   0.18372,  -0.69201,  -0.22561,   0.12897,  -0.77706,  -0.30522,  -0.88048,  -0.93750,   0.54750,   0.74471,   0.13366,   0.77498,   0.28027,  -0.21190,   0.71717,  -0.91428,  -0.67425,  -0.89638,  -0.79420,  -0.74460,   0.55636,   0.19290,   0.44933,  -0.51599,  -0.69281,  -0.79755,  -0.93750,  -0.13106,   0.80016,  -0.91826,  -0.78919,   0.06896,   0.85837,  -0.83062,  -0.12099,   0.30972,  -0.25230,  -0.63680,  -0.93750,  -0.93750,  -0.84925,  -0.92732,  -0.92936,  -0.90252,  -0.87483,  -0.33507,  -0.02834,  -0.92204,  -0.14155,   0.70358,  -0.79700,  -0.81241,  -0.86632,  -0.08790,  -0.86003,   0.92732,  -0.58600,  -0.52489,  -0.29905,  -0.76840,  -0.33038,  -0.86673
  -0.47439,  -0.40120,  -0.50490,  -0.67199,  -0.63553,  -0.37343,  -0.79817,  -0.60229,  -0.70907,  -0.83344,  -0.11464,  -0.65756,  -0.80828,  -0.62852,   0.30259,  -0.10193,  -0.58962,  -0.89838,  -0.74688,  -0.90601,  -0.90707,  -0.03005,  -0.37275,   0.89131,  -0.78552,   0.21012,  -0.76716,  -0.52575,   0.48374,  -0.20719,  -0.65832,  -0.48327,  -0.39545,  -0.43066,  -0.54563,  -0.56797,  -0.61495,   0.35456,  -0.43968,   0.21346,  -0.87322,  -0.88380,  -0.13666,   0.38300,  -0.40241,   0.67029,  -0.63358,  -0.63825,  -0.44523,  -0.91818,  -0.14570,  -0.03718,  -0.79307,  -0.65492,  -0.36982,  -0.46209,  -0.71707,   0.17923,   0.20595,  -0.81991,  -0.67742,  -0.68703,  -0.87954,   0.02045,  -0.88541,  -0.06703,  -0.15867,  -0.71695,  -0.26954,  -0.80707,  -0.75460,  -0.92899,  -0.65136,   0.26787,  -0.55780,   0.10019,  -0.65406,  -0.32076,  -0.77359,  -0.42321,   0.17346,  -0.90893,   0.30325,   0.12434
  -0.00422,  -0.83156,  -0.52942,  -0.60443,  -0.62484,  -0.67104,  -0.64136,  -0.78346,  -0.80292,  -0.15019,  -0.65830,  -0.30376,  -0.89820,  -0.13084,  -0.51639,  -0.48777,  -0.66168,  -0.73633,   0.19960,  -0.37440,   0.26391,  -0.12717,  -0.55338,   0.68201,  -0.79849,  -0.19246,   0.53045,  -0.79267,  -0.72390,  -0.93555,  -0.33711,  -0.24062,   0.20025,  -0.10080,  -0.31557,  -0.07519,  -0.54706,  -0.81360,  -0.61188,   0.21195,  -0.87696,   0.21271,  -0.84459,  -0.55831,   0.19183,  -0.54585,  -0.57049,  -0.77720,  -0.55912,  -0.50960,  -0.34770,  -0.40453,  -0.25357,   0.61179,  -0.54643,  -0.64424,  -0.35607,  -0.25616,  -0.67276,  -0.68710,  -0.15565,  -0.64364,  -0.73695,  -0.59404,  -0.93219,  -0.22431,  -0.29924,  -0.27376,  -0.72409,  -0.08562,  -0.32937,  -0.75091,  -0.60580,  -0.40941,  -0.38637,   0.17526,  -0.66527,  -0.59495,  -0.20597,  -0.76019,   0.93724,  -0.47677,  -0.60724,   0.71822
   0.18689,  -0.79790,  -0.62130,  -0.58795,  -0.67229,  -0.44684,   0.58131,  -0.36974,   0.11965,  -0.49796,  -0.33881,  -0.57054,  -0.82316,   0.21815,  -0.94131,  -0.42335,  -0.52275,  -0.45702,  -0.21796,  -0.65851,  -0.01163,  -0.02647,  -0.92774,  -0.80986,  -0.62746,  -0.57368,  -0.47947,  -0.47384,  -0.36596,  -0.76616,  -0.53219,  -0.68400,  -0.34047,  -0.43999,  -0.56248,  -0.32356,  -0.69240,  -0.75877,  -0.42642,   0.12319,   0.64390,   0.74926,  -0.72882,  -0.12333,  -0.51232,   0.28407,  -0.04815,  -0.54351,  -0.87883,  -0.55325,  -0.75184,  -0.35577,  -0.33743,  -0.74019,  -0.45375,   0.54831,  -0.89222,  -0.79132,  -0.66195,  -0.30511,  -0.45634,  -0.48861,  -0.20712,  -0.67202,  -0.54456,   0.24609,   0.54564,  -0.47977,  -0.66672,  -0.00690,  -0.19053,  -0.88950,  -0.27192,   0.20560,  -0.93750,  -0.81417,   0.46775,  -0.70901,  -0.23317,  -0.62445,  -0.54751,   0.27999,  -0.00940,  -0.31174
   0.64186,  -0.93750,   0.29338,   0.91588,  -0.06619,  -0.86281,  -0.40197,   0.66533,  -0.65917,   0.06411,  -0.35825,  -0.29101,  -0.88334,  -0.10877,  -0.64961,  -0.81064,   0.20038,  -0.91426,   0.44723,  -0.93750,  -0.87561,   0.40008,   0.36585,  -0.08357,  -0.00519,  -0.61796,  -0.57870,  -0.33637,  -0.81742,  -0.22506,   0.42648,  -0.54797,  -0.53500,  -0.38236,  -0.93750,  -0.40068,  -0.66961,   0.41949,   0.06551,  -0.64671,  -0.65512,  -0.93750,   0.68704,  -0.21853,  -0.61307,  -0.35349,  -0.77979,  -0.54223,  -0.82175,  -0.93750,  -0.48923,  -0.45556,  -0.84068,   0.19956,  -0.08428,   0.10840,  -0.82212,  -0.91432,  -0.04289,   0.39446,   0.61491,  -0.73043,   0.02784,   0.13962,  -0.64209,   0.19958,   0.06202,  -0.81034,   0.23130,  -0.87664,  -0.26404,  -0.87001,  -0.85380,  -0.45019,  -0.51631,  -0.75090,  -0.81379,   0.38572,  -0.86266,  -0.30810,  -0.45061,  -0.93750,  -0.29793,  -0.27004
  -0.10982,  -0.88169,  -0.34629,  -0.83207,  -0.85004,  -0.86467,  -0.87997,  -0.51203,  -0.80459,   0.18182,  -0.25931,  -0.55720,  -0.68481,  -0.61845,  -0.91863,  -0.93750,  -0.36690,   0.44431,   0.49609,  -0.61010,   0.55067,   0.39500,  -0.12609,  -0.73725,   0.52413,   0.21623,  -0.28166,  -0.93230,  -0.73430,  -0.65472,   0.29667,  -0.93541,   0.59216,   0.02070,  -0.75792,  -0.08672,  -0.50040,  -0.48068,  -0.54474,  -0.93750,   0.67937,  -0.60803,  -0.50126,  -0.92342,  -0.12547,  -0.53096,  -0.86518,  -0.70097,  -0.80387,   0.90245,  -0.21755,  -0.85512,  -0.23712,   0.24783,   0.05959,  -0.29683,   0.14387,  -0.88214,  -0.16893,   0.20465,  -0.46484,  -0.93301,  -0.01728,  -0.89651,  -0.86328,  -0.93750,  -0.70157,  -0.30179,  -0.88046,  -0.12451,  -0.05666,  -0.31357,   0.05564,   0.51091,  -0.89054,  -0.72522,  -0.46550,   0.06905,  -0.77687,  -0.03181,   0.64840,   0.51973,  -0.79812,  -0.82826
  -0.92192,  -0.84830,   0.27920,  -0.51029,  -0.27708,  -0.77926,  -0.86750,  -0.58519,  -0.87037,  -0.65106,  -0.35019,   0.31640,  -0.93028,  -0.83190,  -0.93750,  -0.47445,   0.21848,  -0.49671,  -0.80824,   0.60409,  -0.33577,  -0.44237,  -0.02532,  -0.93750,   0.30972,  -0.83710,  -0.79179,  -0.88285,  -0.44799,  -0.83885,   0.78865,  -0.48936,   0.87987,   0.86788,   0.74401,  -0.45977,   0.28392,  -0.93074,   0.84226,  -0.93750,  -0.80781,  -0.92624,  -0.17623,  -0.73198,   0.81935,  -0.86554,  -0.50577,  -0.85898,  -0.89992,  -0.31537,   0.60458,  -0.93053,  -0.84280,  -0.63896,   0.43690,  -0.65404,   0.23623,  -0.36934,   0.62678,  -0.90155,  -0.93114,  -0.29332,  -0.79502,  -0.22165,  -0.84357,  -0.60987,  -0.12848,   0.35990,  -0.72074,  -0.64984,   0.89614,  -0.91988,  -0.37364,  -0.92283,  -0.86863,  -0.91600,  -0.85999,   0.92806,  -0.64797,  -0.11643,  -0.15416,  -0.69501,  -0.64156,  -0.43105
   0.24360,  -0.44028,  -0.72183,   0.51741,   0.07199,   0.87403,   0.55989,  -0.30392,  -0.38401,  -0.72606,  -0.78383,  -0.56617,   0.13396,  -0.93750,  -0.57301,   0.48781,  -0.36584,  -0.61230,  -0.55457,   0.17633,   0.51178,  -0.86690,  -0.76847,  -0.62211,   0.07115,  -0.29661,  -0.34329,   0.56749,  -0.82915,  -0.51071,   0.18243,  -0.49129,  -0.85175,  -0.61982,   0.09706,   0.03725,   0.39346,  -0.68922,  -0.77277,  -0.89404,   0.93091,  -0.30179,  -0.66766,  -0.86362,  -0.83817,  -0.81416,   0.59492,   0.52080,  -0.75931,  -0.44782,  -0.66440,  -0.00964,   0.76604,  -0.38856,  -0.68070,   0.00264,  -0.33449,  -0.77931,  -0.66494,  -0.54766,  -0.87721,  -0.33621,   0.44168,   0.24416,  -0.13882,  -0.05732,   0.00045,   0.16700,  -0.44617,   0.32278,  -0.37239,  -0.59460,   0.16613,  -0.59223,  -0.62568,  -0.47116,  -0.89619,  -0.56229,  -0.10472,  -0.47845,  -0.59014,   0.09022,  -0.73376,  -0.16336
  -0.38946,  -0.63779,  -0.43771,  -0.79943,   0.19938,   0.15719,   0.04077,  -0.53951,  -0.48632,  -0.27417,  -0.93423,   0.07533,   0.15135,  -0.74176,  -0.53051,  -0.43084,   0.74136,  -0.67333,  -0.80812,   0.33077,  -0.26845,  -0.79658,  -0.58513,  -0.93750,  -0.48766,  -0.68682,  -0.68511,  -0.83684,  -0.82582,  -0.91703,  -0.57122,   0.69910,  -0.43946,   0.61438,   0.92560,   0.25345,   0.42953,  -0.87591,  -0.73430,  -0.14278,   0.24191,  -0.51522,  -0.46485,  -0.69453,   0.51334,  -0.76787,   0.65349,  -0.86815,  -0.90834,  -0.77827,   0.43731,  -0.20467,  -0.56735,  -0.50245,  -0.67614,  -0.74826,   0.69318,  -0.20588,  -0.56252,  -0.79304,  -0.93750,  -0.11079,  -0.87147,   0.16507,  -0.79014,  -0.25986,  -0.85805,   0.07752,  -0.63760,   0.52458,   0.27055,   0.04969,  -0.31542,  -0.81197,  -0.87208,  -0.77297,  -0.89575,  -0.47622,   0.05679,  -0.79706,  -0.56485,  -0.41020,  -0.72904,   0.42263
  -0.63530,  -0.93750,   0.73420,  -0.87887,   0.70414,  -0.71725,   0.09374,  -0.58080,  -0.87949,  -0.25823,  -0.65007,   0.04600,  -0.91959,  -0.81105,  -0.81714,  -0.71492,   0.24759,  -0.65013,  -0.78131,   0.09056,   0.39399,  -0.51562,  -0.87236,  -0.83577,   0.45191,   0.41113,  -0.78712,  -0.80787,  -0.43175,  -0.07243,   0.68789,  -0.23825,  -0.14089,   0.52508,  -0.19786,  -0.06050,  -0.08319,  -0.81791,  -0.68575,  -0.73934,  -0.79357,  -0.79929,   0.28314,  -0.87503,   0.50249,  -0.63681,  -0.75242,  -0.85249,  -0.80566,  -0.79777,   0.75225,  -0.74509,  -0.77717,  -0.86323,   0.07761,  -0.52890,   0.44647,  -0.49337,  -0.38000,  -0.53498,  -0.79563,  -0.93576,  -0.82532,  -0.68952,  -0.20741,  -0.83491,  -0.82522,   0.80388,  -0.14815,  -0.09778,  -0.16865,  -0.75237,  -0.01974,   0.61483,  -0.93206,  -0.62280,  -0.89155,   0.59599,  -0.44077,  -0.49939,  -0.26694,  -0.51645,  -0.56283,  -0.19903
  -0.00868,   0.14645,  -0.00045,  -0.93493,  -0.32213,   0.26048,  -0.92379,   0.45563,  -0.89644,  -0.67635,  -0.93203,   0.34428,  -0.93750,  -0.72822,  -0.93128,  -0.82208,  -0.55298,   0.43558,  -0.33374,  -0.22910,  -0.43241,  -0.82028,  -0.81103,   0.21366,   0.58231,   0.06240,  -0.71343,   0.22486,  -0.93750,  -0.77076,   0.85975,   0.55893,  -0.36250,   0.37552,   0.92562,  -0.42651,  -0.72342,  -0.70095,  -0.40414,  -0.92604,   0.82025,   0.75884,  -0.38014,  -0.82589,  -0.51300,  -0.61125,  -0.22190,  -0.77289,  -0.92689,  -0.12735,  -0.45107,  -0.93750,   0.67004,  -0.73265,  -0.13286,  -0.74527,  -0.11549,  -0.90400,  -0.75353,  -0.72053,  -0.87574,   0.15550,   0.28447,   0.39564,   0.53130,  -0.89040,  -0.86288,   0.20074,  -0.65946,   0.52369,   0.81062,   0.41355,  -0.16004,  -0.67792,   0.35390,  -0.89305,  -0.85743,   0.28889,  -0.67043,  -0.71327,  -0.86704,  -0.54945,  -0.51340,  -0.88437
  -0.87504,  -0.14890,   0.16255,  -0.38810,  -0.46395,  -0.74697,  -0.14994,  -0.28326,  -0.77200,  -0.42893,   0.30888,   0.62048,  -0.80093,   0.05172,  -0.89045,  -0.53583,  -0.09373,  -0.62429,  -0.87577,  -0.81866,  -0.82465,  -0.40552,   0.61190,  -0.59678,  -0.62270,  -0.56539,  -0.25684,  -0.78624,   0.64799,  -0.83202,   0.19302,   0.87282,   0.83437,   0.23421,  -0.18333,  -0.58037,  -0.20325,  -0.76693,  -0.38685,  -0.53279,  -0.92693,  -0.88063,   0.15248,   0.17564,   0.68786,  -0.51035,  -0.87553,  -0.86840,  -0.18988,  -0.93156,   0.50674,  -0.36995,  -0.88686,  -0.35157,  -0.19601,  -0.46403,  -0.17495,  -0.81875,   0.22768,  -0.81651,  -0.90405,  -0.93750,  -0.90239,  -0.87187,  -0.93750,  -0.77317,  -0.74651,  -0.28832,  -0.49812,  -0.91263,  -0.48506,  -0.43138,  -0.80199,  -0.82717,  -0.84855,   0.71241,  -0.82992,   0.53098,  -0.45546,  -0.55809,  -0.16845,  -0.79213,  -0.40613,  -0.46774
   0.29814,  -0.47506,  -0.49538,   0.34839,  -0.39435,  -0.77623,  -0.83377,  -0.86135,  -0.37871,  -0.50675,  -0.42657,  -0.68758,  -0.46369,  -0.27078,  -0.39232,   0.12341,  -0.56040,  -0.93750,  -0.27058,  -0.93506,  -0.90497,   0.35301,  -0.68644,  -0.51955,  -0.93750,   0.16140,  -0.15813,  -0.78466,  -0.34109,   0.14222,  -0.55778,  -0.53412,  -0.55388,  -0.76003,  -0.86968,  -0.46546,  -0.41507,  -0.19132,  -0.33123,  -0.66248,  -0.30511,  -0.78160,   0.68482,   0.64704,  -0.69897,   0.00439,  -0.14950,  -0.66541,   0.46690,  -0.92133,  -0.46343,  -0.28974,  -0.81555,  -0.83747,  -0.18176,   0.40594,  -0.77580,  -0.53679,  -0.24452,  -0.44508,   0.02057,  -0.93750,  -0.63212,  -0.00267,  -0.93750,  -0.72894,  -0.14575,  -0.59993,   0.00062,  -0.93553,  -0.71449,  -0.82218,  -0.83394,   0.27724,  -0.70387,  -0.07106,  -0.02281,  -0.37536,  -0.59291,  -0.79662,  -0.23675,  -0.85110,   0.00013,  -0.49370
  -0.86416,  -0.82089,  -0.05600,  -0.86362,  -0.77546,  -0.68479,   0.16523,   0.00005,  -0.28176,  -0.46480,  -0.10306,   0.45031,  -0.25331,  -0.50083,  -0.48448,  -0.77313,  -0.28346,   0.36724,  -0.16572,   0.15913,   0.00352,  -0.87500,  -0.63572,  -0.85983,  -0.27089,  -0.83926,  -0.35699,   0.64817,  -0.93750,  -0.73677,   0.85411,  -0.86214,  -0.24717,   0.03314,  -0.79075,  -0.26656,   0.19273,  -0.30659,   0.32663,  -0.69865,   0.72805,  -0.26081,  -0.35512,  -0.87348,  -0.69137,  -0.89760,  -0.71856,  -0.71090,  -0.93378,  -0.00799,  -0.40402,  -0.85132,   0.68194,  -0.59581,  -0.21501,   0.06427,  -0.21406,  -0.79968,  -0.42367,  -0.29227,  -0.74094,  -0.82633,  -0.19467,  -0.73921,  -0.76874,  -0.76910,  -0.73726,   0.04036,  -0.72051,   0.03248,   0.87433,  -0.70393,  -0.82843,   0.27077,  -0.79153,  -0.93750,  -0.69524,  -0.31098,   0.61570,  -0.48571,  -0.60516,   0.64038,  -0.64223,  -0.39448
   0.30236,  -0.15531,   0.60832,   0.58066,  -0.65983,   0.72983,  -0.04634,  -0.60254,  -0.85802,   0.59205,   0.45860,   0.57352,  -0.54147,  -0.91652,   0.35481,   0.24633,  -0.25847,  -0.86986,   0.05888,  -0.80009,   0.37614,  -0.53845,  -0.44676,  -0.53174,  -0.86513,  -0.49301,  -0.73552,  -0.01279,   0.64839,   0.61349,  -0.70253,   0.91900,  -0.40692,  -0.66557,   0.31517,  -0.73685,  -0.71366,   0.82482,  -0.33960,  -0.84102,   0.55901,  -0.44871,  -0.17840,   0.82562,  -0.48082,  -0.01100,   0.30837,   0.68236,   0.20274,  -0.64542,  -0.74238,  -0.83596,  -0.04305,  -0.46078,  -0.22068,   0.76538,  -0.50519,   0.15387,  -0.38874,  -0.66312,   0.44498,  -0.73762,  -0.45304,  -0.44804,  -0.87662,   0.80537,  -0.17900,   0.25417,  -0.12038,  -0.88803,   0.13147,   0.30156,   0.02570,  -0.93750,  -0.75528,  -0.03044,  -0.75016,   0.23753,  -0.44358,  -0.16561,  -0.74160,  -0.66050,   0.50721,   0.26115
   0.69353,  -0.86785,   0.58193,  -0.93750,   0.41547,  -0.78604,  -0.85651,   0.93750,  -0.85550,  -0.75822,  -0.77218,  -0.08865,  -0.91579,  -0.52800,   0.21909,  -0.41394,   0.76982,  -0.26446,   0.72680,  -0.76879,  -0.62947,   0.31059,  -0.70840,  -0.86072,   0.09586,  -0.81574,   0.41277,   0.67440,  -0.87593,  -0.58820,   0.89516,  -0.67318,  -0.83993,  -0.53552,  -0.83665,  -0.60406,  -0.13367,  -0.84734,   0.82866,  -0.91182,   0.81596,  -0.01838,  -0.25082,  -0.81427,  -0.74269,  -0.76922,  -0.61216,  -0.92331,  -0.52964,   0.14567,   0.20741,  -0.85660,  -0.01445,  -0.76591,   0.16608,   0.55239,  -0.00080,  -0.05461,  -0.03256,   0.90018,   0.33748,  -0.62952,   0.81878,   0.67291,  -0.90396,  -0.93379,  -0.10115,   0.42047,   0.47501,  -0.88778,   0.85928,  -0.55140,   0.36763,  -0.93006,  -0.59856,  -0.26962,  -0.93750,   0.72685,  -0.81970,   0.93750,  -0.74921,  -0.73519,   0.78017,  -0.93157
  -0.39077,  -0.86913,   0.77286,  -0.86925,  -0.63707,  -0.87844,  -0.78523,   0.30124,  -0.88225,   0.29709,  -0.84523,   0.72560,  -0.93750,  -0.90536,  -0.88253,  -0.81091,   0.61179,  -0.72853,  -0.81139,  -0.29775,   0.14115,   0.08988,   0.10858,  -0.85696,   0.78877,  -0.91632,  -0.93750,   0.02858,  -0.81614,  -0.87429,   0.29423,  -0.36859,   0.48446,   0.08434,  -0.57621,  -0.65893,  -0.32612,  -0.93750,   0.28823,  -0.86028,  -0.85009,  -0.70571,   0.47657,  -0.87350,   0.70610,   0.04243,  -0.55808,  -0.93750,  -0.88288,  -0.18794,   0.30168,  -0.79969,  -0.25903,  -0.50699,   0.40842,  -0.68317,  -0.28985,  -0.52840,   0.35972,  -0.64973,  -0.88291,   0.42841,  -0.92424,  -0.19956,  -0.92770,   0.30733,  -0.94208,   0.65389,  -0.43832,  -0.79680,  -0.32328,   0.62335,  -0.87249,   0.24070,  -0.87939,   0.47644,  -0.90806,   0.36641,  -0.12602,  -0.04254,  -0.73701,  -0.81403,   0.01221,  -0.72387
  -0.83512,   0.32378,  -0.21476,  -0.87728,  -0.11043,  -0.85592,  -0.87868,  -0.55964,  -0.80886,  -0.83861,  -0.32548,   0.10625,  -0.84756,  -0.56525,  -0.72320,  -0.92431,  -0.25852,  -0.09879,  -0.51746,  -0.52482,  -0.69103,  -0.63973,  -0.64425,  -0.03882,   0.51873,  -0.79233,  -0.71832,  -0.57348,  -0.65709,  -0.86945,  -0.39146,  -0.42388,   0.16342,   0.20361,  -0.71628,  -0.60078,  -0.41129,  -0.86424,  -0.25646,  -0.81497,  -0.76055,  -0.80166,  -0.59191,  -0.76124,   0.13054,  -0.77841,  -0.83792,  -0.78243,  -0.74076,  -0.85389,   0.26314,  -0.51454,  -0.59460,  -0.38088,  -0.66067,  -0.73482,   0.56709,  -0.67405,  -0.29711,  -0.28953,  -0.88917,  -0.92361,  -0.68638,  -0.65933,  -0.86163,  -0.70521,  -0.90437,  -0.03314,  -0.40455,  -0.66406,  -0.04379,  -0.44660,  -0.43654,  -0.77378,  -0.93194,  -0.55555,   0.08464,   0.09605,  -0.16916,  -0.76049,  -0.54166,  -0.40048,  -0.62998,  -0.20294
   0.03453,  -0.46080,  -0.57118,  -0.74981,  -0.60075,  -0.39692,   0.77423,  -0.87860,   0.65968,  -0.69478,  -0.71990,  -0.64290,  -0.44025,  -0.66020,   0.00312,  -0.38247,  -0.63786,  -0.55394,   0.59050,  -0.54361,   0.45477,  -0.93750,  -0.77194,  -0.87067,  -0.61078,  -0.46859,  -0.35260,  -0.25659,  -0.93750,  -0.80626,  -0.02994,  -0.68378,  -0.66441,  -0.67747,  -0.22199,  -0.17239,  -0.79221,   0.30896,  -0.54873,  -0.21585,  -0.34151,   0.36532,  -0.88028,  -0.19245,  -0.78255,  -0.93750,   0.93750,  -0.33785,  -0.44252,   0.09706,  -0.58263,  -0.85409,   0.44577,   0.55338,  -0.48398,  -0.66152,  -0.32568,  -0.88381,  -0.54474,   0.07955,  -0.66591,  -0.79501,   0.71631,  -0.29438,  -0.91987,  -0.51902,  -0.49639,  -0.52539,  -0.50418,   0.56537,  -0.43210,   0.07896,  -0.55940,  -0.54088,  -0.42599,  -0.93750,   0.61507,  -0.76120,  -0.04887,  -0.35256,  -0.68439,   0.27595,  -0.02615,  -0.55150
  -0.88627,  -0.84019,   0.53674,  -0.87649,   0.46685,  -0.93643,  -0.87475,   0.35373,  -0.89659,  -0.31365,  -0.07084,   0.42293,  -0.93750,  -0.82524,  -0.72790,  -0.61144,   0.68237,  -0.64410,  -0.83834,  -0.31025,   0.02352,   0.45993,   0.69923,  -0.76184,  -0.54378,  -0.57500,   0.02189,  -0.83980,  -0.72504,   0.04623,  -0.09638,   0.24707,   0.00248,   0.37081,  -0.83971,  -0.67314,  -0.67586,  -0.89755,  -0.48347,  -0.87683,  -0.79651,  -0.91868,  -0.01692,  -0.80831,   0.92498,   0.34951,  -0.81760,  -0.90424,  -0.82485,  -0.60891,   0.78343,  -0.19769,  -0.88352,  -0.67887,   0.44409,  -0.06934,  -0.43555,  -0.67019,  -0.15112,   0.19638,  -0.02109,  -0.87032,  -0.84170,  -0.81201,  -0.92647,  -0.84929,  -0.92154,   0.71328,  -0.60298,  -0.38074,  -0.21906,  -0.67897,  -0.90645,  -0.27829,  -0.16061,  -0.29320,  -0.74652,   0.87520,  -0.42516,  -0.65123,  -0.67469,   0.28097,  -0.28917,  -0.15397
  -0.86789,  -0.69584,   0.89929,  -0.33889,  -0.45807,  -0.81349,   0.14767,   0.51135,  -0.61207,  -0.08842,  -0.73751,   0.76587,  -0.91654,  -0.11406,  -0.86458,  -0.73638,   0.69486,  -0.93750,   0.36629,  -0.93439,  -0.66258,   0.20981,   0.79829,   0.28389,   0.35727,  -0.88052,   0.93750,  -0.71149,  -0.08853,  -0.56733,   0.05814,   0.27959,  -0.65405,  -0.74874,  -0.10049,  -0.93750,  -0.66916,  -0.62433,   0.27620,  -0.92684,   0.43097,  -0.93750,   0.86768,   0.29899,  -0.67072,  -0.65168,  -0.74605,   0.38066,  -0.47404,  -0.62492,   0.65088,  -0.72895,  -0.45522,  -0.88313,   0.62991,   0.48532,  -0.37849,  -0.93750,   0.93750,   0.58018,   0.20995,  -0.86819,   0.09130,  -0.68752,  -0.89045,  -0.23242,  -0.81576,   0.33857,   0.84599,  -0.93750,   0.79464,  -0.54972,  -0.87555,  -0.87494,   0.05783,  -0.89561,  -0.93750,   0.18921,   0.40139,   0.74379,  -0.42960,  -0.14627,   0.87018,  -0.80150
  -0.66433,  -0.57991,  -0.58621,  -0.51032,  -0.62934,  -0.42865,  -0.22695,  -0.39627,   0.00771,  -0.53744,   0.07861,  -0.56743,  -0.65402,   0.18425,  -0.60393,   0.01150,  -0.80116,  -0.62591,   0.89074,  -0.72409,  -0.41986,  -0.42105,  -0.63975,  -0.93750,  -0.65515,   0.12213,  -0.39355,  -0.54231,  -0.65823,  -0.32139,  -0.49183,  -0.56628,  -0.50243,  -0.68312,  -0.75706,  -0.39666,  -0.79522,   0.74968,  -0.62381,  -0.75171,   0.75664,  -0.25062,  -0.78433,  -0.48235,  -0.80640,  -0.82676,   0.15509,  -0.22009,  -0.34285,   0.12374,  -0.83097,  -0.38573,  -0.00404,  -0.62854,  -0.56422,  -0.25812,  -0.77480,  -0.74887,  -0.58547,   0.49270,  -0.66510,  -0.80301,   0.55308,  -0.71460,  -0.88617,   0.19500,  -0.83455,  -0.13084,  -0.68184,   0.36028,  -0.13305,  -0.72753,  -0.17114,   0.34487,  -0.68247,  -0.66253,  -0.84060,  -0.81320,  -0.77418,   0.32055,  -0.07628,  -0.23258,  -0.69429,  -0.75901
  -0.86398,   0.41799,  -0.36893,   0.09526,  -0.36976,  -0.25919,   0.35171,  -0.88448,  -0.43066,   0.33655,  -0.43172,  -0.45933,   0.30464,   0.50727,  -0.45537,   0.31148,  -0.19865,  -0.54214,  -0.73111,  -0.79065,  -0.60104,  -0.20702,  -0.17972,   0.87500,  -0.63438,  -0.19258,  -0.36676,  -0.18497,   0.58585,  -0.82902,  -0.59008,   0.16309,   0.68602,   0.79869,   0.39110,  -0.53358,  -0.56149,  -0.79143,  -0.58985,  -0.69476,   0.05563,  -0.69357,  -0.65183,  -0.02428,  -0.12541,  -0.51016,  -0.52813,  -0.67975,  -0.92523,  -0.47865,   0.80162,   0.01321,  -0.85748,  -0.62095,   0.17443,  -0.55281,  -0.31728,   0.04421,  -0.44885,  -0.39464,   0.18138,  -0.80540,  -0.74090,  -0.26175,  -0.88802,  -0.20584,  -0.82725,  -0.52622,   0.05610,  -0.65415,  -0.69396,  -0.79678,  -0.80627,  -0.83150,  -0.93750,   0.11882,  -0.62933,  -0.07408,   0.23760,  -0.86562,  -0.14657,  -0.80229,  -0.83197,  -0.58206
   0.11865,  -0.87505,  -0.06826,  -0.80381,   0.87771,  -0.63994,  -0.91740,  -0.57467,   0.27314,  -0.57610,  -0.93908,   0.83405,  -0.92893,  -0.90072,  -0.81144,  -0.74119,   0.03389,   0.45929,  -0.68167,  -0.57745,  -0.17607,  -0.72020,  -0.46287,  -0.69865,  -0.36913,  -0.35826,  -0.70796,  -0.70829,  -0.78426,  -0.87379,   0.18515,  -0.78814,   0.45046,  -0.11673,  -0.55540,   0.45540,   0.34526,  -0.85894,   0.45477,  -0.79267,  -0.66299,   0.29330,  -0.83811,  -0.85805,   0.29548,  -0.33028,  -0.68718,  -0.93091,  -0.86928,   0.05073,  -0.23249,  -0.80464,  -0.82102,   0.32851,  -0.43552,  -0.58294,   0.71506,  -0.93750,   0.07157,  -0.53785,  -0.75497,  -0.93750,  -0.74485,  -0.81642,  -0.08112,  -0.87410,  -0.72420,   0.03015,  -0.60476,   0.64578,  -0.08327,  -0.45173,   0.25922,  -0.92581,  -0.85995,  -0.74616,  -0.90403,   0.51233,   0.18108,  -0.73716,   0.08439,  -0.08306,  -0.71950,   0.04245
  -0.93750,  -0.58927,  -0.35901,   0.27669,   0.12075,   0.37983,  -0.19834,  -0.06292,  -0.86863,  -0.18662,  -0.85331,   0.06722,  -0.67236,  -0.79030,  -0.28479,   0.05596,  -0.14491,  -0.76527,  -0.75868,  -0.65669,  -0.93750,  -0.81368,  -0.61983,   0.52534,  -0.73025,  -0.86095,  -0.27909,   0.69406,  -0.16811,  -0.63382,  -0.70584,  -0.34172,  -0.51030,  -0.65260,   0.24249,  -0.87399,   0.19514,   0.72339,  -0.66436,  -0.62315,  -0.51852,  -0.86844,   0.36152,   0.11335,  -0.87946,  -0.86266,   0.37339,  -0.84133,  -0.47640,  -0.93348,  -0.56694,  -0.64748,  -0.78533,  -0.59335,  -0.74571,  -0.28671,  -0.12361,   0.61654,   0.34771,  -0.71951,  -0.93750,  -0.05090,  -0.46093,  -0.58562,  -0.81693,  -0.18688,   0.49477,   0.93500,  -0.40472,  -0.92200,   0.12129,  -0.87441,  -0.87124,  -0.85366,   0.18251,   0.60586,  -0.59301,  -0.28674,   0.09005,   0.73484,  -0.91387,  -0.86144,  -0.36446,  -0.50226
  -0.89810,  -0.42063,   0.53728,  -0.87282,   0.86501,  -0.52573,  -0.93750,   0.80443,  -0.89294,   0.83983,  -0.92404,  -0.02034,  -0.92893,  -0.59018,  -0.92526,   0.36030,   0.29188,  -0.81500,  -0.29412,   0.12099,  -0.72012,   0.39109,   0.20900,  -0.88739,   0.78014,  -0.00695,   0.24959,   0.51232,  -0.82335,  -0.90577,   0.33807,  -0.56770,   0.17564,  -0.42331,   0.02812,  -0.07910,  -0.54469,   0.62969,  -0.36673,  -0.23327,  -0.89471,  -0.87853,   0.93750,  -0.44030,  -0.24348,  -0.86829,   0.87160,  -0.93750,   0.49755,  -0.28527,   0.92839,   0.19398,  -0.25228,  -0.70659,   0.82357,  -0.37143,   0.71586,  -0.93404,   0.81092,   0.25248,  -0.17555,  -0.93750,  -0.76900,  -0.59253,  -0.92822,  -0.86610,  -0.88879,   0.52426,  -0.39470,  -0.90583,  -0.15115,  -0.93750,  -0.18608,  -0.88155,  -0.80358,  -0.56312,  -0.93750,   0.85707,  -0.88736,   0.11211,  -0.90061,  -0.49948,  -0.00439,  -0.27913
  -0.67265,  -0.69819,  -0.25757,  -0.86421,  -0.75647,  -0.87849,  -0.91903,  -0.66301,   0.56953,  -0.86405,  -0.43888,  -0.24513,  -0.16146,  -0.42430,  -0.85215,  -0.87513,  -0.67446,   0.54647,  -0.46871,   0.38286,   0.76174,   0.05073,  -0.74162,  -0.76993,   0.04765,   0.23529,  -0.54868,  -0.72982,  -0.70728,  -0.57805,   0.25144,  -0.86176,   0.02794,   0.30302,  -0.22795,   0.06521,   0.09765,  -0.88990,   0.00505,  -0.93750,  -0.84154,   0.45845,  -0.51887,  -0.73404,   0.56969,  -0.67586,  -0.87284,  -0.93750,  -0.91985,  -0.64301,   0.38879,  -0.69801,  -0.54619,  -0.67991,  -0.32608,  -0.46485,   0.07307,  -0.93750,  -0.08128,   0.27070,  -0.93750,  -0.36071,  -0.04885,  -0.92231,  -0.79398,  -0.88898,  -0.88594,  -0.21174,  -0.61884,  -0.10503,  -0.20156,  -0.81842,  -0.75193,  -0.90761,  -0.91212,  -0.74790,  -0.88648,  -0.13559,  -0.93633,  -0.75610,   0.04233,  -0.02228,   0.20417,  -0.82589
  -0.86724,  -0.80517,  -0.12291,  -0.89410,  -0.74575,  -0.85491,  -0.86798,  -0.80993,  -0.81687,  -0.53937,  -0.37130,   0.69425,  -0.25836,  -0.65419,  -0.93750,  -0.78944,  -0.04599,  -0.16655,  -0.16293,  -0.51174,   0.85684,  -0.50008,  -0.19294,  -0.64494,  -0.10956,  -0.12288,  -0.89858,  -0.82071,  -0.33246,  -0.84351,   0.20291,  -0.22907,   0.67575,   0.19349,  -0.63608,   0.39051,  -0.17935,  -0.53730,  -0.43991,  -0.93429,  -0.86277,  -0.76592,  -0.34375,  -0.72187,   0.80449,  -0.88076,  -0.84800,  -0.68930,  -0.66265,   0.15904,  -0.14285,   0.13083,  -0.77602,  -0.70077,  -0.51201,  -0.34037,  -0.42161,  -0.86713,  -0.23440,  -0.27780,  -0.50917,  -0.93708,  -0.86757,  -0.88379,  -0.93750,  -0.90872,  -0.72263,   0.16554,  -0.68815,  -0.77997,  -0.18098,  -0.85304,  -0.57330,   0.18634,  -0.82955,  -0.84987,  -0.71022,  -0.08179,  -0.61126,  -0.47542,   0.50166,  -0.57309,  -0.68471,  -0.20673
  -0.86761,  -0.52328,  -0.33001,   0.70317,   0.57264,   0.67030,   0.56291,  -0.34728,   0.39753,   0.01448,  -0.86395,  -0.78115,  -0.81972,  -0.86791,   0.63903,   0.10665,   0.41879,  -0.22038,  -0.78626,   0.02331,  -0.71483,  -0.49706,   0.27604,  -0.78971,  -0.59166,  -0.36202,  -0.15541,  -0.36445,  -0.87756,  -0.92139,  -0.23353,   0.58453,  -0.80504,  -0.68788,  -0.12602,  -0.93750,  -0.71143,  -0.72958,  -0.73701,  -0.74478,   0.05470,   0.18295,  -0.43567,   0.48337,  -0.76512,  -0.76232,   0.52507,   0.15324,  -0.66471,  -0.90586,  -0.53289,  -0.86807,   0.15932,   0.52152,  -0.69492,  -0.61174,  -0.39994,   0.51400,  -0.64088,  -0.82819,  -0.81986,   0.64872,  -0.64115,   0.04358,   0.47328,  -0.37503,  -0.50149,   0.68128,   0.39467,  -0.75673,   0.72901,   0.74587,  -0.85925,  -0.87647,   0.68502,  -0.76467,  -0.65070,  -0.64463,  -0.11803,   0.23667,  -0.93003,  -0.41071,  -0.63023,  -0.88246
  -0.08550,   0.81517,  -0.48966,  -0.74647,  -0.54851,   0.06251,  -0.45638,  -0.60219,  -0.86686,  -0.75470,   0.67968,  -0.37925,  -0.73092,  -0.04197,  -0.36876,  -0.56754,  -0.18082,   0.30013,  -0.36651,   0.13797,  -0.52692,  -0.68437,  -0.87595,  -0.81824,  -0.55474,  -0.68405,  -0.09187,  -0.65441,  -0.88007,  -0.60540,  -0.43719,  -0.34189,  -0.15614,  -0.50712,  -0.24114,   0.07721,  -0.42150,  -0.62182,  -0.73805,  -0.86072,  -0.77689,  -0.52340,  -0.79796,  -0.65308,  -0.21858,  -0.50527,  -0.65299,  -0.48457,  -0.87132,  -0.53314,  -0.40993,  -0.39548,   0.11845,  -0.42751,  -0.77540,  -0.54300,  -0.63544,  -0.64407,  -0.70850,  -0.52876,   0.29117,  -0.78381,  -0.76176,  -0.71404,  -0.85956,  -0.66807,  -0.87230,  -0.45841,  -0.71004,  -0.54547,  -0.27835,  -0.15347,  -0.71844,  -0.17965,  -0.85296,  -0.64086,  -0.10809,  -0.50173,   0.02552,  -0.41442,   0.44703,  -0.40808,  -0.74848,  -0.08754
  -0.77910,  -0.80743,   0.69451,  -0.08811,  -0.70732,   0.03857,  -0.82670,   0.25483,   0.40931,  -0.80978,   0.16424,   0.12513,  -0.53228,  -0.36699,  -0.82567,  -0.79903,   0.25649,  -0.80642,   0.04838,  -0.68331,   0.68100,  -0.80548,  -0.73833,  -0.87375,   0.35735,  -0.72469,  -0.86734,   0.20820,   0.16310,  -0.20422,   0.17854,  -0.67546,  -0.83857,  -0.47486,  -0.74218,  -0.59997,  -0.76882,  -0.56441,   0.28906,  -0.89617,  -0.25840,  -0.15461,  -0.53336,  -0.86992,  -0.72364,  -0.54458,  -0.60805,   0.09809,  -0.80083,   0.10795,  -0.55172,  -0.82884,   0.76136,  -0.80139,  -0.39472,   0.50248,  -0.58286,  -0.76155,  -0.72129,   0.07635,  -0.70804,   0.54676,   0.57488,  -0.57404,   0.47214,   0.16360,   0.20489,  -0.06367,  -0.46955,   0.36778,   0.73549,  -0.20187,   0.66615,  -0.58027,  -0.86464,  -0.93750,  -0.77866,  -0.60855,   0.63998,  -0.34662,  -0.69448,   0.04464,  -0.11965,  -0.87257
  -0.23781,  -0.52178,  -0.39118,  -0.79253,  -0.62383,  -0.47322,  -0.87219,  -0.61234,  -0.77895,  -0.34455,  -0.80879,   0.39345,  -0.71588,  -0.78983,  -0.86385,  -0.69988,   0.52894,  -0.72160,  -0.79561,   0.84763,  -0.38971,  -0.84609,  -0.64990,  -0.78335,   0.11719,  -0.48080,  -0.67337,  -0.85141,  -0.88249,  -0.88941,   0.23902,  -0.79134,   0.17225,   0.43508,  -0.30711,  -0.62897,  -0.29716,  -0.64364,  -0.56826,  -0.80552,  -0.73775,  -0.86194,  -0.19268,  -0.22727,   0.62130,  -0.84528,  -0.73262,  -0.73749,  -0.92467,  -0.63757,   0.01794,  -0.46546,  -0.19209,  -0.40957,  -0.64056,  -0.67760,  -0.12452,  -0.48763,  -0.37848,  -0.68577,  -0.86924,  -0.33951,  -0.78672,  -0.86672,  -0.91014,  -0.84920,  -0.63560,   0.65690,  -0.30116,   0.18176,   0.42413,  -0.88094,  -0.41131,  -0.67503,  -0.88522,  -0.85850,  -0.48897,   0.27030,  -0.42580,  -0.65740,  -0.64019,   0.22265,  -0.27865,  -0.82266
   0.23151,  -0.53857,   0.50077,  -0.79840,  -0.83811,   0.09008,   0.00537,  -0.42572,  -0.42373,  -0.70602,  -0.87299,  -0.16612,  -0.41309,  -0.71484,  -0.83812,  -0.50712,  -0.22959,   0.06525,  -0.36647,  -0.75956,   0.67984,  -0.75172,  -0.73677,  -0.93750,  -0.02470,  -0.70276,  -0.31154,  -0.54782,  -0.88732,  -0.87823,   0.54842,  -0.69244,  -0.80411,  -0.36920,   0.21227,  -0.17844,   0.29834,  -0.84351,   0.49624,  -0.78845,  -0.13336,   0.15910,  -0.44671,  -0.57587,   0.50739,  -0.93868,  -0.70184,  -0.60900,  -0.74437,   0.43145,  -0.55642,  -0.85157,   0.72006,  -0.74774,  -0.54917,  -0.11693,   0.32047,  -0.13158,  -0.47199,   0.75268,  -0.93076,  -0.43726,  -0.15190,  -0.78200,   0.16117,  -0.25669,  -0.12067,   0.73790,   0.02757,   0.05684,   0.53035,  -0.27176,  -0.45090,  -0.91364,  -0.73648,  -0.94067,   0.57345,   0.35377,   0.09159,   0.29129,  -0.56873,  -0.56899,  -0.80379,  -0.69891
  -0.49240,  -0.83323,   0.81261,  -0.85506,   0.33446,  -0.82927,  -0.51781,   0.84048,  -0.51407,   0.00088,  -0.87158,   0.82265,   0.42958,  -0.86219,  -0.93750,  -0.17732,   0.58199,  -0.40339,  -0.74725,  -0.88604,  -0.01851,  -0.57876,  -0.61192,  -0.92698,   0.93750,  -0.93750,   0.52654,   0.75459,  -0.91613,  -0.05229,   0.86654,  -0.52288,  -0.73163,   0.34171,  -0.70769,  -0.87336,  -0.67248,  -0.64998,   0.83269,  -0.93750,   0.57119,  -0.92194,   0.19082,   0.25474,  -0.60009,  -0.93750,  -0.33103,   0.26329,  -0.28980,  -0.90847,  -0.27377,  -0.75142,  -0.12032,  -0.78273,   0.69713,  -0.26898,   0.55668,  -0.91578,   0.93750,   0.93750,  -0.87663,  -0.93750,  -0.49230,  -0.13922,  -0.93389,  -0.87230,  -0.84569,   0.04185,   0.30622,   0.45427,   0.86904,  -0.89135,  -0.80225,   0.48632,   0.11496,  -0.87167,  -0.93750,   0.86548,  -0.61144,  -0.15864,  -0.81524,  -0.77627,   0.12913,  -0.93750
  -0.88624,   0.77963,   0.53183,  -0.68435,   0.93750,   0.89115,   0.37874,  -0.64110,  -0.68255,  -0.39246,  -0.73620,   0.53103,  -0.93750,  -0.86818,  -0.23634,   0.86765,   0.91971,  -0.91888,  -0.80080,   0.18875,  -0.83064,  -0.80777,  -0.19960,   0.04777,  -0.72021,  -0.93750,  -0.36714,   0.63348,  -0.85868,  -0.91313,  -0.71461,   0.49832,  -0.85489,  -0.74043,  -0.06960,  -0.93750,  -0.74513,  -0.84923,   0.25401,   0.30661,  -0.88283,   0.52052,  -0.07738,   0.82188,  -0.83791,  -0.86374,   0.91399,  -0.05743,   0.64771,  -0.93750,   0.19785,  -0.80858,  -0.69097,   0.43081,  -0.50403,   0.45552,   0.34732,   0.39920,   0.32491,  -0.64870,  -0.93243,   0.54187,   0.08505,   0.72976,  -0.93750,   0.78888,  -0.87002,  -0.15300,  -0.21463,  -0.79113,  -0.41182,  -0.68637,   0.16862,  -0.93501,  -0.92289,   0.55219,  -0.89079,  -0.31034,   0.07952,  -0.68437,  -0.86954,  -0.78458,  -0.02663,   0.50912
   0.57520,   0.31908,  -0.24869,   0.58687,  -0.62815,  -0.87880,   0.10495,   0.59942,  -0.79869,  -0.79887,  -0.73637,  -0.82654,  -0.55817,   0.75727,   0.48565,   0.54155,  -0.43588,  -0.74864,   0.70264,  -0.71985,  -0.87909,   0.12966,   0.51820,  -0.88010,  -0.72093,   0.66390,  -0.75445,  -0.76331,   0.08334,   0.92921,   0.31190,  -0.73160,  -0.77327,  -0.74749,  -0.10631,   0.41498,  -0.82802,  -0.33868,  -0.54436,   0.81388,  -0.13427,  -0.12845,  -0.54834,  -0.46514,  -0.87356,   0.56632,  -0.36882,   0.16227,   0.63425,  -0.20312,  -0.52599,   0.39766,  -0.24329,  -0.91641,  -0.46577,  -0.03572,  -0.84539,   0.01772,  -0.38050,   0.61283,   0.33755,   0.60355,  -0.55206,  -0.40143,   0.56233,  -0.72632,   0.80777,  -0.73199,  -0.62841,  -0.83591,  -0.48046,   0.38888,  -0.64010,   0.56940,  -0.62120,  -0.61440,  -0.92495,  -0.48191,  -0.83165,   0.60317,  -0.83013,  -0.48860,   0.26645,  -0.80065
  -0.81844,  -0.47793,  -0.10040,  -0.85357,  -0.91681,  -0.61268,  -0.13548,  -0.67090,  -0.86648,  -0.68626,   0.14246,   0.27128,   0.41119,  -0.72498,  -0.86086,  -0.84177,  -0.47925,  -0.06545,  -0.20135,  -0.72153,  -0.12063,   0.19040,  -0.37052,  -0.15865,  -0.56784,  -0.06834,   0.62588,  -0.81277,  -0.57784,  -0.50968,   0.07182,  -0.78204,   0.81126,   0.55115,  -0.79601,   0.23262,  -0.22181,  -0.83263,   0.27392,  -0.34267,  -0.89354,  -0.30660,   0.22776,  -0.52031,   0.65877,  -0.26195,  -0.79709,  -0.83108,  -0.29128,  -0.37498,  -0.20484,  -0.56442,  -0.52433,  -0.79615,  -0.31899,  -0.57280,  -0.07803,  -0.86919,  -0.09526,  -0.65376,  -0.70767,  -0.93320,  -0.13735,  -0.81144,  -0.73655,  -0.93750,  -0.79416,  -0.27158,  -0.62115,  -0.85447,  -0.21720,  -0.84151,  -0.34938,  -0.64278,  -0.83797,  -0.57991,  -0.03127,   0.10419,  -0.58849,  -0.85258,  -0.04964,  -0.76823,  -0.54313,  -0.24539
  -0.24851,  -0.74062,   0.60506,   0.71065,  -0.72512,  -0.88398,  -0.76395,   0.37308,   0.06508,  -0.28679,  -0.81688,  -0.29526,  -0.86497,   0.26979,  -0.82620,   0.66766,   0.47234,  -0.74842,  -0.34646,  -0.93750,  -0.83337,   0.53243,  -0.40705,   0.46348,  -0.38905,  -0.70191,   0.19821,   0.29453,   0.53032,   0.05667,   0.03315,  -0.69741,  -0.57915,  -0.46427,  -0.75158,  -0.55810,  -0.79279,  -0.11016,   0.74182,   0.34177,  -0.68249,  -0.91200,   0.35909,  -0.31607,  -0.65224,   0.67068,  -0.82375,   0.09482,  -0.64385,  -0.39124,   0.09861,  -0.13981,  -0.81175,  -0.88254,   0.25537,   0.79136,  -0.60656,  -0.92007,   0.11146,   0.79637,   0.81941,   0.15351,  -0.18062,   0.08406,  -0.60726,  -0.66390,  -0.08324,  -0.68484,  -0.41521,   0.52351,  -0.37688,  -0.91169,   0.06352,   0.04650,  -0.15380,  -0.60726,  -0.47353,   0.13631,  -0.85283,  -0.21322,  -0.66029,  -0.87024,   0.52935,  -0.73973
  -0.93405,   0.60584,   0.70581,   0.07247,   0.49146,  -0.93941,   0.30718,   0.80701,  -0.89953,   0.27553,  -0.93750,   0.65808,  -0.45176,  -0.85705,  -0.90995,  -0.59029,  -0.22912,  -0.81696,  -0.70895,  -0.19179,  -0.56272,   0.78237,   0.32972,   0.54954,   0.71510,  -0.88196,  -0.66775,  -0.82405,  -0.33453,   0.09173,   0.85169,  -0.20618,  -0.00042,  -0.34782,  -0.87567,  -0.93750,   0.36740,  -0.81123,   0.60513,  -0.30464,  -0.43794,  -0.93750,   0.93750,   0.46947,  -0.86453,   0.72075,  -0.88093,   0.02985,  -0.15901,   0.30202,   0.36084,  -0.89143,  -0.91922,  -0.90233,   0.87398,   0.93582,   0.87522,  -0.87727,   0.92698,  -0.28567,  -0.83448,  -0.93750,   0.82287,   0.29545,  -0.87892,   0.26986,   0.34371,   0.31145,   0.82076,  -0.80950,   0.47499,   0.31189,  -0.56417,  -0.83937,  -0.47535,  -0.93750,  -0.87432,   0.86821,  -0.88143,   0.27049,  -0.75021,  -0.37163,   0.20820,   0.40436
  -0.20814,  -0.66960,   0.39863,  -0.43727,  -0.85440,  -0.83005,  -0.93750,   0.34543,   0.33539,  -0.59220,  -0.93750,  -0.41660,  -0.81550,  -0.64847,  -0.47333,  -0.46952,  -0.61754,   0.50033,  -0.27342,  -0.66054,  -0.75958,   0.06684,  -0.88754,  -0.93222,   0.04955,   0.11685,   0.05272,   0.51858,  -0.79707,   0.44530,   0.49149,  -0.69919,  -0.58303,  -0.65044,   0.43289,  -0.46184,  -0.62956,   0.76730,  -0.15696,   0.46955,  -0.59564,  -0.50323,  -0.11196,  -0.37926,  -0.73836,  -0.75681,  -0.31681,   0.32297,  -0.23109,  -0.13899,  -0.41360,  -0.93592,  -0.26326,  -0.79373,  -0.43055,  -0.34425,   0.41833,  -0.43153,  -0.67382,   0.06932,  -0.57195,   0.29768,   0.78731,  -0.62626,   0.67258,  -0.53129,  -0.36004,  -0.42273,   0.17353,  -0.91527,  -0.15484,   0.01553,  -0.41665,  -0.78458,   0.30024,  -0.87487,  -0.86591,  -0.41935,  -0.82943,   0.58960,  -0.43108,  -0.59956,  -0.24320,  -0.93591
  -0.11151,  -0.02052,  -0.56102,  -0.86508,   0.29969,   0.93750,  -0.91221,  -0.58207,  -0.93452,   0.82207,  -0.76308,   0.02293,   0.36400,   0.03958,  -0.68883,  -0.13224,   0.67066,   0.16761,  -0.86933,   0.78545,  -0.93420,  -0.76282,   0.39876,   0.07370,  -0.42928,   0.37835,  -0.90062,  -0.85560,  -0.78941,  -0.83292,  -0.57810,  -0.40018,   0.14524,   0.65015,  -0.66717,   0.51548,   0.66485,  -0.85127,  -0.67555,  -0.88014,  -0.84374,  -0.28157,   0.12587,  -0.82810,   0.66479,   0.36649,  -0.87891,  -0.89808,  -0.77317,  -0.08170,   0.83164,  -0.83858,  -0.87561,  -0.09219,   0.17648,  -0.17443,   0.73664,   0.41296,  -0.33868,  -0.71160,  -0.81141,   0.55385,  -0.85858,  -0.82364,  -0.86069,  -0.79947,  -0.93074,  -0.11107,   0.73016,   0.40579,  -0.40709,   0.29774,  -0.47283,  -0.87397,  -0.94180,  -0.85373,  -0.81020,   0.43292,  -0.08668,  -0.70472,   0.09155,  -0.19225,  -0.54839,  -0.85974
   0.16964,  -0.64655,  -0.51638,  -0.71772,  -0.73803,  -0.49453,   0.15195,  -0.75167,  -0.60547,  -0.79504,  -0.57466,  -0.36776,  -0.73383,  -0.62755,  -0.16071,  -0.52241,   0.20574,  -0.61189,  -0.60700,  -0.28157,  -0.68188,  -0.71841,  -0.56037,  -0.65480,  -0.73571,  -0.52161,  -0.43640,  -0.39112,  -0.75414,  -0.88531,  -0.38665,  -0.43739,   0.01260,   0.17280,  -0.57487,  -0.39806,  -0.30259,  -0.93589,  -0.73160,  -0.81464,  -0.59001,  -0.33691,  -0.46259,   0.20159,   0.85799,  -0.85295,  -0.68835,  -0.73558,   0.28659,  -0.48606,  -0.35279,  -0.54913,  -0.64603,   0.03110,  -0.40550,  -0.57549,  -0.69815,  -0.72308,  -0.66818,  -0.75091,  -0.80959,  -0.25287,  -0.69986,  -0.89145,  -0.86049,  -0.55495,  -0.24526,  -0.19655,  -0.63618,  -0.36005,  -0.48655,  -0.35712,  -0.41791,  -0.69985,  -0.84545,  -0.66958,  -0.66088,  -0.22175,  -0.05663,  -0.87666,  -0.52968,  -0.08070,  -0.84992,  -0.52346
  -0.18690,  -0.44439,   0.93750,  -0.72899,  -0.56897,  -0.87486,  -0.87836,   0.86866,  -0.90876,  -0.66678,  -0.90556,   0.68973,  -0.93262,  -0.21029,  -0.31868,  -0.11630,   0.73663,  -0.52045,   0.69353,  -0.87631,  -0.84656,  -0.39964,  -0.92547,  -0.29657,   0.67116,  -0.93477,  -0.79447,  -0.71365,  -0.93332,  -0.35222,   0.69675,   0.05654,  -0.72678,  -0.20114,  -0.43843,  -0.77903,  -0.31927,  -0.77133,  -0.53292,  -0.10855,   0.61843,  -0.84436,   0.87821,   0.68007,  -0.41098,  -0.75386,   0.05204,  -0.63907,   0.70035,  -0.93750,   0.09619,  -0.15932,  -0.91902,  -0.87687,   0.82620,   0.43557,  -0.07086,  -0.83774,   0.83462,   0.65352,  -0.89404,  -0.92474,   0.78206,   0.63255,  -0.93750,  -0.86114,   0.11921,   0.04446,   0.32598,  -0.93750,   0.93750,   0.11404,  -0.87588,  -0.92866,  -0.33254,  -0.92342,  -0.79747,   0.81706,  -0.79849,   0.76706,  -0.87176,  -0.88534,  -0.06621,  -0.85664
  -0.83905,  -0.07749,  -0.57034,  -0.60874,   0.84559,  -0.72279,  -0.76348,  -0.61754,  -0.20532,   0.57857,  -0.11751,  -0.47712,  -0.03984,  -0.60401,   0.54534,  -0.15372,  -0.38308,  -0.73399,  -0.44592,  -0.79201,  -0.78922,  -0.06578,  -0.65633,   0.23742,  -0.69187,  -0.80689,  -0.42785,  -0.86815,   0.75031,  -0.29102,  -0.73157,  -0.84850,  -0.10939,  -0.18909,  -0.86177,  -0.60830,   0.65835,  -0.63859,   0.30665,  -0.79263,  -0.86206,  -0.85441,  -0.57745,  -0.26051,  -0.29088,   0.61821,  -0.49040,  -0.74447,  -0.57920,  -0.78711,   0.08275,   0.75380,  -0.83877,  -0.68887,  -0.51780,  -0.84920,  -0.59759,   0.37848,   0.68657,   0.12117,  -0.37717,  -0.84141,  -0.88289,   0.49687,  -0.68814,   0.02516,  -0.74867,  -0.30622,  -0.80534,  -0.68807,  -0.62657,   0.06802,  -0.75181,   0.51635,   0.64422,  -0.00892,  -0.72005,  -0.42580,  -0.06966,  -0.44583,   0.79130,  -0.66756,  -0.27236,   0.10380
  -0.84771,  -0.71474,  -0.18466,  -0.81268,   0.28563,   0.30728,  -0.34627,  -0.80635,  -0.02327,   0.23903,  -0.22110,  -0.44627,  -0.45511,  -0.70352,  -0.87874,  -0.55190,   0.58974,  -0.92794,  -0.82187,  -0.29824,   0.53368,  -0.22030,   0.08737,   0.06609,  -0.50088,  -0.41969,  -0.26989,  -0.57506,   0.52136,  -0.77065,   0.08685,  -0.18424,   0.88015,   0.28043,   0.64521,  -0.35161,   0.40216,  -0.83087,  -0.79864,  -0.90746,  -0.86151,  -0.77086,  -0.65600,  -0.69871,   0.84717,  -0.15133,  -0.46043,  -0.94181,  -0.92920,  -0.91648,   0.11195,  -0.70049,  -0.91646,  -0.11010,  -0.37351,  -0.93750,  -0.52413,  -0.25685,  -0.16723,  -0.91522,  -0.91895,  -0.43726,  -0.82209,  -0.85502,  -0.88940,  -0.82810,  -0.75257,   0.27610,  -0.72185,  -0.28980,  -0.67523,   0.28183,   0.32726,  -0.81823,  -0.87222,  -0.86121,  -0.62308,  -0.32478,   0.57619,  -0.83425,   0.16969,   0.13792,  -0.61544,   0.45344
  -0.77727,  -0.28099,  -0.54335,  -0.33204,  -0.14754,  -0.60180,  -0.77826,  -0.29970,  -0.79991,  -0.40092,  -0.64382,  -0.88144,  -0.40322,  -0.00492,  -0.25438,   0.01588,  -0.54792,  -0.73897,  -0.23105,  -0.51828,  -0.79749,  -0.45992,   0.08661,  -0.48485,  -0.78673,   0.20438,  -0.62645,  -0.43211,  -0.04592,  -0.19826,  -0.36589,  -0.57676,  -0.29834,  -0.48204,  -0.80477,  -0.26463,  -0.79835,   0.36890,  -0.20373,   0.05295,   0.64868,  -0.49161,  -0.38607,   0.73402,  -0.78682,   0.53950,  -0.54715,  -0.63846,   0.31738,  -0.77451,   0.04257,   0.54895,  -0.86840,  -0.45284,   0.14001,  -0.58720,  -0.67251,   0.27902,   0.25742,  -0.32961,   0.25711,  -0.76352,  -0.79312,   0.45756,  -0.86190,  -0.12220,   0.54983,  -0.74082,   0.45361,  -0.84946,  -0.46455,  -0.85590,  -0.86136,   0.29694,  -0.15183,  -0.10040,  -0.92199,  -0.47786,  -0.44722,  -0.70610,  -0.08174,  -0.67415,  -0.25691,  -0.76016
  -0.91430,  -0.57215,   0.86331,  -0.87906,  -0.37227,   0.49803,  -0.75775,   0.30052,   0.48682,   0.46197,  -0.91271,   0.76059,  -0.54497,  -0.34660,   0.27348,  -0.31136,   0.93750,  -0.89433,  -0.78087,  -0.92949,  -0.79092,  -0.08634,   0.57834,  -0.93750,   0.54116,  -0.47811,   0.01963,  -0.34610,  -0.85414,   0.03756,   0.88203,   0.60334,  -0.70267,  -0.66136,   0.11674,  -0.85332,  -0.68373,   0.47190,  -0.03221,  -0.78299,   0.56259,  -0.93750,   0.81741,   0.05160,  -0.85854,   0.07452,   0.12861,  -0.44512,   0.31811,   0.31821,   0.32228,  -0.03164,   0.50281,  -0.93750,  -0.02898,   0.93407,   0.60984,  -0.86485,   0.87975,   0.20798,  -0.91503,  -0.77621,  -0.13915,   0.12731,   0.10248,  -0.92208,  -0.82250,  -0.15380,   0.33877,  -0.93750,   0.64041,   0.56955,  -0.79247,  -0.36455,  -0.51403,  -0.15317,  -0.92705,   0.06815,  -0.09100,   0.91641,  -0.74557,   0.16603,   0.19982,  -0.93336
  -0.66728,   0.03390,  -0.63182,  -0.08990,  -0.82832,   0.87522,   0.24070,  -0.72528,  -0.61140,  -0.23626,  -0.30222,  -0.52463,  -0.33325,  -0.43775,  -0.93468,  -0.34481,  -0.51377,  -0.64839,   0.19737,  -0.48664,   0.06911,  -0.69517,  -0.92999,  -0.89896,  -0.49188,   0.40979,   0.82715,  -0.67350,  -0.12398,   0.81496,  -0.34969,  -0.10758,  -0.56749,  -0.71019,   0.58856,  -0.21965,  -0.81366,  -0.41902,  -0.05775,   0.33665,   0.76958,  -0.30907,  -0.65230,  -0.06432,  -0.84441,  -0.93750,  -0.33240,   0.01071,  -0.82484,  -0.80027,  -0.64784,  -0.30655,   0.13467,  -0.93750,  -0.70481,  -0.41919,  -0.71739,  -0.77921,  -0.72699,   0.56261,   0.52569,  -0.93750,   0.07797,  -0.65922,   0.89391,   0.44450,  -0.56828,  -0.59897,  -0.46470,  -0.47356,  -0.55389,  -0.75902,  -0.16635,  -0.50699,  -0.54652,  -0.70505,  -0.85375,  -0.63955,   0.05181,  -0.68836,  -0.49426,   0.18414,  -0.49551,  -0.87607
  -0.68178,  -0.25340,  -0.27826,   0.55693,   0.06692,  -0.64421,  -0.12927,  -0.59461,  -0.06966,  -0.06208,  -0.03571,  -0.59025,  -0.47197,  -0.58277,   0.57130,   0.86406,  -0.14120,  -0.85783,  -0.81021,  -0.91785,  -0.93682,   0.50238,   0.83371,  -0.48656,   0.77728,  -0.93750,   0.49503,  -0.50441,  -0.45711,  -0.91322,  -0.78387,   0.69491,  -0.70315,  -0.43986,  -0.68309,  -0.91589,  -0.77973,  -0.51106,  -0.41071,  -0.77881,  -0.92798,  -0.84093,  -0.39919,   0.44009,  -0.02421,  -0.52819,  -0.40387,  -0.13030,  -0.06567,  -0.10825,  -0.52995,  -0.26860,  -0.93750,  -0.78526,  -0.65077,  -0.86494,  -0.77649,   0.71073,   0.91293,  -0.12276,   0.07121,   0.31572,  -0.74601,   0.58371,  -0.76395,   0.56969,   0.11636,  -0.61357,   0.67208,  -0.93750,  -0.54209,  -0.93750,  -0.78341,  -0.88207,  -0.12845,   0.40273,   0.05932,  -0.74250,  -0.42796,   0.53237,  -0.36515,  -0.78196,  -0.09287,   0.66658
  -0.76949,  -0.57022,  -0.37940,  -0.88183,  -0.18303,  -0.53761,  -0.84814,  -0.53812,  -0.90737,  -0.54995,  -0.42096,   0.25437,  -0.85096,  -0.82382,  -0.82365,  -0.66007,  -0.11399,  -0.26626,  -0.63001,  -0.73574,  -0.24533,  -0.71336,  -0.77234,  -0.28159,   0.81091,  -0.78341,  -0.61904,   0.06578,  -0.71595,  -0.94481,  -0.04765,  -0.39506,   0.18146,  -0.19949,  -0.67554,  -0.64753,  -0.21637,  -0.72791,   0.42349,  -0.92223,  -0.51197,  -0.26021,  -0.22823,  -0.72949,   0.62829,  -0.83778,  -0.73416,  -0.70759,  -0.76342,  -0.05745,  -0.03409,  -0.68987,  -0.48152,  -0.56687,  -0.45522,  -0.77726,   0.74779,  -0.69641,   0.60919,  -0.49088,  -0.82905,   0.05410,  -0.83204,  -0.61833,  -0.40357,  -0.63515,  -0.80308,   0.19805,  -0.74956,  -0.63010,  -0.19183,   0.00886,  -0.52708,  -0.92539,  -0.87533,  -0.79435,  -0.88228,   0.38930,  -0.54414,  -0.78212,  -0.70349,  -0.29420,  -0.72604,  -0.84462
  -0.49220,   0.63346,   0.36437,  -0.88875,  -0.77523,  -0.63868,  -0.93750,   0.31021,  -0.03474,  -0.78825,  -0.72872,   0.74520,  -0.11417,  -0.85303,  -0.58861,  -0.62108,  -0.01721,   0.72900,  -0.85376,   0.74242,  -0.63466,  -0.55041,  -0.93750,  -0.92105,   0.15192,  -0.78285,   0.56830,  -0.75290,  -0.86063,  -0.86470,   0.50216,  -0.25787,   0.15041,   0.72661,   0.60867,  -0.37352,   0.60070,  -0.87575,   0.34891,  -0.93750,  -0.88075,  -0.91498,  -0.18007,  -0.77393,   0.68478,  -0.44905,  -0.79807,  -0.91868,  -0.79689,   0.03698,   0.87841,  -0.92211,  -0.02466,   0.16652,   0.39434,  -0.81330,   0.40361,   0.50954,  -0.29068,  -0.80820,  -0.92380,  -0.79161,  -0.87107,  -0.90438,  -0.85800,  -0.63832,  -0.78853,   0.84351,  -0.64114,  -0.77531,   0.44174,  -0.91242,  -0.91260,  -0.83964,  -0.93750,  -0.18027,  -0.13081,   0.67760,  -0.20063,  -0.77932,  -0.79468,  -0.72058,  -0.75140,  -0.68970
  -0.88032,  -0.61358,   0.26733,   0.16383,  -0.36798,  -0.76248,  -0.66895,   0.51543,  -0.86119,  -0.70111,  -0.82690,   0.48078,  -0.90074,  -0.80282,  -0.26836,  -0.83372,   0.80190,   0.87579,  -0.76078,  -0.11616,  -0.67885,  -0.91670,   0.43752,  -0.83947,   0.26765,  -0.75016,  -0.10322,  -0.28779,  -0.86942,  -0.88586,   0.92943,  -0.55657,   0.73252,   0.80757,  -0.66575,  -0.68862,   0.70559,  -0.93750,  -0.70718,  -0.91233,  -0.84097,  -0.87767,  -0.01471,  -0.92392,   0.65088,  -0.27162,  -0.77767,  -0.93185,  -0.88837,  -0.93255,   0.92407,  -0.74974,  -0.82261,   0.42497,  -0.29812,  -0.80105,   0.23570,  -0.49891,   0.79524,  -0.77557,  -0.79620,  -0.82074,   0.03314,  -0.83919,  -0.30180,  -0.43988,  -0.93750,   0.82278,   0.14314,   0.27162,   0.42068,   0.17202,  -0.78619,  -0.93081,  -0.92195,   0.42815,  -0.89045,   0.41127,  -0.35447,  -0.84528,  -0.87258,   0.76665,  -0.80005,  -0.91031
  -0.04112,  -0.05202,  -0.37089,  -0.22525,   0.91360,   0.59641,   0.86262,   0.81763,   0.57877,  -0.64900,  -0.89863,  -0.71980,  -0.93333,  -0.00524,   0.50211,   0.81577,   0.32427,   0.55642,  -0.85719,  -0.78325,  -0.93750,  -0.72567,  -0.00203,  -0.53654,  -0.53606,  -0.88021,   0.47551,   0.86476,  -0.81885,  -0.85182,   0.06836,   0.87529,  -0.73726,  -0.61930,   0.06040,  -0.90474,  -0.72661,  -0.87085,  -0.73159,  -0.92112,  -0.91150,   0.39001,  -0.14996,  -0.29729,  -0.91504,   0.38952,   0.67921,  -0.23403,  -0.08715,   0.40774,  -0.30537,  -0.86919,  -0.78059,  -0.67399,   0.28689,  -0.80150,   0.72079,   0.88628,   0.34912,  -0.32492,  -0.25994,   0.40100,  -0.60475,   0.63065,  -0.09399,  -0.41757,   0.06552,  -0.52173,  -0.42881,  -0.74652,  -0.45642,  -0.59940,  -0.92097,  -0.40828,   0.66895,   0.26942,  -0.86953,  -0.35577,   0.63170,   0.39667,  -0.81817,  -0.36699,  -0.17755,  -0.45611
   0.01225,  -0.90794,  -0.20685,  -0.00279,   0.38104,   0.42073,  -0.92555,   0.78268,   0.73958,  -0.73544,  -0.93587,  -0.63637,  -0.79205,   0.90655,  -0.74612,  -0.48459,  -0.64397,  -0.72169,   0.93750,   0.58484,  -0.63993,   0.45544,  -0.80841,  -0.02643,  -0.15749,   0.21334,  -0.21510,  -0.49365,  -0.28148,   0.41354,   0.38865,  -0.86969,  -0.92779,  -0.79013,  -0.71870,  -0.28300,  -0.80560,   0.53620,  -0.53635,  -0.04021,   0.47155,  -0.23445,  -0.17202,  -0.67184,  -0.69026,  -0.29374,  -0.66326,   0.72952,   0.03863,   0.32923,  -0.11434,  -0.32846,   0.68399,   0.01858,   0.55578,   0.07700,  -0.78169,  -0.83602,  -0.65004,   0.75841,   0.82151,   0.40445,   0.30962,   0.71550,   0.54897,  -0.59765,   0.35627,  -0.67585,  -0.71224,   0.47983,   0.06206,   0.32780,   0.67856,  -0.05821,  -0.24677,  -0.79451,   0.04226,  -0.61695,  -0.86528,   0.11337,   0.40078,  -0.69566,   0.19825,  -0.44531
  -0.66524,   0.85091,  -0.51858,   0.29724,   0.92846,   0.81164,  -0.50158,  -0.19949,  -0.76415,  -0.69372,  -0.82649,   0.69090,  -0.93750,  -0.83728,  -0.18120,   0.93750,   0.69938,  -0.72111,  -0.88382,  -0.07875,  -0.87499,  -0.82405,  -0.77044,  -0.58329,  -0.85293,  -0.88617,  -0.61706,   0.82299,  -0.43554,  -0.86311,  -0.71110,   0.93750,  -0.75172,  -0.62331,   0.56465,  -0.85377,  -0.48333,   0.46217,  -0.78128,   0.53757,  -0.19438,  -0.60254,   0.68903,   0.32819,  -0.62796,   0.54170,  -0.02065,  -0.60857,   0.03874,  -0.93750,  -0.47268,  -0.71461,  -0.50747,   0.46822,   0.49162,   0.33338,  -0.57360,   0.34181,  -0.52385,  -0.89283,  -0.90157,  -0.50803,  -0.76686,   0.53668,  -0.94488,   0.11177,  -0.72757,  -0.46752,  -0.04718,  -0.93750,  -0.37214,  -0.90402,  -0.84911,  -0.93750,   0.83832,  -0.55300,  -0.79172,  -0.12469,   0.56095,  -0.53024,  -0.86753,  -0.14242,   0.58383,  -0.87418
   0.47513,  -0.87906,  -0.19538,  -0.79206,  -0.92059,  -0.75308,  -0.93750,  -0.25800,  -0.90914,   0.19173,   0.63518,  -0.38935,   0.02679,   0.28866,  -0.85739,  -0.92469,  -0.46405,  -0.00012,   0.29136,  -0.30642,  -0.38750,  -0.12517,  -0.86577,   0.73620,  -0.43211,   0.80570,  -0.38001,  -0.86672,  -0.93079,  -0.65228,   0.73505,  -0.87071,   0.43461,   0.24839,  -0.84589,   0.28554,  -0.16693,  -0.05303,  -0.19688,  -0.93750,   0.00829,   0.02941,  -0.62282,  -0.75701,  -0.05978,  -0.71251,  -0.87329,  -0.77880,  -0.93122,  -0.23905,  -0.26596,  -0.88938,   0.44012,  -0.48967,   0.49152,  -0.70281,  -0.55037,  -0.68089,  -0.41694,   0.11517,  -0.16657,   0.09623,  -0.06353,  -0.84217,  -0.76578,  -0.82723,  -0.85890,   0.03270,  -0.69009,  -0.48777,  -0.14251,  -0.89605,   0.08296,  -0.62812,  -0.93750,   0.19862,  -0.01727,  -0.11001,  -0.44707,  -0.60334,   0.39912,  -0.33413,  -0.80344,  -0.11994
  -0.93477,   0.68575,  -0.54368,  -0.32094,   0.62573,   0.41015,   0.08274,  -0.78572,  -0.74056,  -0.79144,   0.34528,   0.04122,  -0.82745,  -0.14199,  -0.70289,   0.24433,  -0.14235,  -0.85468,  -0.85781,  -0.92572,  -0.93750,  -0.82723,  -0.06255,   0.66010,  -0.87256,  -0.74136,  -0.41464,  -0.14821,  -0.25995,  -0.92836,  -0.74699,  -0.20807,   0.13235,  -0.19871,  -0.50978,  -0.72565,  -0.05764,  -0.58660,   0.34556,  -0.42541,  -0.92371,  -0.82698,  -0.56729,   0.79881,  -0.50818,   0.42831,   0.56939,  -0.23395,  -0.78072,  -0.93590,   0.10219,  -0.58662,  -0.82398,  -0.31467,   0.20102,  -0.93166,  -0.86495,  -0.24903,   0.59762,  -0.71235,  -0.74573,  -0.64505,  -0.88698,   0.58426,   0.07376,   0.11527,  -0.70231,   0.34705,   0.78122,  -0.86665,  -0.68947,  -0.86311,  -0.85966,  -0.90062,  -0.39745,   0.64941,  -0.51979,  -0.35326,   0.24916,   0.33012,  -0.91179,  -0.84997,   0.70100,   0.25154
  -0.88269,  -0.80340,  -0.16397,  -0.30374,  -0.45742,   0.01194,   0.46011,  -0.29820,   0.35719,   0.01896,  -0.37745,  -0.34323,  -0.18246,  -0.08213,   0.09734,   0.88263,  -0.70163,  -0.77725,   0.47046,  -0.77652,  -0.00308,  -0.53222,  -0.76660,  -0.92588,   0.07177,  -0.73913,  -0.42794,   0.63831,  -0.52842,   0.77878,  -0.23955,  -0.14706,  -0.40222,  -0.83481,  -0.62653,  -0.13059,  -0.13178,   0.19499,   0.11138,   0.19479,  -0.51606,   0.33760,  -0.43457,  -0.50343,  -0.78162,  -0.86455,   0.18672,   0.44036,   0.93750,   0.64920,  -0.46908,  -0.67072,   0.06202,  -0.85080,  -0.55503,  -0.18425,  -0.75819,  -0.66169,  -0.10319,  -0.03889,  -0.30011,  -0.87570,   0.51536,  -0.63173,  -0.72015,   0.28222,   0.15972,  -0.79267,  -0.65751,   0.05700,  -0.32992,  -0.66178,  -0.11574,  -0.64198,  -0.71380,  -0.88253,  -0.79939,  -0.68581,  -0.61447,  -0.08598,   0.27382,  -0.55668,  -0.12728,  -0.63515
   0.33408,  -0.10751,   0.13288,   0.13938,   0.31990,  -0.84169,  -0.81843,  -0.79324,  -0.93403,  -0.82892,   0.02364,  -0.62930,  -0.73611,   0.44204,  -0.73058,  -0.38999,  -0.44600,  -0.11899,  -0.71722,   0.20507,  -0.33395,   0.81969,   0.76695,   0.45791,  -0.57712,  -0.67874,  -0.54307,  -0.92842,   0.81312,   0.80713,  -0.64262,  -0.31121,   0.21860,  -0.18678,   0.07544,  -0.65705,   0.72479,  -0.82032,  -0.68131,   0.34474,  -0.84633,   0.37183,   0.13659,  -0.70795,  -0.31816,   0.86385,  -0.72846,  -0.78887,  -0.83858,  -0.42485,   0.87496,  -0.26092,  -0.91308,   0.20162,   0.67490,  -0.71115,  -0.30448,  -0.19451,  -0.27299,  -0.53318,  -0.54438,  -0.06058,  -0.77781,   0.23208,  -0.79559,  -0.93750,  -0.87230,  -0.52388,  -0.68940,  -0.67688,  -0.04349,  -0.93395,  -0.04929,  -0.57246,  -0.13416,   0.63220,   0.04384,   0.24101,  -0.37800,  -0.70558,  -0.53393,  -0.71331,  -0.74881,   0.78837
  -0.59844,   0.59130,   0.87212,  -0.73981,  -0.37250,   0.41580,   0.02343,   0.83723,  -0.91275,  -0.69428,  -0.87151,   0.62459,  -0.52854,  -0.93750,  -0.85371,  -0.82064,   0.73305,  -0.05135,  -0.48418,   0.20496,  -0.13505,  -0.13268,   0.24976,  -0.90207,  -0.30049,  -0.87448,   0.54287,  -0.76205,   0.19501,  -0.07842,   0.68362,   0.21896,   0.34573,  -0.47796,  -0.00413,  -0.82817,  -0.48468,  -0.93750,  -0.31550,  -0.70899,  -0.19159,  -0.93750,   0.87769,  -0.10000,  -0.62696,  -0.63792,   0.26202,   0.00300,  -0.86116,  -0.93750,   0.76020,   0.50167,  -0.14495,  -0.83323,  -0.26504,  -0.13846,   0.14781,  -0.76328,   0.78350,   0.00186,  -0.74753,  -0.93750,   0.43859,  -0.81489,  -0.55877,   0.21907,  -0.90723,  -0.03822,   0.04190,  -0.73358,   0.25528,  -0.71580,  -0.93750,  -0.04711,  -0.73042,  -0.92892,  -0.86493,   0.75072,  -0.73436,   0.76556,  -0.90128,  -0.65653,   0.15160,  -0.42033
   0.25329,  -0.72998,   0.87251,  -0.93746,  -0.40243,  -0.80907,  -0.75564,   0.87500,  -0.86108,   0.29190,  -0.80050,   0.26982,  -0.93750,  -0.93706,   0.46467,  -0.76466,   0.68086,  -0.82226,  -0.93750,  -0.93750,  -0.69486,  -0.59361,   0.36715,  -0.82828,  -0.31592,  -0.07633,   0.70818,   0.31322,  -0.74023,  -0.93750,   0.79768,   0.87347,   0.78361,   0.58411,   0.49076,  -0.87579,   0.28257,  -0.93750,   0.57691,  -0.85628,  -0.93525,  -0.44855,   0.28392,  -0.86689,  -0.13127,   0.59658,  -0.92155,  -0.91206,  -0.86048,  -0.83384,   0.49251,  -0.93618,  -0.42761,   0.05238,   0.68496,   0.61849,   0.45974,  -0.01476,   0.41337,  -0.47957,  -0.93750,  -0.91452,  -0.90086,  -0.81004,  -0.07826,  -0.85569,  -0.74175,   0.79575,   0.60339,  -0.04592,   0.31438,  -0.65907,  -0.88094,  -0.93750,  -0.93750,  -0.63440,  -0.90620,   0.90883,   0.77720,  -0.22580,  -0.76476,  -0.74282,   0.73151,  -0.88472
  -0.80064,  -0.74211,  -0.15544,  -0.29599,   0.23352,  -0.84046,  -0.12033,  -0.66857,  -0.14977,  -0.80764,  -0.30641,  -0.45589,  -0.45219,  -0.55072,  -0.66609,  -0.52530,  -0.42433,  -0.81993,  -0.47624,  -0.39043,  -0.86899,  -0.70090,  -0.23994,  -0.55107,  -0.21643,  -0.55913,  -0.70091,  -0.17657,  -0.60191,  -0.62727,  -0.81667,  -0.44655,  -0.48103,  -0.40381,  -0.61398,   0.16480,  -0.67540,   0.69286,   0.33449,  -0.78179,  -0.63049,  -0.84731,  -0.51971,   0.51457,  -0.39586,  -0.24628,  -0.51146,  -0.53716,  -0.79428,  -0.91722,  -0.56626,  -0.58458,  -0.74259,  -0.40964,  -0.54436,  -0.70488,  -0.75038,  -0.09862,  -0.46224,  -0.48705,  -0.16634,  -0.75022,  -0.23556,  -0.67531,   0.03756,  -0.07487,   0.77036,  -0.59893,  -0.05491,  -0.92668,  -0.61369,  -0.24048,  -0.56145,  -0.48832,  -0.88379,  -0.29891,  -0.93288,  -0.64493,  -0.54896,  -0.83215,  -0.02141,  -0.75597,  -0.56572,  -0.50172
   0.30822,  -0.18471,   0.65476,   0.24410,  -0.61002,   0.37489,  -0.78455,  -0.43164,   0.04012,  -0.32788,   0.28869,  -0.68305,  -0.60183,   0.87027,   0.81879,  -0.60479,  -0.85478,  -0.30247,   0.63232,  -0.89971,   0.26522,  -0.84330,  -0.80638,   0.50652,  -0.63212,  -0.70469,  -0.75150,  -0.56026,  -0.62638,   0.93527,  -0.11894,  -0.76989,  -0.58286,  -0.45003,   0.67092,  -0.42079,  -0.72923,   0.73773,  -0.48225,  -0.02517,   0.10432,   0.47953,  -0.72867,  -0.63199,  -0.57474,  -0.61617,   0.28975,   0.68097,   0.05303,   0.36977,  -0.55213,  -0.58517,   0.13367,  -0.18577,   0.23974,   0.93750,   0.23008,  -0.88545,  -0.34517,  -0.33699,  -0.70651,  -0.28754,  -0.16936,   0.51204,   0.65510,   0.05563,   0.10814,  -0.78005,  -0.76764,   0.38351,  -0.48631,  -0.93548,   0.32943,   0.81395,   0.76225,  -0.75723,  -0.21112,  -0.36492,  -0.78286,  -0.80758,   0.07691,   0.44680,   0.11217,  -0.85519
   0.28419,  -0.77630,  -0.71309,  -0.81115,  -0.34511,   0.02987,  -0.69567,  -0.71662,  -0.83253,  -0.30213,   0.54560,  -0.33308,  -0.25099,   0.62432,  -0.26365,  -0.52926,  -0.67928,   0.00815,  -0.20958,  -0.24291,  -0.21611,   0.40127,  -0.72279,   0.45094,  -0.19625,   0.32566,  -0.61579,  -0.53697,  -0.29343,  -0.34349,  -0.43936,  -0.52745,   0.08547,  -0.15957,  -0.30644,   0.52025,  -0.17649,  -0.34288,  -0.63384,  -0.60363,  -0.55954,  -0.64383,  -0.49906,  -0.05561,  -0.14210,  -0.89290,  -0.35879,  -0.56106,  -0.78268,  -0.53355,  -0.53655,  -0.34403,   0.04264,  -0.41637,  -0.40741,  -0.81330,  -0.45333,  -0.48107,  -0.69806,  -0.67295,   0.07325,   0.19193,  -0.36533,  -0.74724,   0.33786,  -0.34381,  -0.59767,  -0.61512,  -0.80222,  -0.70718,  -0.51685,  -0.87387,   0.25361,  -0.62828,  -0.72895,  -0.44310,  -0.65975,  -0.63457,  -0.54822,  -0.74445,  -0.26485,  -0.26776,  -0.79342,   0.05661
  -0.69473,   0.37166,   0.44258,  -0.88915,   0.05375,  -0.49002,  -0.80464,  -0.68546,  -0.74052,  -0.74954,  -0.29792,  -0.12717,  -0.86974,  -0.72852,  -0.67946,  -0.71779,   0.63596,   0.22953,  -0.91601,   0.33126,  -0.88334,  -0.34844,  -0.56752,  -0.40340,   0.54971,  -0.27836,   0.41465,  -0.84854,  -0.85427,  -0.91430,  -0.32528,  -0.26390,   0.02843,   0.29870,   0.12269,  -0.41438,   0.88050,  -0.80512,  -0.15887,  -0.93750,  -0.93950,  -0.79865,  -0.07224,  -0.50807,   0.47113,  -0.68966,  -0.92482,  -0.70744,  -0.10382,  -0.93750,   0.00731,  -0.85048,  -0.67828,   0.07204,   0.63445,  -0.53405,  -0.30142,   0.33118,   0.01726,  -0.65598,  -0.87426,  -0.93750,  -0.88350,  -0.87623,  -0.93750,  -0.68360,  -0.93514,  -0.22591,  -0.38558,  -0.85553,  -0.58625,  -0.14218,  -0.73806,  -0.82842,  -0.93750,   0.21826,  -0.87892,   0.08915,  -0.03878,  -0.80396,  -0.55058,  -0.07364,  -0.71003,  -0.70216
  -0.82452,   0.86869,   0.67293,   0.33247,   0.11715,  -0.92320,  -0.79709,  -0.50286,  -0.82244,  -0.81930,   0.21903,  -0.12056,  -0.86732,   0.14758,   0.02189,  -0.62177,  -0.59175,  -0.87910,   0.73128,  -0.86144,  -0.07506,   0.93750,  -0.12208,  -0.78562,  -0.43728,  -0.49723,  -0.88524,  -0.65245,   0.78570,   0.69273,   0.20489,  -0.88896,   0.23155,  -0.43859,  -0.06412,  -0.60412,  -0.58917,  -0.45604,   0.42445,   0.93750,  -0.79956,  -0.93273,  -0.68210,   0.16777,  -0.23080,  -0.22919,  -0.88307,   0.22506,  -0.45021,  -0.81360,   0.69221,   0.48090,  -0.86859,  -0.80892,  -0.14895,   0.30998,  -0.65656,  -0.86512,   0.82565,   0.13135,   0.27018,  -0.09457,  -0.50602,  -0.93750,  -0.76119,  -0.65832,  -0.77083,  -0.75900,  -0.24945,  -0.49949,   0.07875,  -0.73247,  -0.63379,  -0.87626,  -0.41899,  -0.56239,   0.02069,   0.64411,  -0.88614,  -0.37569,  -0.52220,   0.15830,  -0.15479,  -0.75383
  -0.61065,  -0.05231,   0.05184,  -0.73700,  -0.33712,  -0.63466,  -0.93539,  -0.71371,  -0.21995,   0.19378,  -0.61508,  -0.07058,  -0.93750,  -0.50479,  -0.81016,  -0.81811,   0.01344,  -0.18701,  -0.34540,  -0.60215,  -0.31963,  -0.31452,  -0.87214,  -0.67558,   0.16449,  -0.45733,  -0.58464,  -0.78739,   0.16544,  -0.81382,   0.44522,  -0.67563,   0.34224,   0.23132,  -0.91809,  -0.14295,   0.02614,  -0.85346,  -0.75818,  -0.83274,  -0.86685,  -0.67753,  -0.57111,  -0.70932,   0.05210,   0.11941,  -0.75768,  -0.58402,  -0.90465,  -0.35835,   0.39750,  -0.30627,  -0.70493,  -0.39765,   0.53458,  -0.63650,   0.05300,  -0.58886,  -0.54648,   0.23596,  -0.38346,  -0.33896,  -0.48941,  -0.92601,  -0.86636,  -0.71904,  -0.92953,  -0.61018,  -0.79088,  -0.32017,  -0.01178,  -0.45968,  -0.57456,  -0.36038,  -0.86406,  -0.86689,  -0.73115,   0.31703,   0.26403,  -0.15506,  -0.37687,   0.44169,  -0.47590,   0.73153
  -0.25465,  -0.14985,  -0.37841,  -0.46360,  -0.77284,  -0.39818,  -0.45953,  -0.69728,  -0.27407,  -0.32619,   0.20106,  -0.67400,  -0.60256,  -0.25458,  -0.25605,  -0.46452,   0.06176,  -0.61168,   0.80710,  -0.56479,  -0.84951,  -0.66633,  -0.64417,  -0.70243,  -0.53225,  -0.47998,   0.07688,  -0.68072,  -0.69100,  -0.02493,  -0.59999,  -0.08752,  -0.70846,  -0.29695,  -0.72642,   0.42363,   0.17955,   0.48278,  -0.29314,  -0.03153,  -0.74061,  -0.28665,  -0.63570,  -0.21253,  -0.62534,  -0.16623,  -0.09153,  -0.69933,  -0.30721,   0.22609,  -0.61177,   0.50173,   0.57721,  -0.64030,  -0.30573,  -0.71120,  -0.87906,  -0.14058,  -0.36536,  -0.51581,   0.03996,  -0.56112,  -0.60393,  -0.83388,  -0.93750,  -0.49238,  -0.62207,  -0.55373,  -0.79445,   0.43625,  -0.67434,  -0.83198,  -0.76513,  -0.66539,  -0.17226,  -0.53890,  -0.85197,  -0.59405,  -0.14629,  -0.04541,   0.61640,  -0.47987,  -0.69581,  -0.87304
  -0.93750,   0.37410,  -0.51144,  -0.72089,  -0.38056,   0.09603,   0.64513,  -0.54440,  -0.91021,  -0.75824,  -0.92465,  -0.87755,  -0.40400,  -0.65497,   0.81292,   0.75290,  -0.12194,  -0.87156,  -0.68416,  -0.03303,  -0.91443,  -0.93750,  -0.74849,  -0.70703,  -0.25563,  -0.81563,  -0.68467,  -0.38049,  -0.11451,  -0.85661,  -0.52526,   0.13694,  -0.86206,  -0.52075,  -0.68396,  -0.91662,  -0.69321,   0.34340,  -0.62411,  -0.45109,   0.81058,  -0.70240,   0.28955,  -0.45506,  -0.64473,  -0.83148,   0.12112,   0.46699,  -0.31288,  -0.87567,  -0.78979,  -0.88124,  -0.71447,  -0.81086,  -0.48559,  -0.13033,   0.01836,  -0.65403,  -0.22487,  -0.71178,  -0.23263,  -0.87753,  -0.44984,  -0.02267,  -0.83783,  -0.35616,  -0.84703,  -0.01453,  -0.31874,  -0.87786,   0.62851,  -0.58770,   0.08058,  -0.40519,   0.53931,  -0.22340,  -0.93750,  -0.70077,  -0.30251,  -0.58467,  -0.93750,  -0.19177,  -0.62864,  -0.91037
   0.60428,  -0.92744,   0.76112,   0.15575,  -0.60922,  -0.68519,  -0.83254,   0.93750,  -0.77044,  -0.12960,  -0.80096,  -0.55777,  -0.81081,   0.81227,  -0.68614,  -0.38175,   0.01020,  -0.82532,   0.64149,  -0.93396,  -0.44118,  -0.62423,  -0.64699,  -0.70553,   0.46686,  -0.29121,  -0.85164,  -0.37961,  -0.93750,  -0.62954,   0.73267,  -0.87447,  -0.59129,  -0.29401,   0.01663,  -0.68322,  -0.65821,  -0.41881,   0.04248,  -0.88010,   0.36194,  -0.85460,   0.03662,  -0.61138,  -0.77416,  -0.93730,  -0.43772,   0.71006,  -0.60236,   0.18459,  -0.35172,  -0.39925,  -0.32383,  -0.90463,  -0.30573,   0.59676,   0.37205,  -0.81875,  -0.22456,   0.11466,  -0.93750,  -0.38191,  -0.51564,  -0.81265,  -0.76738,  -0.78022,  -0.81969,  -0.30821,  -0.22253,  -0.85973,   0.87586,   0.45524,  -0.74036,  -0.78821,   0.29674,  -0.65850,  -0.23988,   0.65593,   0.14710,   0.36730,   0.32796,  -0.50068,  -0.19241,  -0.93750
  -0.05043,  -0.74230,  -0.00705,  -0.90820,  -0.15780,  -0.91955,  -0.61913,   0.06199,  -0.50343,   0.51436,  -0.94545,   0.61515,  -0.77480,  -0.90597,  -0.93750,  -0.70457,   0.71355,  -0.52097,  -0.27674,  -0.06322,  -0.25541,  -0.54447,   0.72340,  -0.87266,  -0.18910,  -0.69970,   0.10898,   0.38672,   0.30905,  -0.93750,   0.83545,   0.57924,   0.46805,   0.69494,  -0.45731,  -0.10426,  -0.57555,  -0.81257,  -0.52028,  -0.93750,  -0.65769,  -0.93750,   0.47084,  -0.44660,   0.74929,   0.66534,  -0.84484,  -0.87969,  -0.43706,  -0.70237,   0.94289,  -0.37994,  -0.90522,  -0.48069,  -0.18736,  -0.74483,  -0.09708,  -0.00410,  -0.05295,  -0.73394,  -0.62181,  -0.92721,  -0.74573,  -0.29775,  -0.93750,  -0.80401,  -0.76009,   0.66643,   0.00927,  -0.83457,   0.26957,  -0.66327,   0.34396,  -0.82196,  -0.89281,  -0.63906,  -0.59710,   0.94911,  -0.69869,  -0.28447,  -0.73619,   0.28867,   0.42622,  -0.16765
   0.06538,  -0.56452,   0.83684,   0.01510,  -0.75477,  -0.88686,  -0.42244,   0.60187,  -0.02927,  -0.52210,  -0.93750,   0.14159,  -0.93750,  -0.82120,  -0.85798,  -0.80803,   0.58930,  -0.78315,  -0.76544,  -0.92988,  -0.29559,   0.74427,  -0.70481,  -0.89634,   0.62771,  -0.90440,  -0.52709,   0.34413,  -0.88432,  -0.77153,   0.92709,  -0.41215,  -0.61566,  -0.22560,  -0.85891,  -0.93750,   0.51844,  -0.88167,   0.77471,  -0.93750,  -0.59678,  -0.44419,   0.84527,  -0.56269,  -0.84228,  -0.92632,  -0.65248,  -0.89938,  -0.16530,  -0.93750,   0.58462,   0.21282,  -0.82650,  -0.89154,   0.09874,  -0.39844,   0.75355,  -0.93750,   0.88965,  -0.01258,  -0.80307,  -0.77960,   0.67346,   0.74717,  -0.85145,  -0.93750,   0.28918,   0.30489,   0.46353,  -0.93750,   0.62968,  -0.79248,  -0.90372,   0.36090,  -0.29406,  -0.79859,  -0.93139,   0.83411,  -0.00600,   0.86865,  -0.83331,  -0.73899,   0.37297,  -0.91931
  -0.84833,  -0.75437,  -0.66200,   0.36576,  -0.66422,   0.21583,  -0.69305,  -0.53637,   0.56732,  -0.87308,  -0.13938,  -0.63453,  -0.30248,  -0.14203,  -0.32841,   0.73066,  -0.53502,  -0.84916,  -0.43911,  -0.92754,  -0.28635,   0.06862,  -0.73756,  -0.60849,  -0.66834,  -0.69817,  -0.48814,   0.22820,   0.04909,  -0.71680,  -0.55904,   0.91903,  -0.48573,  -0.63584,  -0.84354,  -0.42824,  -0.74137,  -0.43662,   0.58990,  -0.86247,  -0.84838,  -0.43579,  -0.57266,   0.80892,  -0.70284,   0.39145,   0.16110,  -0.08167,  -0.56680,   0.14849,  -0.80162,  -0.25652,  -0.56693,  -0.54256,   0.00411,  -0.67609,  -0.59629,   0.45155,  -0.45614,  -0.43068,   0.43792,   0.48974,   0.35151,  -0.75998,  -0.93245,   0.47224,  -0.34157,  -0.75932,  -0.26046,  -0.41118,  -0.66075,  -0.00865,   0.01103,  -0.44755,   0.45038,   0.17222,  -0.30399,  -0.59956,  -0.73387,  -0.41674,   0.09086,  -0.57724,  -0.60958,  -0.67252
  -0.82938,  -0.81012,  -0.53863,  -0.82590,  -0.73467,  -0.77056,  -0.61603,  -0.34172,   0.08354,  -0.86675,   0.24373,   0.05133,  -0.36253,  -0.76850,  -0.86894,  -0.36040,  -0.23793,  -0.19520,  -0.04910,  -0.70397,  -0.53994,  -0.54495,  -0.51119,  -0.68085,   0.31050,  -0.76129,  -0.54688,  -0.31050,  -0.46262,  -0.81086,   0.21153,  -0.70393,   0.48978,  -0.02830,  -0.24776,   0.06618,   0.34227,  -0.78741,  -0.57299,  -0.84750,  -0.55576,  -0.68805,  -0.37615,  -0.71773,   0.00693,  -0.72588,  -0.93076,  -0.84832,  -0.86577,  -0.93750,  -0.37096,  -0.75102,  -0.75078,  -0.77115,  -0.41039,  -0.73586,  -0.26663,  -0.84662,  -0.15447,  -0.20869,  -0.11223,  -0.87907,  -0.77234,  -0.81798,  -0.75414,  -0.92110,  -0.84494,  -0.17956,  -0.76387,  -0.83780,   0.01054,  -0.89047,  -0.47320,  -0.71949,  -0.84308,  -0.67004,   0.59635,  -0.01262,  -0.16423,  -0.72906,  -0.48121,   0.13345,  -0.57088,  -0.79343
  -0.81089,  -0.93280,   0.64263,   0.17447,  -0.64191,   0.49624,  -0.87190,  -0.35129,  -0.46117,   0.51340,  -0.63710,   0.74290,  -0.82228,  -0.78479,  -0.79953,   0.88751,  -0.47134,  -0.00127,  -0.47116,  -0.92099,  -0.93750,   0.42600,  -0.78937,  -0.80512,   0.28653,  -0.89153,   0.22128,  -0.79030,  -0.64714,  -0.34366,   0.17129,  -0.80424,  -0.80235,  -0.72546,   0.05604,  -0.76128,  -0.44942,   0.38305,   0.68801,  -0.43755,  -0.84545,   0.40513,   0.00658,  -0.31507,  -0.60183,  -0.71159,  -0.87442,   0.00232,  -0.14117,  -0.82763,   0.56619,  -0.82321,  -0.48644,  -0.87661,   0.02487,   0.78603,  -0.70644,  -0.87752,   0.72164,   0.31029,  -0.41603,  -0.65352,   0.46906,   0.44943,  -0.39057,  -0.39157,   0.42130,  -0.80728,   0.40472,  -0.90648,   0.80324,  -0.93750,   0.76716,   0.00327,   0.15343,  -0.59346,   0.37846,   0.76487,  -0.89544,  -0.28508,  -0.77306,  -0.93750,   0.72305,  -0.88074
  -0.68022,  -0.79938,  -0.41391,  -0.74089,  -0.12890,  -0.81735,  -0.93360,  -0.74725,  -0.88081,  -0.72103,  -0.63140,  -0.05183,  -0.81568,  -0.80851,  -0.05784,  -0.66850,   0.49181,  -0.76504,  -0.63054,  -0.78848,  -0.65022,  -0.48781,  -0.70440,  -0.93750,  -0.44329,  -0.53250,  -0.35406,  -0.73709,  -0.62668,  -0.93682,  -0.40776,   0.55938,   0.07524,   0.40308,  -0.56235,  -0.43803,   0.02143,  -0.18443,  -0.31832,  -0.94237,  -0.71950,  -0.83915,  -0.52220,  -0.42636,   0.58696,  -0.37973,  -0.72328,  -0.82025,  -0.89865,  -0.85064,   0.39548,  -0.62946,   0.10354,  -0.55808,  -0.34158,  -0.78761,  -0.26286,  -0.50473,   0.24949,  -0.63735,  -0.92803,  -0.74069,  -0.78448,  -0.85453,  -0.93750,  -0.78239,  -0.83962,   0.31904,  -0.36725,  -0.15945,  -0.20072,  -0.85884,  -0.48310,  -0.10018,  -0.84940,  -0.82089,  -0.71691,  -0.03610,   0.14437,  -0.66357,  -0.19543,   0.29299,  -0.00530,  -0.43378
  -0.33312,   0.92178,  -0.18076,   0.32934,   0.45626,   0.34434,   0.36420,  -0.75000,  -0.83857,  -0.67955,  -0.93137,  -0.61156,  -0.75985,  -0.74763,   0.42613,   0.54531,   0.57645,  -0.93750,  -0.47509,  -0.74935,  -0.87134,  -0.31799,   0.67500,  -0.72050,   0.38228,  -0.91544,   0.93750,  -0.39926,  -0.93250,  -0.06763,  -0.30330,   0.23827,  -0.71828,  -0.27230,  -0.11850,  -0.76336,  -0.35048,  -0.43586,   0.46417,   0.58642,   0.51060,   0.02619,   0.54393,   0.22987,  -0.57738,  -0.70711,   0.74232,  -0.36612,  -0.21910,  -0.93750,  -0.29847,  -0.70094,  -0.93306,  -0.69144,  -0.76806,   0.70925,   0.27702,  -0.33405,  -0.51469,  -0.79929,  -0.93750,  -0.77448,  -0.24410,   0.75553,   0.31926,   0.20150,   0.23594,   0.29058,   0.74483,  -0.93750,  -0.33448,  -0.65614,  -0.90007,  -0.44009,   0.67641,  -0.63361,  -0.09950,   0.35972,   0.07166,   0.92993,  -0.79766,  -0.89324,  -0.71595,  -0.55685
  -0.65841,  -0.39421,  -0.36289,   0.37089,  -0.83194,  -0.53015,  -0.76380,   0.08621,   0.44137,  -0.35427,  -0.17352,  -0.06698,  -0.48597,   0.41587,  -0.79136,  -0.47208,  -0.12320,  -0.30742,   0.71986,   0.21624,  -0.47843,   0.00721,  -0.03539,  -0.88273,  -0.47151,  -0.62355,  -0.74061,  -0.87497,  -0.86632,   0.89148,  -0.20523,  -0.51904,  -0.51181,  -0.72845,  -0.51215,  -0.56287,  -0.83002,  -0.63666,  -0.52057,  -0.70035,  -0.29475,   0.56462,  -0.86828,  -0.21244,  -0.70629,   0.05309,   0.44170,   0.52144,  -0.01301,  -0.13004,  -0.56300,   0.08864,   0.70986,  -0.74551,  -0.65315,  -0.24553,  -0.70388,  -0.44701,  -0.53457,   0.86932,   0.77338,  -0.49873,  -0.42873,   0.29874,  -0.63646,   0.38804,  -0.10445,  -0.87150,  -0.59924,   0.11774,   0.69097,   0.31462,  -0.48571,  -0.53149,   0.38343,  -0.55971,   0.26041,  -0.63191,  -0.77074,  -0.39431,  -0.64137,  -0.48767,  -0.19650,  -0.90236
  -0.54158,  -0.14316,  -0.46346,   0.87420,  -0.50503,  -0.25599,   0.37083,   0.87822,   0.00386,  -0.51088,  -0.88998,  -0.17912,  -0.93750,   0.39949,   0.40326,   0.93750,   0.90562,  -0.93750,  -0.79749,  -0.85484,  -0.93750,   0.22848,  -0.37252,   0.88546,  -0.88318,  -0.91872,   0.85306,   0.22435,   0.15771,  -0.87235,  -0.38749,   0.38541,  -0.65892,  -0.66453,  -0.76336,  -0.88551,  -0.57982,   0.29826,  -0.75486,   0.31593,  -0.73527,  -0.80586,   0.87492,   0.26366,  -0.79872,  -0.87875,   0.65441,  -0.37998,   0.21838,  -0.93332,  -0.08498,  -0.81923,  -0.76521,   0.69409,  -0.89103,  -0.54827,  -0.29656,   0.93750,   0.01113,  -0.68375,  -0.86828,  -0.91755,  -0.71639,  -0.32121,   0.25886,   0.85209,   0.02308,   0.38230,   0.49120,  -0.89467,  -0.42308,   0.50061,   0.06586,   0.04047,  -0.48733,   0.01987,   0.10267,   0.76016,   0.32549,   0.26943,  -0.87089,  -0.88451,  -0.63308,  -0.92215
   0.68693,  -0.14503,   0.64902,  -0.62044,  -0.49169,   0.32347,  -0.36089,  -0.62640,  -0.45911,  -0.61575,  -0.21124,   0.36790,  -0.87225,  -0.61759,  -0.56844,   0.78418,  -0.44387,  -0.80269,   0.09555,  -0.23761,  -0.93750,  -0.78663,  -0.75387,  -0.73107,  -0.72142,  -0.88601,   0.03813,   0.36604,  -0.93710,  -0.54924,  -0.35824,  -0.19577,  -0.59953,  -0.71352,  -0.68005,   0.37444,  -0.29877,  -0.72611,  -0.55760,   0.12875,   0.68914,  -0.93651,   0.16015,   0.13815,  -0.78310,  -0.82339,   0.70718,  -0.65206,   0.41738,   0.33021,  -0.65849,   0.93750,   0.16793,  -0.86388,   0.43712,  -0.70707,  -0.61818,  -0.56355,  -0.62992,  -0.79985,  -0.81074,   0.30652,  -0.01818,  -0.27630,  -0.19345,  -0.03913,  -0.14086,   0.71551,  -0.59853,  -0.93750,  -0.64379,   0.18597,  -0.20369,  -0.43719,  -0.37497,   0.60968,  -0.87101,  -0.47786,  -0.07995,  -0.75529,   0.35577,  -0.64880,  -0.58657,  -0.17878
  -0.01315,  -0.33567,  -0.56956,  -0.33671,  -0.25465,  -0.81360,  -0.77687,  -0.40265,  -0.80479,  -0.78935,   0.23230,  -0.61634,   0.07152,  -0.86711,   0.09321,  -0.22237,  -0.35213,  -0.46849,  -0.47744,  -0.72382,  -0.12341,  -0.29782,   0.18802,  -0.93750,  -0.75338,   0.22312,  -0.48361,  -0.74290,  -0.16061,  -0.86365,  -0.74155,  -0.28135,  -0.25716,  -0.20367,  -0.60682,  -0.50978,  -0.06089,   0.12024,  -0.71063,   0.14851,  -0.88308,  -0.89309,  -0.33834,   0.00966,  -0.34902,   0.31787,  -0.35317,  -0.75613,   0.57333,  -0.55517,   0.29417,  -0.39239,  -0.83514,  -0.34286,   0.01439,  -0.63827,   0.26041,   0.10918,  -0.28557,  -0.59196,  -0.92323,  -0.67964,  -0.60424,  -0.09169,  -0.11333,  -0.13457,  -0.54744,  -0.64084,  -0.84916,  -0.23544,  -0.57166,  -0.82348,  -0.84242,   0.10055,  -0.80376,   0.41393,  -0.39130,  -0.22768,  -0.36336,  -0.53188,  -0.17544,  -0.73061,  -0.77925,  -0.57085
   0.08166,  -0.81265,  -0.06799,  -0.82453,  -0.67453,  -0.77627,  -0.87177,  -0.19008,   0.11182,  -0.81474,  -0.61841,  -0.45394,  -0.70935,  -0.65409,  -0.42962,  -0.74493,  -0.19335,   0.55233,  -0.33863,  -0.54354,   0.44819,  -0.69878,  -0.66389,  -0.74658,   0.56716,  -0.20570,  -0.78508,  -0.01497,  -0.70278,  -0.84225,   0.03870,  -0.81601,   0.23807,   0.07317,  -0.49748,  -0.28567,  -0.50624,  -0.80120,  -0.37954,  -0.85334,  -0.91167,  -0.55513,  -0.06988,  -0.78441,   0.10631,  -0.55411,  -0.74792,  -0.81785,  -0.85513,  -0.76896,   0.26245,  -0.81444,  -0.55789,  -0.19898,  -0.23269,  -0.01172,  -0.45642,  -0.76468,  -0.47881,  -0.55419,  -0.84007,  -0.79935,  -0.71817,  -0.82769,  -0.92594,  -0.88132,  -0.76961,  -0.08805,  -0.51617,  -0.64537,   0.09399,  -0.16618,   0.15366,  -0.31595,  -0.92430,  -0.53373,  -0.86141,  -0.04286,  -0.61605,  -0.72730,   0.12162,  -0.25368,  -0.66535,  -0.55063
   0.15166,   0.40492,  -0.12625,  -0.32514,  -0.64962,  -0.49171,  -0.30989,  -0.74712,  -0.46354,  -0.83748,  -0.38726,  -0.78834,  -0.56488,  -0.01352,   0.34343,  -0.17218,  -0.07882,  -0.84930,  -0.43694,  -0.93750,  -0.89845,  -0.53236,   0.15296,  -0.78062,  -0.80961,  -0.75412,  -0.41553,   0.50891,   0.24347,   0.29087,  -0.57662,  -0.42443,  -0.46948,  -0.63078,  -0.18598,  -0.68582,   0.30507,  -0.40482,  -0.74229,  -0.56671,  -0.86885,  -0.83542,  -0.20079,   0.47199,  -0.49026,   0.20413,   0.86546,   0.25509,   0.58182,  -0.87017,  -0.62062,   0.51496,  -0.57691,  -0.74295,  -0.62470,  -0.52840,  -0.65160,  -0.29463,  -0.20077,  -0.13165,  -0.58154,  -0.63192,  -0.34990,  -0.81931,  -0.68252,   0.57135,   0.77221,  -0.83623,  -0.71757,  -0.55572,  -0.78924,  -0.34581,  -0.05063,  -0.73657,  -0.21992,  -0.18733,  -0.28573,  -0.66111,  -0.67237,  -0.86610,  -0.24519,  -0.73703,   0.39001,  -0.57564
  -0.35108,  -0.90705,  -0.34896,  -0.83915,   0.08478,   0.60072,  -0.65458,  -0.41310,  -0.77764,  -0.53899,  -0.73906,  -0.39345,  -0.33912,  -0.85099,  -0.82150,  -0.93750,   0.49839,   0.59784,  -0.21529,  -0.25715,  -0.21177,  -0.36067,  -0.43346,  -0.73777,  -0.56247,  -0.54929,  -0.15231,  -0.70132,  -0.76340,  -0.67011,   0.19302,  -0.66594,  -0.07666,   0.29232,  -0.76662,   0.43110,  -0.15768,  -0.93750,  -0.54718,  -0.93750,  -0.82576,   0.11948,  -0.30847,  -0.68264,   0.09715,  -0.78816,  -0.93750,  -0.84842,  -0.67638,  -0.70814,   0.24955,  -0.85187,  -0.33386,  -0.51785,  -0.43488,  -0.72566,  -0.28023,  -0.93750,  -0.55509,  -0.63961,  -0.06608,  -0.50496,  -0.69492,  -0.86069,  -0.71662,  -0.95277,  -0.72600,   0.41062,  -0.81416,   0.21293,  -0.10164,  -0.41221,  -0.07849,  -0.12011,  -0.91474,  -0.80650,  -0.91328,  -0.25050,  -0.33359,  -0.57166,  -0.15444,  -0.31206,  -0.50197,  -0.27731
  -0.89838,  -0.64596,   0.36112,  -0.71844,   0.66517,   0.79744,  -0.08744,   0.81574,  -0.56519,   0.20838,  -0.76328,   0.24663,  -0.85757,  -0.41266,  -0.75302,   0.79047,  -0.05478,  -0.78185,  -0.72692,  -0.93750,  -0.88771,   0.64531,  -0.73090,  -0.92447,  -0.47851,  -0.90167,   0.51002,   0.39435,  -0.88369,  -0.12070,   0.91999,  -0.77523,  -0.90557,  -0.72645,  -0.90770,  -0.85798,  -0.45128,   0.03665,  -0.28063,  -0.68704,   0.02197,  -0.01461,  -0.04497,  -0.46426,  -0.84405,  -0.71595,   0.34422,   0.47761,   0.17705,  -0.47716,  -0.52821,  -0.79273,  -0.45583,  -0.85453,  -0.15838,   0.67776,   0.12843,  -0.81497,  -0.21216,   0.82118,  -0.32053,  -0.29830,   0.87254,  -0.78431,  -0.33046,  -0.69589,  -0.66507,  -0.72283,   0.16829,  -0.57111,   0.13846,  -0.22773,  -0.88683,  -0.65534,  -0.28376,  -0.79699,  -0.93750,  -0.64753,  -0.86863,   0.88089,  -0.78662,  -0.72421,   0.78652,  -0.91920
  -0.87881,  -0.73669,   0.04685,  -0.88599,  -0.60283,  -0.86737,  -0.87846,  -0.69170,  -0.83135,   0.07461,  -0.75012,  -0.29903,  -0.55179,  -0.57657,  -0.92479,  -0.80047,  -0.36703,   0.10850,   0.25204,  -0.57331,  -0.58990,  -0.55005,   0.58904,  -0.38823,  -0.61919,   0.37855,  -0.73407,  -0.58278,  -0.56833,  -0.38893,   0.48127,  -0.75027,   0.24512,   0.17383,  -0.88222,   0.08289,  -0.57376,  -0.75107,  -0.53498,  -0.81467,  -0.87820,  -0.31882,  -0.43142,  -0.85942,   0.05877,  -0.62357,  -0.80078,  -0.78139,  -0.42925,   0.30533,  -0.03902,  -0.65051,  -0.69954,  -0.75976,  -0.19558,  -0.64151,   0.00232,  -0.54510,  -0.37947,  -0.31928,  -0.60235,  -0.83436,  -0.67851,  -0.87864,  -0.68868,  -0.79114,  -0.64421,  -0.08371,  -0.59890,   0.20278,   0.02977,  -0.85865,  -0.63530,  -0.61957,  -0.35594,  -0.86013,   0.36046,   0.05659,  -0.84296,  -0.27860,   0.13269,   0.21544,  -0.75013,  -0.75339
   0.53341,  -0.15598,  -0.64782,  -0.03415,  -0.49168,  -0.75387,  -0.91939,  -0.82677,   0.12270,  -0.87384,   0.37073,  -0.52062,  -0.61740,  -0.53907,   0.61631,  -0.01726,  -0.55788,  -0.87158,  -0.20115,  -0.71391,  -0.79775,  -0.72273,  -0.77054,   0.62400,  -0.76914,  -0.75923,  -0.08569,   0.44501,  -0.24817,   0.10810,  -0.59566,  -0.12260,  -0.59927,  -0.68881,  -0.80621,  -0.17623,  -0.88267,   0.27057,   0.09821,  -0.70363,  -0.85875,  -0.88001,  -0.14331,   0.40596,  -0.45953,  -0.66442,  -0.72323,   0.16605,  -0.18651,  -0.81117,  -0.49471,  -0.36393,  -0.63079,   0.32969,  -0.56401,  -0.83440,  -0.69350,  -0.79087,   0.45248,  -0.39579,  -0.64217,   0.04915,  -0.59401,  -0.59844,   0.38614,   0.06790,   0.17863,  -0.67329,   0.42433,  -0.78403,  -0.58108,  -0.77819,  -0.81545,   0.04189,  -0.84790,  -0.30695,  -0.92954,  -0.74066,  -0.66293,  -0.55825,  -0.38128,  -0.79487,   0.12896,  -0.88318
  -0.35650,  -0.21968,  -0.55545,  -0.82322,  -0.87524,  -0.30694,  -0.49725,  -0.77590,   0.38157,  -0.43471,  -0.00038,  -0.30293,  -0.46287,  -0.53142,  -0.76326,  -0.67652,  -0.73969,   0.86502,   0.83182,   0.53742,   0.14132,  -0.80258,  -0.82630,  -0.93573,   0.43403,  -0.74402,  -0.14510,  -0.73020,  -0.93750,  -0.71315,   0.86036,  -0.89080,  -0.68240,  -0.47081,   0.45762,   0.27347,  -0.54179,  -0.24653,  -0.76373,  -0.90238,   0.81017,  -0.01412,  -0.42885,  -0.84078,  -0.58235,  -0.83415,  -0.23252,   0.81896,  -0.45914,  -0.24284,  -0.74747,  -0.79380,   0.93750,  -0.01158,  -0.71259,  -0.35166,   0.34445,   0.53446,  -0.73134,  -0.57679,   0.35295,  -0.43897,   0.17650,  -0.24706,   0.18583,  -0.93026,   0.13966,   0.46014,  -0.69142,   0.01882,   0.23901,  -0.71353,  -0.58338,  -0.08854,  -0.19541,  -0.93750,  -0.91139,  -0.78688,  -0.49543,  -0.05870,  -0.83613,   0.93750,  -0.76716,  -0.90006
  -0.67032,  -0.89866,  -0.15604,  -0.85164,  -0.66680,  -0.79408,  -0.81397,  -0.29357,   0.64042,  -0.92119,  -0.57709,  -0.05580,  -0.87158,   0.14935,  -0.49787,  -0.73836,  -0.32265,   0.03279,  -0.05241,   0.60208,   0.30118,  -0.53903,  -0.52065,  -0.93750,   0.63898,  -0.80797,  -0.12413,   0.08404,  -0.87754,  -0.49010,   0.48352,  -0.77372,   0.41630,  -0.15379,  -0.57342,   0.65558,  -0.45216,  -0.80137,  -0.51480,  -0.85855,  -0.12572,  -0.76904,  -0.56874,  -0.80779,   0.37362,  -0.78807,  -0.73680,  -0.82111,  -0.86028,  -0.52257,   0.75945,  -0.93750,  -0.57248,  -0.75720,   0.57856,  -0.61759,   0.44934,  -0.89000,  -0.49740,  -0.53985,  -0.60218,  -0.78169,  -0.77793,  -0.84140,  -0.93750,  -0.93750,  -0.86445,   0.56067,  -0.56780,  -0.59797,   0.05185,  -0.14013,   0.36407,  -0.89631,  -0.84525,  -0.20262,  -0.72633,   0.02511,  -0.20060,  -0.75376,  -0.06976,   0.11843,  -0.40334,  -0.86663
  -0.81312,  -0.94468,  -0.15720,  -0.83064,  -0.52373,  -0.24147,  -0.89336,  -0.25094,  -0.78201,  -0.63876,  -0.42035,  -0.04133,  -0.56846,  -0.24674,  -0.86507,  -0.87119,   0.47307,   0.26659,   0.31265,   0.25693,   0.03001,  -0.67988,  -0.75506,  -0.71414,   0.39465,   0.10335,  -0.57967,  -0.86669,  -0.93201,  -0.79641,   0.05580,  -0.74941,   0.22579,   0.15298,  -0.71353,   0.29799,  -0.34851,  -0.75984,  -0.27424,  -0.88503,  -0.61310,   0.05634,  -0.13909,  -0.73162,   0.08122,  -0.72285,  -0.84803,  -0.89372,  -0.93750,  -0.46983,   0.15546,  -0.82802,  -0.62948,  -0.65121,  -0.10831,  -0.52279,  -0.41277,  -0.60121,  -0.61100,  -0.53158,  -0.69010,  -0.78428,  -0.69750,  -0.25441,   0.00039,  -0.93750,  -0.58933,  -0.18350,  -0.75760,   0.02675,  -0.14030,  -0.85278,   0.35770,  -0.64726,  -0.70711,  -0.82403,  -0.93204,   0.20936,  -0.67827,  -0.91099,   0.66305,  -0.17751,  -0.24073,  -0.15296
  -0.73776,  -0.18396,   0.39814,  -0.83012,  -0.86839,  -0.68461,   0.21652,   0.23423,  -0.79869,   0.01599,  -0.78176,   0.13400,  -0.90835,   0.27369,  -0.52846,  -0.11535,   0.59326,   0.71606,  -0.72784,   0.53040,  -0.26101,  -0.52695,  -0.87413,   0.42590,   0.85490,  -0.06350,  -0.66315,   0.51051,  -0.93750,  -0.44944,   0.66478,  -0.62743,   0.31134,   0.74047,   0.87847,   0.36051,   0.74208,  -0.80078,  -0.64681,  -0.78589,   0.10829,   0.76901,  -0.59714,  -0.87703,  -0.03466,  -0.93568,   0.52232,  -0.84149,  -0.76101,  -0.23640,  -0.45927,  -0.75540,   0.82011,   0.25015,   0.23897,  -0.79683,   0.87071,  -0.87751,  -0.39867,  -0.62966,  -0.87846,  -0.86725,  -0.56705,  -0.87144,   0.52416,  -0.75323,  -0.65010,   0.44259,  -0.64875,   0.73036,   0.40115,   0.20960,  -0.57428,  -0.91237,  -0.31957,  -0.92780,  -0.69291,   0.40413,   0.45590,  -0.74392,  -0.60847,   0.77745,   0.20454,  -0.85782
  -0.85495,   0.24018,  -0.44506,   0.88976,  -0.64969,  -0.73118,   0.50966,  -0.24504,  -0.89689,   0.35969,   0.47768,  -0.68938,   0.43645,   0.62678,   0.38084,   0.36878,  -0.58454,  -0.82730,  -0.38503,  -0.87390,  -0.87673,  -0.63399,  -0.84447,  -0.69256,  -0.81102,   0.03579,  -0.54046,   0.12240,   0.51735,   0.85353,  -0.59240,  -0.61946,  -0.25584,  -0.50184,  -0.78815,  -0.73098,  -0.29731,  -0.05687,  -0.53741,  -0.15626,  -0.76349,  -0.77044,  -0.22009,  -0.37914,  -0.51426,  -0.77517,  -0.57525,  -0.02077,   0.36623,  -0.42057,  -0.56254,  -0.47136,  -0.85105,  -0.28423,  -0.01520,   0.45286,  -0.83689,   0.26858,  -0.21902,   0.38394,  -0.29328,  -0.82387,  -0.81704,  -0.81033,  -0.39568,  -0.41833,   0.48789,  -0.70245,  -0.44379,  -0.83195,   0.34416,   0.13524,  -0.75791,  -0.80001,  -0.79907,   0.29106,  -0.68891,  -0.66935,  -0.57287,  -0.71341,  -0.59929,  -0.87944,  -0.49740,  -0.62431
   0.69789,  -0.93583,   0.86772,   0.03259,  -0.58450,  -0.77291,  -0.93750,  -0.01507,  -0.46375,  -0.82343,  -0.91702,  -0.49494,  -0.93750,  -0.80982,  -0.89706,  -0.43141,  -0.28881,  -0.44556,   0.60079,  -0.80114,  -0.40486,  -0.31132,  -0.80894,  -0.86983,  -0.70974,  -0.92726,   0.68174,   0.46089,  -0.67895,  -0.02695,   0.69162,   0.58737,  -0.63488,  -0.58387,  -0.93502,  -0.89046,  -0.63329,   0.46602,   0.93158,  -0.82535,  -0.80284,  -0.87285,   0.86282,   0.28446,  -0.82948,   0.25274,  -0.93750,  -0.65964,  -0.41034,  -0.86978,  -0.46722,  -0.54515,  -0.79763,  -0.92182,  -0.31177,   0.79500,  -0.27788,  -0.83001,   0.93750,   0.87931,   0.81733,  -0.91693,  -0.32114,   0.59021,   0.33948,  -0.15701,  -0.60655,  -0.70577,   0.85006,  -0.92105,   0.24918,  -0.01174,  -0.23962,   0.82996,   0.39184,  -0.82746,   0.37678,  -0.27258,  -0.16554,   0.28545,  -0.84292,  -0.80885,   0.39957,  -0.90645
